0.00453608 0.0042268 0.000412371 0.0043299 0.00814433 0.00484536 0.00257732 0.00237113 0.00247423 0.00226804 0.00268041 0.000309278 0.00885919 0.0078202 0.00989691 0.00185567 0.00474227 0.00216495 0.00948454 0.00845361 0.00742268 0.00597938 0.00494845 0.01 0.00649485 0.00731959 0.0028866 0.00680412 0.00402062 0.00443299 0.00752577 0.0042268 0.00608247 0.00350515 0.00502448 0.00923114 0.00385063 0.00780765 0.00491484 0.00822396 0.00201645 0.00512675 0.00502268 -0.00020968 0.0048318 0.00125728 0.000230222 0.00826976 0.000423053 0.00752396 0.000874929 0.00092466 0.00876289 0.00536082 0.00608247 0.00835052 0.00226804 0.000103093 0.00628866 0.00175258 0.00555709 6.94263e-05 0.0039909 0.00728728 0.00574901 0.00104642 0.00713492 0.00586926 0.00743932 0.00547605 0.000853879 0.00820757 0.00323886 -0.00179559 0.0055916 0.00632341 -8.69997e-05 0.000566307 0.00853916 0.00249015 0.00206792 0.0101322 0.00752577 0.00752577 0.00907216 0.00123711 0.0040216 0.00226853 0.000127318 0.00151659 0.00640996 0.00679863 0.00473959 0.00421318 0.00345028 -0.000299624 0.00695363 0.000859099 -0.000859576 -8.9647e-05 0.00498241 0.00480135 -0.00301203 0.00461919 0.0066319 0.0066364 0.00321998 0.000513319 0.00735276 0.00556106 0.00146818 0.00896907 0.00886598 0.0056701 0.00958942 0.000516863 0.00773646 0.00258947 0.00644607 0.00128828 0.00837979 0.00274075 0.000641048 0.00746584 0.00606234 0.00406568 -0.000295645 -0.001533 -0.00361075 -0.0007104 0.00350535 0.00124415 0.0014685 0.00492958 0.00699868 0.0023215 0.00550649 0.00679507 0.00375371 0.00493082 0.00752577 0.00463918 0.00669299 0.00715972 0.00299136 0.00716744 0.00420695 -0.00145024 0.00258524 0.00844043 0.00731074 -3.86681e-05 -0.00246025 -0.00161719 -0.00163002 -0.0013152 0.00126295 0.00717367 0.00579477 0.000949481 0.00513723 0.00283681 0.00169756 0.00369765 0.000698468 0.00253016 0.00729498 0.00987097 0.00381443 0.00123693 0.00460629 -4.22318e-05 0.00218049 -0.000169819 0.00438265 0.00223571 0.00418175 0.00239461 0.00280927 0.00131183 -0.00231008 -0.00701665 0.00135424 0.00225032 -0.00448262 -0.00131648 -0.000262526 0.00427392 0.00433577 0.00465603 0.00680432 0.00524583 0.00712228 0.00435507 0.00840161 0.00564471 0.00752577 0.00245308 0.00987635 0.00353443 0.00172205 0.00195866 0.00240704 0.00297984 0.00347438 0.00650655 0.00101647 0.00117226 -0.000396471 -0.00518172 -0.000162087 -0.00140595 -0.00166394 0.000707945 0.00351666 -0.00100574 0.00289434 0.0032119 0.00674638 0.00648848 0.00334924 -9.33077e-05 0.000748006 0.00163491 0.00782974 0.00144649 0.00452902 0.00652071 0.0101623 0.00554695 0.0084672 0.00778203 0.0104231 0.00846918 0.0024997 0.000741979 0.00322482 -0.000225813 0.00279582 0.00235533 -0.00146557 -0.00257775 0.0045685 0.001629 0.00856271 0.00340483 0.00362888 0.00216788 0.0112727 0.00689787 0.000955037 0.00237113 0.00773196 0.00114938 0.00125337 0.00345301 0.00662004 0.0091846 0.0095555 0.0080284 0.00637826 0.00670794 0.00785028 0.00965652 -0.00161294 0.000796633 -0.00362702 -0.00222525 0.000718991 0.00497454 0.00666865 0.00277205 0.00163555 0.00491447 0.00874754 0.00481124 0.00554221 0.00991059 0.0095777 0.00931144 0.00154639 0.00257905 0.0103062 0.00552745 -0.000359879 0.0039521 0.00782715 0.00479375 0.00908022 -0.000563336 0.00626344 0.00629174 0.00544767 -0.000298963 -0.00320781 -0.00225806 0.00496711 0.0101526 0.00142023 0.00632627 0.00388375 0.00621867 0.00415208 0.00143122 0.00412439 0.000409086 0.00851243 0.000675983 0.00721649 0.00363319 0.00349176 0.000253612 0.00294584 0.00637466 0.00614961 0.0105628 0.00084128 -0.00848512 -0.00241553 0.00323592 -0.00561526 -0.0011112 -0.00941619 0.000471407 -0.00366742 0.0051272 0.00158688 0.00126588 0.00578076 0.0019982 0.00250846 0.00747087 0.000793493 -5.18167e-05 0.00250224 0.00425858 0.00175258 0.000812168 0.00457378 0.00699636 0.0100711 0.00465248 0.00125594 0.000868079 -0.00469942 -0.00658037 -0.00389305 -0.00608605 -0.00817793 -0.00901331 -0.0117759 -0.0113629 -0.00418658 -0.00601324 -0.00263987 0.00206983 -0.00567901 0.00543742 0.0080669 0.00948659 0.0057935 0.00796927 0.00977534 0.000218293 0.00536082 0.00701307 0.000437829 0.000817501 0.00543042 0.00239878 0.00402284 0.00627614 -0.00313576 -0.0015688 -0.00137058 -0.00181938 -0.004779 -0.0114978 -0.0191679 -0.0126121 -0.0126495 -0.0101535 0.00134141 -0.00741636 -0.00344541 0.00183452 0.00498126 0.00270819 0.00623027 0.000177869 0.00552764 0.00577451 0.00835052 0.00793151 0.00484753 0.00623372 0.00178593 0.00671222 0.00144103 0.00389984 -0.00228336 -0.00582099 -0.00446365 -0.00624818 -0.00893413 -0.0132256 -0.0202459 -0.00954182 -0.00306736 -0.0040754 -0.000360049 0.00241852 0.000882108 0.00510257 -0.00367283 -0.000341924 0.00237972 0.000459521 0.000227689 0.00185763 0.00989691 0.00101365 0.00064022 0.00730071 0.000409361 0.00236796 0.00198859 0.000115324 0.00221707 -0.00597346 0.000531319 -0.00310664 -0.00825274 -0.0170637 -0.0169934 -0.00740605 -0.00387474 -0.00562131 -0.00783441 -0.00634671 0.00520719 0.00688583 0.00634254 0.000377933 0.00225203 0.00603236 0.00489377 0.00251427 0.00206186 0.00308459 0.00757366 0.00870598 0.00109344 -0.00331666 0.00588096 -0.00293104 -0.0020261 0.00292721 -0.00135479 -0.00234443 -0.00188674 -0.0122894 -0.00877154 -0.00241057 -0.0014469 -0.00451041 -0.00505833 -0.00396528 0.00338213 0.00704609 0.000802627 0.00641386 0.00249104 0.00953317 0.0104499 0.00267466 0.00927835 0.00783222 0.00225905 0.00211851 0.00910048 0.00513056 0.00432655 0.000907112 -0.00164735 -0.00340834 -0.00448704 0.00153787 -0.0036954 -0.0101208 -0.00671883 0.000119294 -0.00763891 -0.00969611 -0.00187084 -0.00828202 0.00668866 0.00761789 0.00215215 0.0130885 0.00397094 0.0105852 0.00492403 0.00172536 0.00113402 0.00587629 0.00753964 0.0061745 0.00653137 -0.00482049 0.00196134 0.000882498 0.0046067 -0.00296301 -0.000342903 -0.00172904 -0.00624229 -0.0118194 -0.0073144 -0.00669814 -0.00537744 -0.00433574 -0.00422651 0.00193823 0.0023839 0.00330059 0.00968904 0.0027817 0.00284161 0.00809317 0.0087267 0.00268195 0 0.00932018 0.000470048 -0.00133316 0.00602741 -0.00252894 0.00103122 0.00265474 0.00544565 -0.00640232 -0.00581066 -0.00456376 0.000793662 -0.00502298 -0.0108167 -0.00778637 0.00218915 0.0077296 0.00771489 0.00394643 0.00885311 0.00863728 -0.00344777 -5.49875e-05 0.00316343 0.00647249 0.0093036 0.00855177 0.00164948 0.00342841 0.00142491 0.00841351 0.00348331 -6.33778e-05 0.00250583 0.00334946 -0.000758198 -0.0023164 -0.0117878 -0.00721315 -0.00277485 -0.00952032 -0.00942001 -0.00763904 0.00104184 0.005936 -0.00315594 -0.000203303 0.00575261 0.00746736 0.000967354 -0.000804953 0.00240945 0.00272877 0.000830326 0.00845361 0.00268041 0.00845361 0.00793424 0.00350534 -0.00151183 0.00616501 0.00431689 -0.00457831 -0.00105135 0.000249617 -0.00486623 -0.0114908 -0.00453654 -0.0152505 -0.0183894 -0.006754 0.00244766 -0.00425642 0.00285302 0.00270575 -0.00624725 0.00505675 0.00498004 0.00969619 0.00616408 0.00256631 0.00570865 0.00185567 0.00268041 0.00896907 0.00479999 0.00678359 0.0016275 0.00227002 -0.00105162 -0.0022304 0.00855738 0.000935167 -0.00124936 0.00197528 -0.00392734 -0.0073194 -0.00811222 -0.00899542 0.00406852 -0.000371824 0.000840232 0.0039863 0.00452803 0.00675191 0.00104622 0.00991724 0.00978792 0.00456744 0.0035298 0.00175258 0.01 0.00123711 0.00596773 0.00926452 0.00400865 0.00398431 0.00187324 -0.00329639 0.00663067 -0.000181714 0.0041859 0.00687402 0.0024003 -0.00242778 0.00346867 -0.00123025 0.0112246 0.00424359 0.0021545 0.00556477 0.00787633 0.00872847 0.00200969 0.00269729 0.00462382 0.00855366 0.00360976 0.00195876 0.00164948 0.00505155 1.41851e-05 0.00964042 0.0092784 0.00832291 0.00591834 0.0071623 0.000897568 0.00101488 -0.000176321 0.00400318 0.00964729 0.000336449 0.00217351 0.00145232 0.00323395 0.0057436 0.0017738 0.00417957 0.00465787 0.00073537 0.00683442 0.0089021 0.0017928 0.00681849 0.0017554 0 0.00134021 0.000412371 0.00443043 0.007964 0.000975649 -0.000761844 0.00779626 0.00340058 0.00437529 0.00528558 -0.00035908 0.00275083 -0.000451782 -0.00127718 0.00548932 0.00984029 0.00510349 0.00908524 0.0111977 0.00135775 0.00620283 0.0097138 0.0068007 0.00580079 0.000148479 0.00732245 0.001756 0.0085567 0.000927835 0.00113402 0.00948454 0.00999957 0.000557214 0.00150457 0.00278497 0.00148099 0.00472853 0.000885462 0.00536348 -0.000282506 0.0024995 0.00649241 0.00941539 0.00600839 0.00681956 0.00171396 0.00214059 0.00550709 0.00958425 0.00532213 0.0072591 0.00764426 0.00587795 0.00505155 0.00597938 0.00443299 0.000515464 0.00752577 0.0071134 0.00216495 0.00298969 0.00846297 0.00672195 0.00659522 0.00647463 0.0027287 0.00401819 0.00981715 0.000920335 0.00156234 0.00674879 0.00944085 0.00177954 0.00616517 0.00183663 0.000792992 0.00600223 0.00851362 0.00433631 0.00884083 0.00824742 0.00597938 0.00783505 0.00103093 0.00237113 0.00360825 0.00103093 0.00453608 0.00226804 0.00164948 0.00773196 0.00505155 0.00628866 0.00206186 0.00443299 0.00835052 0.00626635 0.00830168 0.00113402 0.00484536 0.00979381 0.00917526 0.00463918 0.00649485 0.00948454 0.00309278 0.00917526 0.00886598 0.00690722 0.00587629 0 0.00360825 0.00649485 0.00639175 0.0056701 0.00195876 0.00391753 0.0083339 0.00551709 0.00765269 -0.000375029 0.00815314 0.00679846 0.0072856 0.00145718 0.00436931 0.00314609 0.000720236 0.00541489 0.000328949 0.00461795 0.00390438 0.00383303 0.00972646 0.000911068 0.00422067 0.00164948 0.00721649 0.00216495 0.0102062 0.00226804 0.00113402 0.00556701 0.00804124 0.00680412 0.00585718 0.00545977 0.00409479 0.004816 -0.000782859 -0.00397787 -9.50593e-05 0.00611129 0.00466224 0.00408595 0.00638861 0.00188463 0.00364764 0.00656662 0.00187523 0.00354831 0.00459861 0.00542167 0.0053503 0.0100745 0.00865711 0.00484536 0.00412371 0.0056701 0.0101031 0.00969112 0.00886604 0.00673985 0.00505581 0.000109134 0.00620671 0.00111822 -0.00450356 -0.00387831 -0.000176431 -0.00269929 0.000211784 0.0126391 0.00386173 0.00489078 -0.00268081 -0.00374602 0.00522719 0.00396916 0.00550854 0.00755358 0.00604399 0.00857374 0.00442242 0.007027 0.00175258 0.00659794 0.00443299 0.0102057 0.00896771 0.00998978 0.0057502 0.00753252 0.00455927 0.00149874 -0.000863148 -0.0119734 -0.00463638 -0.0059228 0.00530661 0.00480658 0.000943751 -0.00815962 -0.00134224 -0.00597774 0.00154534 0.0119234 0.0148622 0.0105827 0.00938356 0.00180153 0.00519465 0.00145858 0.00174739 0.00154639 0.00556701 0.00235825 0.00199058 0.00657365 0.005247 0.0102801 0.0070323 0.00267183 -0.00336552 -0.00857838 -0.011485 -0.00672229 -0.000281776 -0.00731239 -0.00864012 -0.00846965 -0.00959771 -0.00752557 -0.00179711 0.00785636 0.00819141 0.00952577 0.0105526 0.00654218 0.00172176 0.00526295 0.000610895 0.00381443 0.000618175 0.00478501 0.00126094 0.00704316 0.00347536 0.00784953 0.00259456 0.00318979 -0.00226159 -0.00930765 -0.00607812 0.00546583 0.00580491 -0.00824603 -0.00918965 -0.000355973 0.00368477 -0.00755696 0.000453599 0.00220309 0.00310075 0.0100927 0.0107593 0.0023964 0.00205869 0.00119498 0.00176358 0.00886598 0.00864541 0.00401541 0.00283298 0.00804472 -0.00329579 0.00132785 -0.00215713 -0.0186657 -0.0139605 -0.000471323 0.00606839 0.0164932 0.00640569 -0.00621197 -0.00996253 -0.00774316 -0.000954134 -0.00701792 -0.0111898 -0.00550204 0.00788472 0.00786723 0.00300879 0.00781437 0.00624619 0.00267346 0.00536303 0.00686651 0.00263413 0.0025055 0.00731628 -0.00134734 -0.00322027 -0.00525086 -0.0109339 -0.00955223 -0.00496904 -0.00275381 0.00918753 0.0050228 -0.0116121 -0.0114917 -0.00490247 -0.00263876 -0.0070261 0.00163144 -7.51392e-05 -0.00539261 -0.00441795 -0.00157663 -0.00298066 -0.000381657 0.00670973 0.00767655 0.00508226 0.00412371 0.00491649 0.00483057 0.00509461 0.00253053 -0.0017504 -0.00436598 -0.0110893 -0.00279386 0.00330326 0.00572097 0.0103321 0.00623911 -0.00827441 -0.00720771 0.00344633 0.0101722 0.0167465 0.00862131 0.00405686 0.00708272 -0.0044285 0.00369559 -0.0019332 0.000802255 0.00821049 0.00592035 0.00153992 0.00793814 0.00614312 0.00275476 0.000884056 0.00198498 -0.00681913 0.0038366 0.00966467 -0.00380074 0.00637598 0.00442029 0.00602568 -0.0148533 -0.0209417 -0.0178215 -0.00713525 -0.00143696 0.00182757 0.00274275 0.00912389 -0.00772933 -0.00503682 -0.00397904 0.00224904 -0.00132351 0.00649169 0.00871149 0.00474092 0.00639175 0.00286868 0.00487387 -0.000703009 -0.00459588 0.00494016 0.00806326 -0.00622285 -0.00665172 -0.00703132 0.00682941 -0.0120033 -0.00864056 -0.00994115 -0.00727183 -0.000552215 -0.00491364 -0.00768189 -0.00291298 0.00565725 -0.00326817 -0.00668901 -0.00426075 0.00477752 0.00477139 0.00184925 0.00980489 0.00213385 0.00257732 6.58476e-05 -0.000959825 0.00259832 0.00155685 0.0249673 9.32462e-05 -0.0118794 -0.00588952 -0.00523301 0.00466776 -0.00233098 -0.00161345 -0.0159438 -0.00309642 -0.00788827 -0.00369504 -0.00517719 -0.00834396 -0.00154011 0.00380097 -2.38709e-05 -0.00172364 0.00146139 -0.00130651 0.00645579 0.00230482 0.00533872 0.00453608 0.00175194 0.00502824 0.00722215 0.0106985 0.0238473 -0.00296408 -0.0141869 -0.00321383 0.000679074 0.0066579 -0.00892953 -0.00880898 -0.0122143 -0.0109402 -0.00788143 -0.00298328 -0.0110436 -0.0170171 -0.00223668 0.0176202 0.0113824 0.00477423 -0.00680573 -0.000103677 0.00290972 0.00268594 0.00266952 0.00536082 0.00876752 0.00506616 0.010411 0.0196189 0.00066514 -0.00871647 -0.0155603 -0.00388779 0.00231568 -0.00251426 -0.00301427 -0.000223129 -0.0124639 -0.0184102 -0.014257 -0.0103902 -0.00976059 -0.00449951 0.0255849 0.0312038 0.00860021 0.007095 -0.012135 -0.00619618 0.00206333 0.000119051 0.00803986 0.00628866 0.00196984 0.0060341 0.0137192 0.0253207 -0.00151234 -0.00100026 -0.00590351 0.00818836 0.00459882 -0.0104418 -0.00523511 -0.00409178 -0.00622646 -0.0210613 -0.00964846 -0.00378464 -0.0118641 0.00535011 0.0276818 0.0153997 0.00542562 0.00604936 -0.0205035 -0.00857187 -0.00025458 0.00453824 0.00917605 0.000721649 0.000726848 0.00903697 0.0169586 0.0223565 0.0150584 0.00428375 -0.0100979 0.00485036 0.0107546 -0.00391862 -0.000159531 -0.00425896 -0.00527247 -0.0110607 -0.00521953 -0.00542027 -0.00566072 0.00445627 0.00836313 0.0228434 0.0127803 0.0115434 -0.0113926 -0.00141656 0.0014002 0.00275402 0.00239051 0.00443299 0.00278532 0.0087084 0.0153839 0.00890467 0.00704918 0.00806435 0.00290518 0.00807471 0.00996054 -0.00232696 0.00681363 0.00494508 0.00162949 -0.00804932 0.00772531 0.0101645 -0.000286522 0.0036886 0.0142088 0.0174347 0.0110016 -0.00243393 -0.0051023 -0.00344027 0.000892937 0.00485037 0.00623513 0.00639175 0.00412371 0.00282371 0.0148886 0.0190181 0.00941823 0.00968352 0.00387521 0.00332348 0.00436445 0.00419258 0.0148335 0.0131755 -0.00648563 0.00531093 0.00999507 7.13938e-06 -0.0134916 0.003879 0.0128253 0.017773 0.00866913 -0.0114936 -0.00424053 -0.00172763 0.00620031 0.00574973 0.000281522 0.00927835 0.00426841 0.00221235 0.0162258 0.0109399 0.0143059 0.00975081 0.0146665 0.0158188 0.00738196 0.00452751 0.0107997 0.000372599 -0.00604473 -0.00496942 -0.0109948 -0.0182876 -0.0241879 4.88844e-05 0.0201444 0.0236853 0.0158374 -0.00535553 -0.00118433 0.00474149 0.00175183 0.00559985 0.00947516 0.00556701 0.00737635 0.00681305 0.00942589 0.010507 0.0122378 0.00652799 0.00586767 0.00721343 0.00716703 -0.00387532 -0.00724437 -0.0141043 -0.0139488 -0.0183632 -0.0192747 -0.0125557 -0.0253646 0.00751269 0.0307477 0.0287795 0.0161246 0.00381643 0.00208414 0.00478435 0.00445554 0.00999644 0.00536082 0.00298969 0.00237113 0.00548535 0.00993564 0.000291207 0.00180049 0.00803794 0.0109886 1.95414e-05 -0.00725221 -0.0141635 -0.0177051 -0.0146128 -0.0232688 -0.0213262 -0.0176785 -0.0197165 -0.0155739 0.00346227 0.0206337 0.032314 0.0333432 0.0117649 0.00849892 0.0144911 0.00770449 0.00229252 0.000618557 0.0071134 0.00721649 0.00309554 0.00737453 0.00303826 -0.00208905 -0.00657437 -0.0121573 -0.00892816 -0.0193349 -0.0155329 -0.0159129 -0.0128366 -0.0230516 -0.0174467 -0.0227659 -0.0165574 -0.0111435 -0.00749341 0.00223699 0.0213996 0.0385808 0.0128867 0.0102254 0.0137065 0.0100355 0.00464441 0.00680412 0.00546392 0.0043299 0.006311 0.00597349 -0.00146565 0.00549755 -0.00238522 0.00112696 -0.00708766 -0.0136099 -0.0109596 -0.00387105 -0.013692 -0.0172207 -0.0137418 -0.0133991 -0.0157357 -0.00807604 -0.00348719 0.00392258 0.0222442 0.0197763 0.0149932 0.00638105 0.00540647 0.00137114 0.00773361 0.00659794 0.00649485 0.00927835 0.000935205 0.00286662 0.0025294 0.00706233 0.00601338 0.00577101 0.00554645 0.000547471 0.00279974 0.000136172 -0.00781133 -0.00868911 -0.0148355 -0.00942079 -0.00566634 -0.00206925 -0.00406904 0.00640969 0.0220122 0.0241103 0.0143843 0.0123502 0.00245725 0.00440228 0.000561055 0.00216495 0.00773196 0.00670103 0.00876536 0.0077318 0.00446243 0.00278984 0.00370147 0.00630685 0.00433875 0.00358024 0.010572 0.0136224 -0.000477878 -0.00264826 0.00389443 -0.00685194 -0.000359604 0.00039396 0.00248117 0.0150952 0.0228315 0.0260187 0.00555524 0.00289976 0.00669336 0.00789863 0.00745823 0 0.00752577 0.00226804 0.00731959 0.00876345 0.00213547 0.00444519 0.00453679 0.000883713 0.00173788 0.00802189 0.00960262 0.0094535 0.000919088 0.00178266 0.00647086 0.00592335 0.0112246 0.00260395 0.00282903 0.00795934 0.0115674 0.0166684 0.00847939 0.00946837 0.00772346 0.00360825 0.00783505 0.00917526 0.00206186 0.00948454 0.00525773 0.00649485 0.00793814 0.00299896 0.000533603 0.00385292 0.00561137 0.0047599 0.00968036 0.00434628 0.00464751 0.00968847 0.00631459 0.00227123 0.00675796 0.00611792 0.000703816 0.000598418 0.010762 0.00464035 0.00519447 0.00978577 0.00113402 0.00113402 0.00670103 0.00515464 0.00402062 0 0.00670103 0.00123711 0.00886598 0.00123711 0.000618557 0.00123711 0.00876289 0.00886598 0.000412371 0.00835052 0.000558221 0.00710391 0.0056701 0.00618557 0.00938144 0.00793814 0.000824742 0.00989691 0.00164948 0.00278351 0.000412371 0.0043299 0.00556701 0.01 0.000927835 0.00762887 0.000824742 0.00608247 0.00731959 0.0056701 0.00680412 0.00546431 0.000797794 0.00125227 0.0097413 0.00758081 0.00281146 0.000569811 0.0019684 0.00633773 0.000955662 0.00700232 -7.79667e-06 0.00122475 0.00131291 0.00958563 0.00761694 0.00135365 0.00949422 0.0036172 0.00226804 0.00175258 0.00649485 0.0102062 0.000412371 0.00329897 0.00360825 0.00938144 0.0101146 0.00477636 0.00273403 0.00411458 0.00989128 0.00722788 0.00256196 0.00821887 0.000896174 -0.000593291 0.00191748 0.00717486 0.00124604 0.00848099 6.08222e-05 0.00785542 0.00464265 0.000514364 0.00209761 0.000353881 0.00806751 0.00817023 0.00721649 0.00597938 0.00360825 0.00835052 0.00968349 2.28374e-07 0.000573318 0.00891355 0.00977183 0.00216128 0.00844243 0.00511425 -0.000984702 0.00393829 -0.00248707 0.00880578 0.00378333 0.00123627 0.00213292 -0.000325047 0.00498258 0.00642534 0.0110831 0.00112397 0.001416 0.00452065 0.00497968 0.00797487 0.00388205 0.000515464 0.00525773 0.000412371 0.00584974 0.00556404 0.00115317 0.00340383 0.00219547 0.00672237 -0.00593426 -0.0129157 -0.00774924 0.00626108 0.00435093 -0.00119848 -0.00286931 0.00189052 -0.00117573 -0.000685323 0.0110811 0.0195438 0.0138472 0.0119984 0.0124542 0.00932154 0.00841871 0.00750837 0.00764595 0.00907066 0.00134021 0.000515464 0.0027707 0.00363178 0.00761886 0.00975968 -0.00267286 -0.00556148 -0.00490175 0.00616754 0.0166062 0.0122479 0.00226586 0.00202928 0.00482324 0.0071417 -0.0005318 -0.00497901 0.00112229 0.00868644 0.00707962 0.00695772 0.00762511 0.0109454 0.00421263 0.0045941 0.00910852 0.00495342 0.00721649 0.00432759 0.00927594 0.00528918 -0.00281053 -0.00310544 0.00342949 0.016759 0.0110182 0.0168703 0.0408986 0.0400679 0.0204456 0.0265088 0.0206403 0.019287 0.0129533 0.00648282 0.00627886 0.00494894 0.000512893 0.00560948 1.38663e-05 0.00141613 0.00604661 0.00710328 0.009906 0.00507776 0.00484536 0.0043073 0.00143596 0.00668071 -0.00708171 0.00408233 0.00698198 0.0106001 0.0270307 0.038597 0.0387109 0.0239313 0.017255 0.0221211 0.0246812 0.0106774 0.00289179 -0.0168998 -0.0114217 -0.00849161 -0.0172643 -0.0137245 -0.000307801 0.00305242 0.00446713 0.00510694 0.0104344 0.00394481 0.00587509 0.0025031 0.000790182 0.00505933 -0.00496942 -0.00412628 0.00149113 0.00377307 0.0423793 0.0218541 -0.0138318 -0.0156461 -0.0088783 -0.0100651 -0.00485074 -0.00475261 -0.0231213 -0.0375222 -0.0388473 -0.0361907 -0.0301885 -0.0207338 -0.0209169 -0.00218729 0.0104483 0.00504505 0.00192216 0.00516324 0 0.00851963 0.00806078 0.000438433 -0.00066201 -0.00276661 0.0186259 0.0188743 0.0220974 -0.0231285 -0.0247182 -0.0128275 -0.0349714 -0.0233104 -0.0225752 -0.0271195 -0.0265968 -0.0358845 -0.0393619 -0.041954 -0.0384928 -0.0390288 -0.0252557 -0.00934133 0.00264435 0.00109382 0.0101209 0.00877096 0.00969072 0.00914066 0.00742129 0.00262439 0.00261677 0.00549326 0.0153353 0.0208663 0.00829476 -0.0142874 -0.00456158 -0.026842 -0.0388897 -0.0391333 -0.0220081 -0.00344669 -0.0171143 -0.0371431 -0.034852 -0.0433558 -0.0449424 -0.0350801 -0.0301871 -0.00489302 -0.000573214 -0.000776188 0.00317822 0.00102707 0.00917526 0.00637828 0.000752511 -0.0015267 -0.000283231 0.014461 0.0262628 0.036333 0.0160384 -0.0122421 -0.0284475 -0.0462434 -0.0270308 -0.0196043 0.0157145 0.0178858 0.0168777 0.0123414 -0.00608798 -0.0141158 -0.0239604 -0.0183799 -0.0185365 -0.000611654 -0.00386501 -0.00112198 0.00359367 0.0070825 0.00494845 0.00281539 0.00246767 -0.000586739 0.00668009 0.0300742 0.0386667 0.0293494 0.0171927 0.00498756 -0.00832226 -0.0262678 -0.015053 0.00346547 0.00709495 0.0205539 0.0188627 0.0303732 0.00535876 -0.00648767 -0.012718 -0.00464086 0.00336033 0.017856 -0.00276343 -0.00719388 0.00163509 0.00802251 0.00814433 0.00893125 0.00525611 -0.00276827 0.00594551 0.0234156 0.0363308 0.0306179 0.0110535 0.0152747 0.0248701 0.0123545 0.00178578 -0.0156636 -0.00728357 -0.00464052 -0.00883071 0.0079051 -0.0016623 -0.0158786 -0.00957324 -0.00493789 0.00599709 0.0233295 0.0126728 -0.00258203 0.00090345 0.00462736 0.00103093 0.000604489 0.00545942 0.000778833 -0.00118662 0.0165866 0.0446138 0.028072 0.0217239 0.0266867 0.0226812 0.0153367 0.0048834 -0.0128664 -0.0272895 -0.0326621 -0.0247523 -0.00958075 0.00668696 -0.00593278 -0.0143406 -0.00939615 0.00962783 0.0210508 0.013651 -0.00329409 0.00587885 0.00803613 0.00783505 0.00543179 0.00326928 -0.000541075 -0.00406639 -0.00524701 0.0220995 0.0109884 0.0282653 0.0305673 0.0135789 0.00439787 0.0105668 -0.0237071 -0.040163 -0.0371671 -0.0346577 -0.00275872 0.0153884 0.000145444 -0.0181062 -0.0196735 -0.00598033 0.0140567 0.0197153 0.00154409 0.00132422 0.00564554 0.0085567 0.00369276 0.00486065 0.00386451 -0.00452615 -0.010937 -0.00182091 0.00112394 -0.00316546 -0.0103588 -0.00824793 0.00421606 -0.00179772 -0.0221269 -0.0290457 -0.0169059 -0.0178553 -0.0100527 -0.000843392 0.0108341 -0.00888137 -0.0236671 -0.0057413 0.0142313 0.0218779 0.00562993 -0.00101933 0.00130918 0.0101031 0.00215951 0.00610114 0.00768267 -0.00267692 -0.00249922 0.0167137 0.00885619 0.00697877 -0.00476862 -0.0145016 0.0015456 -0.00160086 -0.0127 -0.0139197 -0.0121696 -0.00737987 -0.00254938 -0.000191814 0.0105984 0.00318126 -0.0264133 -0.0124094 0.0134403 0.0282201 0.000408058 0.00444512 0.00954754 0.000927835 0.0085567 -0.000337492 0.00572091 0.0028183 -0.0021929 0.0050551 0.0144938 0.0190778 0.00104266 0.000516915 -0.00600199 -0.0143605 -0.0139304 -0.0105512 -0.00911457 -0.00598253 -0.0040615 -0.00479062 0.0181091 0.0153122 -0.0165329 -0.0131513 0.00408742 0.0290089 0.00963316 0.00820764 0.00367275 0.000927835 0.00160009 0.006287 0.00664922 -0.00299897 0.00118058 -0.00264664 -0.0103457 0.00500997 -0.0102371 -0.0079872 0.00704773 0.00299075 -0.0130019 -0.0212182 -0.0229594 -0.0270727 -0.0182758 -0.00996097 0.00178034 -0.00245783 -0.0154427 -0.00876541 0.0104668 0.0292851 0.00998289 0.00534889 0.00370701 0.00257732 0.00922848 0.000276576 0.00541541 -0.00205253 -0.000508711 -0.00430458 -0.0254318 -0.0121786 -0.00898843 -0.00796586 -0.00417458 -0.00758363 -0.00958723 -0.0188598 -0.0329687 -0.022918 -0.0141218 -0.0212503 -0.00346065 -0.00855118 -0.000538823 0.0124592 0.0252988 0.0341068 0.0111317 0.00749156 0.00454015 0.00783505 0.00154639 0.00334657 0.00433786 0.00386425 0.000568048 -0.000582666 -0.00365123 -0.0210853 -0.0300066 -0.0313788 -0.0312256 -0.0265276 -0.0280198 -0.0248883 -0.0326281 -0.0331069 -0.0224722 -0.0129529 0.000708361 0.00721945 -0.00210564 0.0136057 0.0347129 0.0491504 0.0162807 0.00745982 0.00226804 0.000824742 0.00453608 0.00334243 -0.000143528 -0.00320426 -0.0038734 -0.00437208 -0.0143013 -0.0128956 -0.0206616 -0.0251256 -0.0130478 -0.0140146 -0.00460371 -0.0049631 -0.00867325 -0.00501735 -0.014165 -0.00764217 -0.00420968 -0.00589658 -0.0159413 0.0125813 0.0440499 0.0449398 0.0201428 0.00264855 0.00721649 0.00546392 0.0085567 0.00844839 -0.000570282 0.00541516 0.00358669 -0.00339434 -0.011805 -0.0101334 -0.0181693 -0.00870473 0.00144324 4.46272e-05 -0.00307238 -0.00275183 -0.0101253 -0.00615599 -0.00127465 -0.00953875 -0.00168114 0.0123337 -0.00893699 0.0194843 0.046333 0.0454963 0.0120416 0.00160128 0.00628866 0.00185567 0.00659794 0.00622169 0.00597998 0.00587961 0.00809303 0.00038484 0.00291117 -0.000578356 -0.000756873 0.00498367 0.000805424 0.00553805 -0.0194003 -0.0218079 -0.00779703 -0.00587347 -0.000510169 0.00645604 0.0155708 0.0289051 0.013495 0.0232664 0.0249246 0.013843 0.00739586 0.00280504 0.00835052 0.00453608 0.00237113 0.00610011 0.00877319 0.00561428 0.00331585 -0.000817469 0.00585408 0.00164501 0.00746046 0.000384048 0.00787345 -0.00350022 0.00112976 0.0059939 0.00453727 0.00349453 0.00623221 0.00840661 0.0192944 0.0360636 0.0410257 0.0226529 0.00879922 0.00954387 0.00869089 0.00857365 0.00659794 0.00494845 0.00948454 0.00525773 0.00360881 0.00960547 0.00314083 0.00126772 -5.93449e-05 0.00841835 0.000601283 0.0071977 0.00506499 0.0060785 0.0102682 0.0111516 0.01127 0.00211914 0.0064321 -0.00546425 -0.0011 0.00913082 0.0184099 0.0100708 0.00317086 0.0101256 0.00690722 0.00969072 0.00701031 0.00360825 0.00649485 0.00628866 0.0102062 0.00391753 0.00783327 0.00422592 0.00861624 0.00773165 0.000163293 0.00921671 0.00214743 0.00159753 0.000828761 0.0027875 9.95086e-05 0.00711747 0.00953876 0.0018142 0.00272809 0.0101206 -0.000675745 0.00729062 0.00763136 0.00639175 0.000721649 0.00226804 0.0043299 0.0085567 0.00989691 0.00463918 0.00608247 0.00845361 0.00350515 0.00969072 0.000309278 0.00247423 0.00360825 0.000824742 0.0085567 0.00927599 0.00277834 0.00123711 0.00360825 0.00309278 0.00134021 0.0057732 0.00587629 0.00649485 0.00463918 0.00917526 0.0043299 0.00639175 0.00412371 0.00391753 0.00587629 0.00505155 0.00958763 0.00350515 0.000103093 0.00154639 0.00546453 0.00127682 0.00212847 0.00568929 0.00268564 0.00348763 0.00183173 0.00646232 0.00554958 -0.00344149 0.0020963 0.00923375 0.0044182 0.000864124 0.00239051 0.00235533 0.00186227 0.00903247 0.00772945 0.00453608 0.00546392 0.000103093 0.00329897 0.00412371 0.00309278 0.0071134 0.00752577 0.00112647 0.00350262 0.00104569 0.00713581 0.00281805 0.00578718 0.00338299 0.00576897 0.00729665 0.00416423 -0.0107249 -0.0113718 -0.0118671 -0.00497068 0.00348497 0.000869677 0.00393213 -0.000379809 -0.000488532 0.00128554 0.000221765 0.00052991 0.0085567 0.01 0.00453608 0.00597938 0.00931723 0.00118481 0.00641995 0.000229741 0.00456914 0.00373561 -0.00217608 -0.00223281 -0.00259777 0.00824412 0.0188713 0.00726008 0.015975 0.019267 0.0243271 0.022119 -0.000658552 0.0087589 0.0129385 -0.00834384 -0.00785539 -7.17309e-06 -0.00679163 0.00250767 0.00944601 0.00381443 0.00618557 0.00989691 0.00250428 0.0046407 0.00426987 0.00260163 -0.000443882 -0.00199132 -0.00926144 -0.00810107 -0.0120252 0.00010491 0.021862 0.051351 0.0421266 0.0347732 -0.00493371 -0.0038785 0.015648 0.00500375 -0.00710146 -0.0198441 -0.0134563 -0.0125066 -0.00414697 0.00201929 0.00133364 0.00680181 0.00917526 0.00123711 0.00167171 0.00628218 0.00264668 -0.00211957 -0.0013441 -0.00184486 -0.0302343 -0.0255675 -0.0308459 -0.0113938 0.00724374 0.0430072 0.0263127 0.0356882 0.0303241 -0.00572606 -0.00241216 0.0142189 -0.005317 -0.00947736 0.00156944 0.00271646 -0.0014275 0.00407745 0.00557786 0.00315738 0.00329897 0.00187581 0.000369023 0.00167159 0.00849007 -0.000263418 -0.00200743 -0.0113382 -0.0142385 -0.0197606 -0.0171915 -0.0101029 -0.00285439 0.0268506 0.0128913 0.00125255 0.0290766 0.000830834 -0.00839086 -0.00392205 -0.0298574 -0.0396014 -0.00633786 -0.0125107 0.0237327 0.00627932 0.00802941 0.00213915 0.00835052 0.0109021 0.00436034 0.0068187 0.00534385 0.00768418 0.0109442 -0.0078784 -0.0059925 -0.00463911 -0.015005 0.000572426 -0.0152957 -0.0172864 0.00918541 0.00872425 0.0206905 0.017071 -0.00316458 0.00283075 -0.00611994 -0.0153089 0.0104746 0.0114666 0.0307272 0.0094937 0.0100376 0.00814195 0.00841004 0.00392157 0.00467877 0.0103101 0.0103861 0.00377032 0.00888805 0.0114768 -0.0143362 -0.02669 -0.0173918 -0.0243427 -0.0368288 -0.0574805 -0.0188845 -0.00634716 0.00742147 0.00351142 -0.00140306 -0.00376287 0.0118668 0.000634291 0.0303645 0.00436684 0.0106845 0.010062 0.00355032 0.00534625 0.00907216 0.0095274 0.00468036 0.00295472 0.00490997 -0.000971517 0.00269893 -0.000570085 -0.0312076 -0.0339502 -0.0442931 -0.0553591 -0.0614805 -0.0534341 -0.0345751 -0.0149449 0.0169136 -0.0108888 -0.0139819 -0.00987797 -0.0092012 -0.00840924 0.0285878 0.00523989 0.00949933 0.0130339 0.0118204 0.00242243 0.00484536 0.00597395 0.00632933 0.00987312 -0.00305383 0.00473023 -0.00994176 -0.0207124 -0.0323284 -0.0302276 -0.0369106 -0.0560347 -0.0383069 -0.00291227 0.0215767 0.0360012 0.0482751 0.00604406 0.0121014 0.0179014 -0.00745721 0.00173549 0.0130991 0.00509229 0.0224143 0.0113733 0.00783905 0.00742948 0.00546392 0.00699797 0.00977454 0.00184812 -0.00212069 -0.00125353 -0.016598 -0.0278725 -0.0277516 -0.00448892 -0.00974909 -0.00477082 0.00864787 0.0463619 0.0609136 0.0415545 0.0134499 0.00186526 0.00706435 -0.0178686 -0.0247188 -0.0266359 -0.0165893 -0.00592148 0.00733201 0.0127454 0.00398423 0.00194318 0.00690722 0.00316895 0.00781151 0.000362329 0.00488497 -0.00896181 -0.0169123 -0.0276163 8.17194e-05 0.0118719 0.0204937 0.00883211 0.0286761 0.043539 0.0356973 0.0223498 -0.0145222 -0.0264523 -0.0167125 -0.044143 -0.0249492 -0.036322 -0.0242064 -0.00822015 -0.00400943 0.00225333 0.0040019 0.00731514 0.00298969 0.00391645 -0.000447653 0.00532711 -0.00421914 -0.00225908 -0.0153124 -0.0150375 0.00382926 0.00379686 0.00922798 0.0050592 0.0208768 0.0333406 0.0232605 0.00331224 0.000562763 -0.0470441 -0.0188099 -0.0363722 -0.0340322 -0.0257635 -0.025843 -0.00526962 0.00441901 0.000451176 0.00865639 0.0052623 0.00525773 0.00140181 0.00228383 0.00167376 0.0120704 -0.00355263 -0.0136837 -0.0290326 -0.029969 -0.0173936 -0.0134205 0.00459306 -0.00430477 0.00180661 -0.0115977 -0.0109575 -0.000596025 -0.00624647 -0.0132398 -0.0365981 -0.0252904 -0.018839 -0.0129665 -0.0032104 0.00380024 0.006595 0.00536494 0.00453552 0.00463918 0.000346867 0.00342212 0.00747735 0.0156568 0.013696 -0.0176613 -0.0486643 -0.0546403 -0.067151 -0.0696103 -0.0506115 -0.0390728 -0.0366168 -0.043951 -0.0267183 -0.00331059 0.0193876 0.00205354 -0.0254514 -0.00317482 -0.0194892 -0.0134615 -0.000198056 0.00361775 0.00398447 0.00212397 0.0099626 0.00773196 0.000334142 0.0113552 0.00848115 0.0119597 0.014547 -0.0160246 -0.035582 -0.0507626 -0.0908951 -0.0791624 -0.0786047 -0.0720788 -0.07987 -0.095863 -0.0440894 0.0118011 0.0441127 0.0296666 0.00850328 2.18711e-07 -0.00977101 -0.00328766 0.00336692 0.00420919 0.00827739 0.00957122 0.00778225 0.00979381 0.00168703 0.00446384 0.0123046 0.00835183 0.0127743 -0.00753285 0.00314065 -0.016427 -0.0393336 -0.0599327 -0.0664467 -0.0799969 -0.0834844 -0.0654995 0.00530416 0.0430147 0.0490035 0.011369 0.0113581 -0.0196136 -0.016934 -0.0071955 -0.00596126 -0.00692173 0.000295125 0.00882152 0.00977364 0.0028866 0.00690722 0.00593298 0.0262969 0.00761866 0.0160474 0.0421964 0.0152687 0.035013 0.00868165 -0.00423929 -0.0134372 -0.00123159 0.0238448 0.0144809 0.0348549 0.0160053 -0.00139394 -0.0130104 -0.00357808 -0.0416104 -0.0235808 -0.00985636 -0.0127013 0.00229076 0.00644466 0.00605799 0.0080694 0.00309278 0.00367497 0.00468742 0.026463 0.0027048 0.020304 0.0258384 0.0113206 0.0188416 0.0182563 0.0337343 0.0335266 0.0416115 0.0352022 -0.00369042 0.0203312 -0.0229956 -0.00709762 -0.001796 -0.0262758 -0.0407602 -0.028178 -0.0283228 -0.0102272 0.000313814 0.00838066 0.00374296 0.00408679 0.00268041 0.00503804 -0.00202506 0.00552254 0.0111463 0.0110053 0.000115561 -0.00511021 0.00573442 0.0162724 0.0280823 0.0293719 0.0233529 0.0193727 0.0166971 -0.00508183 -0.0346417 -0.0284968 -0.0380873 -0.0523938 -0.041258 -0.0322323 -0.0368788 -0.0086183 -0.001779 0.00955728 0.00414588 0.00890312 0.000515464 0.00556701 0.00306752 0.00155163 -0.0053351 -0.00606027 -0.0161735 -0.00731061 0.000651006 -0.00423339 -0.00762466 0.00338825 0.0138844 0.0197201 0.0171011 -0.0210397 -0.0359611 -0.0370729 -0.0310706 -0.0202682 -0.0137801 -0.0143006 -0.00769156 -0.00735275 -0.00105415 0.00851583 0.00216297 0.00773196 0.00164948 0.000515464 0.00666942 -0.00057693 -0.00120169 0.0052784 -0.0024693 0.00168198 -0.00385356 0.0174732 0.0319551 0.0253669 0.02769 0.0177942 -0.00945338 -0.0168129 -0.0242614 -0.0273975 -0.0191879 -0.0100024 -0.0075692 -0.0156085 0.0028498 0.0113009 0.00690136 0.000477786 0.00508261 0.00381443 0.00690722 0.00762887 0.00259659 0.0120832 0.0172692 0.0204497 0.00606525 0.0155192 0.00540767 0.0161191 0.0325618 0.0142933 -0.0124625 -0.0271953 -0.0221003 -0.0136627 -0.010945 -0.0115169 -0.00394554 -0.00696387 -0.000683798 -0.000440014 0.0070555 0.00500913 0.00814184 0.00971996 0.00986762 0.000515464 0.00175258 0.00948454 0.0076542 0.00363921 0.0130174 0.0158627 0.00734369 0.0241846 0.0261287 0.0273306 0.00665046 -0.0088267 -0.0156133 -0.00701173 -0.0163623 -0.0148222 -0.0158552 -0.00814821 -0.00704571 -0.00467766 -0.00530827 0.00463053 0.00178463 0.00968059 0.00989257 0.00860213 0.00227267 0.00154639 0.00886598 0.0028866 0.00320261 0.00852 0.00565018 0.00569582 -0.00343482 0.00605004 0.00706857 0.00111288 -0.00164826 -0.0133577 -0.00865309 -0.00297514 -0.0092171 -0.0112604 -0.00197762 0.00237088 -0.0016444 0.00492717 0.00652247 0.00203921 0.00775875 0.00580582 0.00399235 0.00309743 0.0051602 0.00412371 0.00113402 0.00134021 0.00443299 0.00422465 0.00234993 0.00410451 0.00682582 0.00454336 0.000993225 0.00715381 -0.0063535 -0.00596748 0.00527503 0.00815409 0.0025538 -0.00192721 0.00920197 0.00399468 0.00335915 0.000579909 0.00402191 0.00526254 0.00378208 0.0097502 0.00329645 0.00463918 0.00948454 0.00134021 0.000515464 0.00835052 0.0085567 0.00701031 0.00639175 0.00370228 0.00309414 0.00912883 0.00560476 0.00812766 0.00444871 0.00667571 -0.00028268 0.000663996 0.00562539 0.00739312 0.00172165 0.00031965 0.00938118 0.00558038 0.00459812 0.0092756 0.000314988 0.00739218 0.00608247 0.0014433 0.00927835 0.00525773 0.00185567 0.00835052 0.00412371 0.00742268 0.00123711 0.00917526 0.00680412 0.00226804 0.00824742 0.00762887 0.00474227 0.00659794 0.00079648 0.00546617 0.00257732 0.00164948 0.00927835 0.00680412 0.00793814 0.00134021 0.00618557 0.0102062 0.00814433 0.0085567 0.00319588 0.00525773 0.00896907 0.00938144 0.000412371 0.00463918 0.00474227 0.00237113 0.00958763 0.00833485 -0.000186501 0.00030544 0.00658686 0.00358584 0.00764974 0.00718848 0.00911547 0.00249904 0.00286956 0.00502464 0.00733704 0.0059254 0.00659382 0.00948409 0.0096747 0.00519019 0.00666934 0.0085708 0.0028866 0.0042268 0.00463918 0.00659794 0.00731959 0.00814433 0.00340206 0.00134021 0.00712574 0.0056689 0.00783149 0.00242742 -0.000110068 0.00305276 0.00241901 0.00568559 0.0107 0.0199277 0.00908076 -0.00665999 -0.00749691 -0.00498152 -0.00315486 0.00561163 0.00256081 0.00499996 0.00302844 0.0074138 0.00569893 0.00740689 0.00463918 0.00268041 0.00298969 0.01 0.00214428 0.00350005 0.00952631 0.00351617 0.00215692 0.000770801 -0.00178333 -0.00765553 -0.0121476 0.00205825 0.0172502 0.0114377 0.0111603 0.000275909 -0.00851792 -0.0191788 -0.0251676 -0.00182725 0.00170707 0.00603219 0.0016029 0.0092136 0.00233693 0.00564625 0.00681364 0.0071134 0.00536082 0.00608247 0.00384494 0.00555069 0.00890725 0.00252672 0.00313052 -0.00415199 -0.0114721 -0.020268 -0.0174149 0.0018819 0.00568746 0.017042 0.000472774 -0.0181806 -0.0116062 0.00226616 0.000730227 -0.000298536 0.00531098 0.0063335 0.00549577 0.00269948 0.00897407 0.00731243 0.0100021 0.00682435 0.00164948 0.0101031 0.00998334 0.00321723 -0.000196711 0.00607611 -0.00644475 -0.0119403 -0.00659433 -0.0219921 -0.0187245 -0.0105574 0.00326865 0.0341528 0.01688 0.0137382 0.0131407 0.0225301 0.0158233 -0.00338785 -0.00277955 -0.0030485 0.000852581 0.0119658 0.00916078 0.00665663 0.00968512 0.00827443 0.00907216 0.0102062 0.000838735 0.00747671 -0.00091338 0.00377808 -0.0149224 -0.0106412 -0.0158265 -0.0267138 -0.0316602 -0.0109505 0.0348406 0.0464726 0.00622528 -0.0109415 0.00721318 0.0182485 0.00204594 -0.0085933 0.00466921 -0.00911407 -0.00376412 0.000579563 0.00669912 0.0012863 0.00338812 0.000834332 0.00886598 0.00612867 0.00360416 0.00323627 0.0062148 0.000559216 -0.0208114 -0.0120882 -0.0133902 -0.0163054 -0.0215284 0.00889262 0.0438724 0.0136054 -0.0300503 -0.0290911 -0.0254431 -0.00846357 -0.0134145 -0.00160424 2.68168e-07 -0.0104539 -0.00182104 0.00202238 -0.000341579 -0.00226392 0.00497135 0.00678937 0.0055057 0.00804137 0.00938981 0.00840639 -0.00287313 -0.00469094 -0.0117076 -0.0248662 -0.0241842 -0.0312558 -0.0540891 -0.00248061 0.0415134 -0.00692864 -0.0296544 -0.0484579 -0.0384352 -0.0157102 -0.00922942 -0.00403596 -0.012468 -0.0281654 -0.0116048 0.00374254 0.00679606 0.00827037 0.00841149 0.0100872 0.00237113 0.00278106 0.00832548 0.0011905 0.00040516 -0.00692405 -0.0139376 -0.0236476 -0.0232876 -0.0372455 -0.0251309 0.0115066 0.0226816 -0.0121323 -0.0446589 -0.0337873 -0.0184816 -0.0169816 0.00214192 0.00134846 -0.0136103 -0.0190335 -0.018051 -0.0141039 0.0009126 0.00599291 0.00300545 0.0102355 0.00917526 0.00977139 0.00441208 0.005808 0.00145304 -0.00976023 -0.0197988 -0.0224149 -0.0140633 -0.00877821 0.00386868 0.0293018 0.0246013 -0.0157247 -0.0442505 -0.0198632 -0.00523895 -0.0172736 -0.00773334 0.00413212 -0.0372384 -0.028719 -0.0205173 -0.0124273 0.00538696 0.00837684 0.00881065 0.00845402 0.00298969 0.00948289 0.00063041 0.000576156 -0.00279535 -0.00157822 -0.0127761 -0.0265826 -0.000340758 0.00968717 0.0140202 0.0152066 0.0250766 -0.0308708 -0.0444349 -0.0254543 0.00245651 0.00457815 0.00173911 -0.00829163 -0.0330114 -0.00977941 -0.00725375 -0.0109106 -0.0047777 4.96536e-05 0.00567905 0.00800304 0.00195876 0.00463062 0.00447688 -0.000272163 0.00242555 -0.00264707 -0.0136366 -0.013798 -0.00409907 0.00579361 0.0145352 0.0218897 0.010438 -0.0357536 -0.0567309 -0.0153336 -0.00485679 0.0122269 -0.00979641 -0.0183469 -0.0218024 -0.0167604 -0.00156572 -0.00301715 0.00082445 2.61416e-05 -0.000230705 0.0100477 0.00917526 0.0092501 -0.00128478 -0.00398599 0.00875508 0.00729857 -0.0226593 -0.00515769 0.0114912 0.0030349 0.0108103 0.0245581 0.0126859 -0.0330397 -0.0434516 -0.0252042 -0.000948685 0.0209594 -0.0204341 -0.00624694 -0.00732619 -0.00217565 0.00624467 0.00129273 -0.00856757 0.00216677 0.00557135 0.00207085 0.00783505 0.00524216 0.000620717 0.00493465 0.00632647 0.00286872 -0.0177164 -0.00535278 -0.00999191 -0.00633962 0.0113297 0.0292726 -0.000837149 -0.0226889 -0.0315164 -0.0289022 0.00591992 0.0219997 0.00549287 0.0234519 0.00108478 0.00586571 -0.00191942 -0.00581611 -0.00726402 0.00682459 0.000562078 -1.0236e-05 0.0056701 0.00604692 -0.000348173 0.00767994 0.00874423 -0.0115507 -0.0185911 -0.0253625 -0.0118415 -0.0107939 0.003801 0.0285586 0.00868441 -0.0203308 -0.0452369 -0.0327022 -0.00507488 0.0198731 0.016033 0.0125769 -0.010695 -0.0129274 -0.0138158 -0.0276967 -0.0142945 -0.00911457 -0.00408299 0.000620661 0.000206186 0.00286974 0.00544145 0.003725 0.00660882 -0.0033815 -0.0166817 -0.021252 -0.00621571 0.00846381 0.0096358 0.0289253 0.00662662 -0.0205955 -0.0268036 -0.0104892 0.0194333 0.0279221 0.0391052 0.00916444 -0.00310148 -0.0235537 -0.0263534 -0.0279825 -0.0155061 -0.0116147 0.00106463 0.00382769 0.00371134 0.00442717 0.00422884 0.000998865 -0.00471307 -0.00295461 0.00559288 -0.000734818 0.00111451 0.0310663 0.0324987 0.0286098 0.0213417 0.00182384 0.0107326 0.00749383 0.00524341 0.0353232 0.0516128 0.0169061 -0.00422581 -0.00941264 -0.0154519 -0.00581266 -0.0017892 -0.00175525 0.00952965 0.00090619 0.00670103 0.00298969 0.0085197 0.00246353 0.00541737 0.00221405 -0.00712235 0.00688056 0.00815122 0.0148374 0.0159036 0.0378044 0.0380068 0.0297558 0.0135838 -0.0050361 0.0230354 0.031726 0.0358386 0.024573 0.0054089 0.000735275 -0.0125225 -0.00726652 -0.0124959 -0.0018114 0.00342419 0.0083928 0.000721649 0.00130224 0.000788176 0.00778613 -0.0051369 0.0048621 0.00868539 0.0118709 0.00698293 0.00761184 0.0114685 0.0113637 0.0326237 0.020791 -0.000564911 -0.0203439 0.0051734 0.00845727 0.0154987 0.027785 -0.0033159 -0.0153486 -0.0222302 -0.00843042 -0.010144 0.00251444 0.00716622 0.00484687 0.00556701 0.00819789 0.00804692 0.00201311 -0.00272111 -0.0106669 -0.00323916 -0.00718585 -0.010025 -0.0181775 -0.0212397 -0.01278 0.00158661 -0.0130031 -0.0325683 -0.0344574 0.0239956 0.0342376 0.020939 0.0230729 0.00849168 -0.0146595 -0.013109 -0.004379 -0.000946997 0.00153825 0.00824524 0.00866145 0.00216495 0.0071134 0.0059353 -0.000535745 0.000581674 -0.010079 -0.017584 -0.0183326 -0.024383 -0.0330398 -0.0377336 -0.0358203 -0.0347026 -0.0302225 -0.0370202 -0.0162943 0.0130571 0.0234606 0.0211597 0.020296 0.0166468 -0.00382447 -0.0059807 0.00183678 0.00575421 0.00819405 -5.98938e-05 0.00268041 0.00556701 0.00701031 0.0032804 -0.000167676 -0.000914178 -0.00666455 -0.011638 -0.0146555 -0.0286046 -0.0406628 -0.0306497 -0.026815 -0.0281539 -0.036244 -0.0281153 -0.0282203 0.012844 0.0216281 0.0150579 0.0135649 0.0180967 0.00935821 0.00197634 0.0034386 0.00808501 0.00446076 0.00248216 0.00793814 0.00804124 0.00628866 0.000416466 0.00545094 0.00231718 -0.00494382 0.00154226 -0.00214559 -0.0200596 -0.0215318 -0.0134318 -0.0187316 -0.0245773 -0.0379672 -0.0373627 -0.0179315 0.000307598 0.0201011 0.00937343 0.00740627 0.0195476 0.00338024 0.0129804 0.00449416 0.00143733 0.00939046 0.00923754 0.00948454 0.00319588 0.00845361 0.00936699 0.00729098 0.00664123 0.0028181 0.010448 0.0027579 -0.00136182 0.000715328 0.00158314 -0.00732101 -0.0114171 -0.0127372 -0.0197061 -0.00600835 -0.00648183 0.00307271 0.0106169 0.0076709 0.0102585 0.0152428 0.0162371 0.0109052 0.00064349 0.000261289 0.00751657 0.00484536 0.00670103 0.00494845 0.00742973 0.00861947 0.000781928 0.00690146 0.000971424 -0.00112553 0.0035647 -0.00295271 -0.00534744 0.00169633 -0.00687244 -0.00793831 -0.006936 -0.0242362 -0.0322369 -0.0121559 0.00168698 0.00931917 0.00666662 0.0151559 0.0131302 0.00234715 0.00708219 0.00546729 0.00926213 0.00298969 0.00979381 0.00134021 0.00226804 0.00896947 0.00103511 0.00783736 0.00761378 0.00464523 0.00574859 0.00962262 0.00149752 0.00497647 0.00148329 0.0107678 0.00820312 -0.00819023 -0.00727612 -0.00132324 -0.00492485 0.00797369 0.00604178 0.0135468 0.00530695 0.00815612 0.00729746 0.00278351 0.00371134 0.0014433 0.00505155 0.000824742 0.00525773 0.00742268 0.00783505 0.00114118 0.00257311 0.000803822 0.00643947 0.00211146 0.00560156 0.00362898 0.00492103 0.0097608 0.00416848 0.000314226 -0.00116814 0.00616637 0.00334232 0.00859765 0.00977295 0.00813514 0.00301426 0.00367156 0.00113402 0.00474227 0.000515464 0.00814433 0.00226804 0.0056701 0.00103093 0.00185567 0.00597938 0.000721649 0.00463918 0.00917526 0.00670103 0.000206186 0.00989691 0.0043299 0.00665719 0.00217207 0.00896907 0.0057732 0.00123711 0.00319588 0.00556701 0.00886598 0.00886598 0.00371134 0.00742268 0.01 0.000721649 0.0056701 0.00412371 0.00773196 0.00371134 0.00350515 0.0056701 0.00752577 0.00804124 0.00989527 0.000240441 0.00299959 -0.00105517 0.00848249 0.0065538 0.0024091 0.00154872 0.00265088 0.00519029 0.00676259 0.00636476 0.00639689 0.00701113 0.00696257 0.00604044 0.00162867 0.00739232 0.000820249 0.00917526 0.00783505 0.00659794 0.00206186 0.00319588 0.000206186 0.00453608 0.00381443 0.000619224 0.0114506 0.00156277 0.00757231 0.000560149 0.00420782 0.00205188 0.00599037 0.0104801 0.00537345 0.00529217 0.0212666 0.0106375 0.00299924 -0.000155645 0.00569537 0.0030841 0.00840737 0.00871433 0.00656501 0.00928337 0.00298969 0.00680412 0.00257732 0.00639175 0.00865979 0.00519486 0.00757016 0.00830696 0.0101196 0.00477856 0.00565412 0.00313375 0.00546413 -0.00220514 -0.0110974 0.00447544 0.00866401 -0.00873918 0.0103549 0.019401 0.0104477 0.00476077 0.00925395 0.00409391 0.0020287 -0.000231357 0.00463499 0.00920901 0.0071975 0.0058705 0.0014433 0.00319588 0.00649485 0.00902871 0.00954263 0.00343649 0.015474 0.0164784 0.00847162 0.00937222 -0.0112361 -0.019284 -0.0111163 -0.00654247 0.0225576 -0.00632604 0.0158756 0.00500005 -0.0246653 -0.0139459 -0.00199493 -0.00832655 -0.00338883 -0.00334032 -0.000725367 0.000986586 0.00738705 0.00318928 0.00930231 0.00103093 0.00525773 0.00236207 0.00152274 0.00644754 0.0219125 0.0145304 0.0088226 -0.0118333 -0.0389948 -0.0404092 -0.0354068 0.00404997 0.0325057 0.023236 0.0660814 -0.00338367 -0.0421691 -0.0595082 -0.0320323 -0.0238376 -0.0112908 -0.00917386 -0.00538151 0.00209551 0.00537335 0.00954137 0.00415911 0 0.00566961 0.000467658 0.0100921 0.0168007 0.0110275 0.00325399 -0.00406318 -0.0162189 -0.0511295 -0.053442 -0.0251724 0.00388283 -0.00495461 0.00510162 0.0332165 -0.0101475 -0.0254501 -0.0532859 -0.0491512 -0.0371081 -0.0201263 -0.00767317 -0.00861804 -0.0017544 -0.00178094 0.00673528 -0.000188158 0.00546392 0.00990141 0.0106731 0.0133388 0.0179159 0.0227294 0.0143332 0.00718668 -0.0369271 -0.0462218 -0.0263356 -0.0217668 -0.020526 -0.0508538 0.0271627 -0.00176869 -0.032053 -0.032074 -0.0413818 -0.0390242 -0.0168411 -0.012308 -0.00434052 -0.00485428 -0.00863667 0.00411325 0.00242074 0.00301501 0.00800789 0.008593 0.000287097 0.00681879 0.00767494 0.0213092 0.0349018 0.0245406 -0.0180438 -0.0364765 -0.0458877 -0.0328287 -0.0404014 0.000837004 0.0506567 0.0192405 -0.0529898 -0.0614891 -0.0391988 -0.013073 -0.00506176 -0.0167755 -0.011573 -0.0204269 -0.0138639 -0.00599456 0.00758481 0.00276493 0.000721649 0.00793998 0.00658402 -0.00445058 0.000607759 0.0169431 0.0232695 0.016976 -0.0241541 -0.049392 -0.0491638 -0.0449989 -0.0458773 0.0363401 0.043533 0.0298601 -0.0325757 -0.0608159 -0.0254432 -0.0073959 -0.00484783 -0.0170329 -0.0245752 -0.0139424 -0.0194954 -0.000807505 0.00519556 0.00851901 0.0043299 0.00216899 0.00245599 0.000778731 0.00105786 0.00782104 0.0202921 0.00852562 -0.0257122 -0.0373227 -0.0419991 -0.0519681 -0.0158117 0.0627928 0.0604647 0.0291537 -0.0191976 -0.0185129 -0.0107749 0.00413807 -0.0191122 -0.0254413 -0.0208531 -0.0247233 -0.0134935 -0.00771788 0.000500181 0.000887196 0.00618557 0.00498131 0.00843371 0.00234619 0.000218699 -0.000321814 0.007884 0.00798848 -0.00292455 -0.0341995 -0.0266053 -0.0213641 0.0153415 0.0758453 0.0574982 0.00270076 -0.0214994 0.00776401 -0.013346 -0.0108066 -0.0217766 -0.0209796 -0.0291551 -0.0303163 -0.0135592 -0.0059586 0.00744281 0.00739101 0.0028866 0.00487359 0.00355383 0.000523713 -0.000613251 -0.0051057 -0.00247746 0.00290471 0.00227603 -0.0203491 -0.00733105 0.0207045 0.0717742 0.0558275 0.0190751 -0.00666267 0.00603784 0.0124494 -0.00238795 -0.0122586 -0.0107331 -0.0176567 -0.0235656 -0.02162 -0.000903598 0.00207625 -0.00352581 0.00933853 0.00793814 0.00319345 0.00877634 0.00762115 -0.00306363 -0.00980669 0.00920813 -0.00621321 0.0074085 0.00570573 0.0110794 0.0177087 0.0541508 0.00712477 0.0170245 0.00660924 0.0132812 0.0285861 -0.00620271 -0.00599192 -0.00921707 -0.0144796 -0.0180505 -0.0112418 -0.0116469 -0.000461727 0.00163796 0.00864839 0.00319588 0.0013469 0.00962708 0.00987335 0.000808008 0.00355751 -0.00335837 -0.00705959 0.0197336 0.0219097 -0.00404877 -0.0259881 0.0127942 0.0228928 0.0279334 0.00480561 0.036389 0.00752935 -0.0298237 -0.0219847 -0.0125791 -0.0053616 0.003718 -0.0110549 -0.00103958 -0.00208294 0.00722912 0.00123518 0.00268041 0.00949761 0.00657409 0.00510273 0.0150509 -0.00414773 -0.0118881 0.00986928 0.0124662 -0.00645596 -0.0233317 -0.0228128 0.0168023 0.0115722 0.0218741 0.00661038 0.0201018 0.0096471 4.74055e-05 -0.0131145 -0.00206989 0.012159 0.0151002 0.00706584 0.00678314 0.00733908 0.00476075 0.0100283 0.0043299 0.00474762 0.00394155 0.00319665 -0.000667659 -0.00475732 -0.00587431 0.0123587 0.0276088 0.0154113 -0.0295047 0.00060164 0.0166678 0.00793749 0.0343409 -0.0158379 0.00681629 0.00135688 0.0164682 0.00865172 0.00493483 0.00282829 -0.00189974 -0.00120602 0.000483421 0.00550302 5.64148e-05 0.00766961 0.00515464 0.00629075 0.00520762 -0.000700433 -0.00545518 -0.00444021 -0.00437944 -0.00205619 0.0124851 -0.000139628 -0.00659267 0.0084865 0.0281698 0.0613683 0.0614194 0.000946577 -0.0108267 -0.0105228 -0.00284653 -0.0202711 -0.0112604 -0.0107178 -0.0185759 -0.00678884 1.48664e-05 -0.00137474 0.00528515 0.00477056 0.00525773 0.00793814 0.00116787 0.00567842 -0.00349435 -0.00911439 -0.0109391 -0.019868 -0.0132938 -0.0123019 -0.045413 -0.0240737 -0.00324418 0.0373129 0.0304019 -0.0193932 -0.0116136 -0.0153148 -0.00659106 -0.0371986 -0.0211816 -0.0220494 -0.0255799 -0.0154609 -0.00155724 -0.00134856 0.0025575 0.0111589 0.00731959 0.00548352 0.00475158 0.00949269 -0.0036927 -0.0138136 -0.0122375 -0.0245476 -0.0223638 -0.0178045 -0.0369799 -0.0403165 -0.0252587 -0.0131991 0.0172449 0.00290406 0.0180735 -0.0302605 -0.0118354 -0.0122219 -0.00847591 -0.0220214 -0.0192539 -0.0159646 0.00464417 0.00423294 0.000872558 0.00470956 0.00391753 0.0096531 0.00725398 0.00507192 -0.00194024 -0.0131063 -0.012177 -0.0243611 -0.038141 -0.0419304 -0.0633429 -0.0456676 -0.00770244 -0.0312567 0.0168514 0.00882941 0.0200505 -0.00885443 0.0113916 -0.0121802 -0.0126156 -0.0257078 -0.0143359 -0.0091562 0.000699115 0.00254859 0.00299074 0.00998641 0.0057732 0.00680412 0.00154308 0.0105747 -0.00307821 -0.0091433 -0.00906658 -0.0268681 -0.0387899 -0.0445989 -0.065319 -0.0476043 -0.018169 -0.0640089 -0.0359123 0.00737817 0.014819 -0.0240759 0.013725 -0.00307167 -0.023436 -0.0116885 -0.0121416 -0.0147712 -0.00770383 0.00668087 0.00318066 0.0028866 0.00659794 0.00298969 0.00427944 0.00307558 0.00249603 -0.00161807 0.000572245 -0.023022 -0.0331821 -0.0458458 -0.0603942 -0.0221918 -0.00285874 -0.0472327 -0.0423347 0.0038636 0.0288017 0.0139301 0.0274807 0.0302728 0.0142054 0.0160436 0.00616928 -0.0126803 0.0062439 0.00446874 0.00123175 0.00896907 0.00587629 0.00123711 0.00485228 0.0089695 0.00717422 0.004631 -0.00042216 -0.00700148 -0.028725 -0.0294256 -0.0470816 -0.0170203 0.0206405 -0.0147016 -0.0165157 0.0158383 0.0209794 0.058771 0.0186241 0.031661 0.0222821 0.0171599 0.00739762 0.00135208 0.00295537 0.0063604 0.00329529 0.00123711 0.00319588 0.00773196 0.00692022 0.00580445 -4.00377e-05 0.00128474 0.00377921 -0.002835 -0.0125301 -0.00516156 -0.0113337 0.00222975 -0.0158628 -0.0584342 -0.0500677 -0.0303255 -0.0225932 -0.00685032 0.0123623 0.030581 0.0348752 0.0180585 0.0102557 0.00120878 0.00473038 0.00454588 0.00437976 0.00185567 0.0056701 0.00494845 0.00628345 0.00463417 0.00981109 0.00914436 0.00435716 0.00690681 0.000463592 0.00195965 -0.00254298 -0.00957586 -0.0296762 -0.0434118 -0.0340782 -0.0385934 -0.0637798 -0.0451875 -0.0189246 -0.0135469 0.00309011 0.0135807 0.0139636 0.00812704 0.0059164 0.0084552 0.00835241 0.00824742 0.00515464 0.00690722 0.00649485 0.00639175 0.00426915 0.00901645 0.0010219 0.00414897 0.00771256 0.00269295 0.00110967 -0.00106669 -0.010867 -0.00631306 -0.00852701 -0.00728886 -0.00645713 -0.0167465 -0.00596727 0.00284131 -0.0076295 0.00717186 0.0030003 0.00385504 0.001443 0.00309278 0.0101031 0 0.00360825 0.00463918 0.00762887 0.00907216 0.0056701 0.00742268 0.00678106 0.000673068 0.00650786 0.00187143 0.00292338 0.00609749 0.010173 0.00941767 0.00537381 0.000239004 0.00335068 0.00911646 0.00928026 0.00796193 0.00522686 0.0011704 0.00693406 0.00908402 0.00391753 0.00814433 0.00865979 0.0101031 0.000412371 0.000824742 0.00494845 0.00969072 0.00113402 0.00835052 0.0057732 0.00226804 0.00907216 0.00402062 0.00865979 0.00865979 0.000555104 0.00915894 0.00381443 0.01 0.0042268 0.0101031 0.00371134 0.00494845 0.00216495 0.00515464 0.00701031 0.00278351 0.00628866 0.00876289 0.00618557 0.000515464 0.00474227 0.00690722 0.00886598 0.00412371 0.00402062 0.0077329 0.00730209 0.00970982 0.00973372 0.00952756 0.00610217 0.00227808 0.00267884 0.00410681 0.000444497 0.00932591 0.00301273 0.00383812 0.0102769 0.0120472 0.00814906 0.0027791 0.0031893 0.00269342 0.00804124 0.00175258 0.00515464 0.00948454 0.00412371 0.00268041 0.00938144 0.00329897 0.0015752 0.000626324 0.00114848 0.00292481 0.0058029 0.00104247 0.00472693 0.00181557 0.00701521 0.00013861 0.00670944 0.00275803 0.00692614 0.0100649 0.00398186 0.0163588 0.0142909 0.00743314 0.00675419 0.00736378 0.00714272 0.00439927 0.000515464 0.000412371 0.000824742 0.00701031 0.00182959 0.00154549 0.00897552 0.00288683 0.00572668 0.00573444 0.0076221 0.0079652 0.00117853 -0.00334097 0.000840349 0.00995217 0.00894127 -0.00467994 -0.00754663 0.000445391 0.026365 0.0419688 0.0241104 0.0222948 0.0157088 0.00566617 0.00878533 0.00176739 0.00905071 0.00793814 0.00865979 0.00907216 0.00889379 0.00905932 0.00595815 0.00619339 0.00747933 0.00028321 0.00650731 0.00267759 0.0129622 0.00464405 -0.00541613 0.00551675 0.00791557 -0.0124664 -0.00170348 -0.0162229 -0.00942591 0.0068158 0.0283915 0.0195699 -0.00157631 0.0120151 -0.00560187 -0.00536752 0.00916777 0.00747135 0.00329897 0.00298969 0.0020836 0.00192159 0.00186083 0.00223606 -0.00824691 -0.00374545 -0.00257465 0.00308144 0.000497256 0.00229508 -0.00178088 3.25226e-05 0.00778221 -0.00384515 -0.00344781 -0.0015434 0.0229944 0.00747055 0.0338165 0.0179221 0.0103064 0.0150101 -0.00686043 -0.00736824 0.000191315 0.00668113 0.00948454 0.00381397 0.00349786 0.00409722 0.00279087 -0.00303164 -0.0128234 -0.00766423 -0.00921269 -0.0084989 -0.00148799 -0.00706278 -0.0109036 -0.00551927 0.0030564 0.00115134 0.00922421 0.0163721 0.0242986 0.0262117 0.0174011 0.0224099 0.0103946 0.0283601 0.0189827 0.0123182 0.00146339 0.00749534 0.00412371 0.000774004 0.000964519 -0.00131818 0.000857571 0.000239704 -0.0135176 -0.00972767 -0.00718474 -0.0052217 -0.008397 -0.00902087 -0.00269593 0.000594777 0.0244992 0.024794 0.0415145 0.0367522 0.0329914 0.0243609 0.0286874 0.0317567 0.0238959 0.0242465 0.0176676 0.0109812 0.00994772 0.000325556 0.00350395 0.00142614 0.00423777 0.00637289 -0.00409645 -0.00837588 -0.0264227 -0.028007 -0.00772307 0.00818254 -0.0069376 -0.00213464 -0.0161195 -0.00569543 -0.00320637 0.00307387 0.0133852 0.00751593 -0.0109716 -0.00908434 -0.0078657 -0.00309022 0.00928993 0.00103352 -0.00544705 0.00615935 0.00224846 0.00930448 0.00618557 0.00761835 0.00467577 -0.00171234 -0.00143613 -0.00840725 -0.0258577 -0.0257327 -0.0102659 0.00359108 0.0161516 0.000876523 -0.021219 -0.0192503 -0.0256508 -0.0484784 -0.062609 -0.0565154 -0.0458732 -0.0502353 -0.0474528 -0.0457141 -0.0247915 -0.037376 -0.0219545 0.00249496 0.0099432 0.00970853 0.00268041 0.00771696 0.00963178 0.00601362 0.00165096 -0.00651031 -0.0239291 -0.0274856 -0.00764148 0.014007 0.00326428 -0.020135 -0.0256778 -0.012 -0.0259526 -0.0592723 -0.0691652 -0.0658182 -0.0719531 -0.0696754 -0.0611103 -0.0592824 -0.0527061 -0.0406019 -0.018959 0.00469803 0.00413522 0.00925484 0.00597938 0.00410166 0.00100021 0.00331154 0.00131555 0.00122755 -0.0161603 -0.0185914 0.00666224 0.00515449 0.0117465 -0.0164042 -0.00431443 -0.021429 -0.0483551 -0.0343619 -0.0383299 -0.0498679 -0.0611547 -0.0657589 -0.0574675 -0.0610989 -0.0490887 -0.0377604 -0.0190106 -0.00461145 0.00648538 0.00884091 0.000515464 0.00117725 0.00447575 -0.000179011 0.0127039 0.00210088 -0.00458451 -0.00680438 0.00296465 0.0135283 0.00806975 0.0165685 -0.0122734 -0.0399293 -0.0147052 -0.00926441 -0.0161385 -0.0286072 -0.034957 -0.0550268 -0.0524249 -0.0528462 -0.039531 -0.0361298 -0.0266734 -0.00992917 0.00809294 0.00897058 0.00618557 0.00286205 0.00459757 0.00974308 0.00218817 -0.0109088 0.0151271 0.0175494 0.0137887 0.0201539 0.016282 0.000759772 -0.0294201 -0.0331801 -0.00973643 -0.00632682 -0.0107299 -0.0105473 -0.0118355 -0.0117558 -0.0207578 -0.0210988 -0.0354209 -0.0194571 -0.0224723 -0.0102826 0.00485206 0.00740166 0.00618557 0.00206133 0.0075306 0.00606918 0.00451725 -0.00496346 0.0269731 0.0288574 0.012745 0.0284344 0.00782752 -0.0129386 -0.0226067 -0.0122478 -0.00812904 0.0161075 0.00919115 0.0214652 0.0227117 0.0235822 0.00190778 -0.000618856 -0.0123554 -0.0181644 -0.0127603 -0.00509709 0.000252904 0.0034018 0.00195876 0.0102049 0.00573792 0.00549903 -0.00358762 0.0114925 0.00931549 0.0227776 0.0191285 0.0333483 0.0187269 -0.0107428 -0.00723744 0.00809868 0.00171513 -0.00135442 -0.00224821 0.0337745 0.0516309 0.0147424 -0.000186141 0.000214255 -0.0129598 0.00709488 -0.0130662 -0.00237196 0.0031209 0.00549626 0.0028866 0.00845302 0.00466122 0.00026029 -0.004079 0.0085302 -0.00433043 0.0175166 0.0194542 0.0299084 0.0216992 0.00746065 -0.000593353 0.000549431 -0.0139692 -0.00780124 -0.00231854 -0.00127701 0.0199767 0.00307085 -0.00687945 -0.00150143 0.0108442 0.0118957 0.000335805 0.00603026 0.00396109 0.00195722 0.00876289 0.00979361 0.00434942 0.00573536 0.00125434 0.00328588 0.00770169 0.0223942 0.0192673 0.0213633 0.021897 0.00717724 0.00463042 -0.0133162 0.0114142 0.00562996 0.00764957 -0.00442707 0.00334515 -0.000987552 0.0156595 -0.000218483 0.02269 0.0231053 0.00416132 0.0027237 -0.0007861 0.00663065 0.00185567 0.00350515 0.00668464 0.00817281 0.0032644 -0.00307469 0.0118142 0.0150901 -0.000910903 0.00929995 0.00227746 0.00221933 -0.00462086 -0.00271051 0.0103509 0.00343507 0.00694015 0.00178153 0.0030315 0.0324406 0.0378066 0.00137015 0.00721049 0.0184272 -0.000482813 0.00218719 0.00846453 0.000224077 0.00948454 0.00422922 0.000432698 0.00806189 0.0113257 0.00584473 0.00965531 0.00803525 0.00416883 0.0027282 -0.0169903 0.0151578 0.0166111 -0.0124202 -0.0305423 -0.00816124 -0.0137981 -0.0181182 -0.00512952 -0.0025268 0.0148281 -0.000216686 -0.000167014 0.00735849 0.0203239 0.0055539 -0.000209543 0.00163154 0.00969072 0.00273407 0.00466603 0.00485918 0.0101074 0.00377392 -0.00771825 0.00225479 0.0161932 0.0117883 -0.00174431 -0.00580826 -0.00366109 -0.00299035 -0.0176155 -0.00611849 -0.00836662 -0.0151119 -0.00711154 -0.0110682 -0.00174265 0.00939002 0.0058935 0.0142765 0.00774254 0.00867723 0.00667431 0.0094279 0.000412371 0.000515464 0.00830778 0.00222366 0.00414133 0.0045907 -0.0182227 -0.0108441 -0.00347998 0.00580467 0.0115528 0.00439225 3.43847e-05 0.00261824 0.00679712 0.0193667 0.01283 0.00326606 0.00347114 0.0118137 0.0217828 0.0218993 0.0151546 0.0112776 0.00420459 0.0128247 0.00743734 0.0042268 0.00309278 0.00958763 0.00164017 -0.000936571 0.00632467 -0.00102467 -0.020424 -0.0291565 -0.0242366 -0.0165738 0.00562543 0.0118821 0.0088184 -0.000778416 0.00368521 0.0194573 0.0143367 0.0121054 0.0188093 0.0186263 0.015274 0.00960551 0.000505265 0.00686964 0.00708366 0.00988181 0.00994162 0.0056701 0.0085567 0.00278351 0.00633902 0.000599604 0.00818234 0.00674641 -0.00461494 -0.0177977 -0.0178386 -0.00331832 -0.0126281 -0.0142383 0.000616928 -0.00318329 -0.00327176 -0.0021794 0.000737101 -0.00610066 0.00460628 0.019611 0.0239451 -0.00391622 0.00488139 0.00778139 0.0143908 0.00744582 0.0029025 0.00216495 0.0085567 0.00340206 0.00434574 0.00793472 0.0012676 0.009914 0.00211624 0.000588811 -0.00772242 -0.00587062 -0.00483376 -0.00187617 -0.00591994 -0.00570911 -0.00956845 0.00309013 0.00219462 0.00961609 0.0284165 0.013151 0.00791531 -0.00876808 -0.00572734 -0.00200297 0.00384041 0.00262618 0.00535085 0.00917526 0.00216495 0.000618557 0.00845322 0.00557258 0.0106874 0.00754071 0.00338358 0.0097609 0.011906 0.00842561 0.00165382 0.00559087 0.0157561 0.0216092 0.0169928 0.0176177 0.0206331 0.0217492 0.0195983 0.0122648 0.00970456 0.0125931 0.0172736 0.00795417 0.00801967 0.00359939 0.00370074 0.00103093 0.00742268 0.000206186 0.000515464 0.00360766 0.00620645 0.00734151 0.00317981 0.00586634 0.00352118 0.00223227 0.00102847 0.00201765 0.00239666 0.00979529 0.00465526 0.00209553 0.00851762 0.00285339 0.0074691 0.00529623 0.00298748 0.00320119 0.00585714 0.00236145 0.000515159 0.00134021 0.00948454 0.00164948 0.00123711 0.00134021 0.00618557 0.00835052 0.00783505 0.00794182 0.00207768 0.00769674 0.00862806 0.00613292 0.00693859 0.00510317 0.00207544 0.0048367 0.00070252 0.000792339 0.00118334 0.00462841 0.00422268 0.00146276 0.0098815 0.00488053 0.0060262 0.00711787 0.00391753 0.00268041 0.00989691 0.00752577 0.00453608 0.00298969 0.00824742 0.0043299 0.00762887 0.00206186 0.00257732 0.0056701 0.00268041 0.00505155 0.00505155 0.00587629 0.00494016 0.00773329 0.00309278 0.00154639 0.00845361 0.0043299 0.000103093 0.00185567 0.00515464 0.00958763 0.00886598 0.00742268 0 0.00958763 0.00845361 0.00556701 0.00360825 0.00494845 0.00742268 0.00969072 0.0042268 0.00907216 0.00882935 0.00272437 0.0117555 0.00564576 0.0067486 0.0103461 0.00173981 0.00264716 0.00518076 0.00263541 0.00393781 0.00979284 0.0102668 0.00335092 0.00071458 0.00545085 0.00324699 0.00320708 0.00350515 0.00793814 0.00804124 0.00608247 0.00402062 0.00886598 0.00608247 0.00216495 0.00538276 0.00599947 0.0113357 0.0123484 0.00727129 0.00792581 0.0042975 0.0116738 0.00311164 0.0123444 0.00519373 0.0120185 0.00650839 0.00776929 0.00575876 0.00236495 0.00943295 0.00707359 0.000769711 0.00780658 0.00231846 0.00519927 0.0102062 0.000824742 0.00876289 0.00721649 0.0100858 0.000305794 0.00151449 0.00122438 0.0113776 0.00708564 0.00441407 0.00572122 0.00655904 0.0147524 0.00701518 0.0146713 0.00661548 0.00790427 0.00224137 0.0028711 0.00967886 0.00432392 0.0087965 0.00996662 0.007379 0.00730894 0.010294 0.00218166 0.00610614 0.00463918 0.00927835 0.00371134 0.0061275 0.00472842 0.00575473 0.00386657 0.0138966 0.00985441 0.0102337 0.00852485 0.00803729 0.0152784 0.00915104 0.0100612 0.00959169 0.00789407 0.00870149 0.00137938 0.00859703 0.00276584 0.00950574 0.00978694 0.00890514 0.00816054 0.00646788 0.00214795 0.00643603 0.00405094 0.00494845 0.00443299 0.00370755 0.00347884 0.00921843 0.0133923 0.0130482 0.0115037 0.00359892 0.00881213 0.00898916 0.0064675 0.00653948 0.00845802 0.0124765 0.00125024 0.00201209 0.00375276 -0.0103087 0.000509308 0.0045112 0.00344378 0.00406756 -0.00282528 0.00403449 0.00451308 0.00909312 0.000461334 0.000927835 0.00360841 0.00614641 0.00313474 0.00370006 0.00860773 0.0113819 0.00400884 0.00369726 0.0064425 0.00195063 0.00750333 0.000748054 -0.00571854 -0.00334773 0.000378043 -0.00745612 -0.0110307 -0.0127649 -0.00768566 -0.00498061 -0.00612484 -0.00259309 -0.00666101 -0.00314973 0.00471142 0.00755018 0.00375787 0.00958763 0.00012289 0.000378334 0.00687025 0.00658772 0.0147341 0.0109699 0.00230087 -0.00241636 -0.00453263 0.00174727 -0.00270996 -0.0109473 -0.0115736 -0.00792407 -0.000512343 -0.00931199 -0.00300211 -0.00601421 -0.0137647 -0.00600288 -0.00315931 -0.00564549 -0.00109084 -0.00309563 0.00740039 0.00161659 0.00219345 0.00433451 0.00968251 0.00971301 0.00177492 0.00820677 0.00932685 0.00144764 0.00298652 0.00533798 -0.00120522 -0.00260228 -0.0133343 -0.0119964 -0.0080055 -0.0165493 -0.0122373 -0.0155885 -0.00992354 -0.00822429 -0.0205628 -0.0150011 -0.0120109 -0.00815001 -0.00416528 -0.000909013 0.00575066 0.00660487 0.00134423 0.00381443 0.0046313 0.00884542 0.0100044 0.000428634 0.009341 0.0106332 0.00929512 0.00782567 -0.00918953 -0.00732563 -0.00979873 -0.005372 -0.00631067 -0.0143751 -0.0206604 -0.0224583 -0.0165312 -0.0154187 -0.0160681 -0.0107374 -0.0141652 -0.01046 -0.0027565 -0.00554723 0.00301827 0.00657714 0.00749833 0.00556701 0.00422496 0.00757981 0.00188044 0.00766651 0.0105294 0.00756892 0.00745243 0.00589092 -0.00429159 -0.0145415 -0.0116662 -0.0120424 -0.0083162 -0.00672198 -0.00867686 -0.0223409 -0.0226677 -0.00588837 -0.0115413 -0.0107945 -0.0178262 -0.0104863 -0.00545761 0.00128546 0.00086657 0.00600427 0.00751117 0.00938144 3.41353e-05 0.00115217 0.000424421 0.00339044 0.00622375 0.00844951 0.00949502 0.00724191 -0.00202805 -0.0121262 -0.00776682 -0.00396535 -0.00651505 -0.00756621 -0.00485282 -0.00497086 -0.00375417 0.000611001 -0.00539171 -0.0154444 -0.00625406 -0.0125073 0.00244625 0.0107794 0.00780367 0.00549624 0.000289544 0.00340206 0.00786261 0.00570053 0.00814228 0.00161443 0.00724993 0.0191503 0.0176868 0.00745357 -0.00670753 -0.00317486 -0.00258504 -0.0078507 -0.00667608 -0.00482707 -0.00354969 0.00353197 0.00652802 0.00902645 -0.00502257 -0.00713601 -0.00589124 -0.00411717 0.0112146 0.00956006 0.0035027 0.00886883 0.00358141 0.00237113 0.0080149 0.000588931 0.00354802 -0.00241199 0.0109083 0.0174477 0.015474 0.00254287 0.00375314 0.00162239 0.00109815 -0.00351395 0.0109709 0.00664783 0.00748353 0.0158693 0.0102682 0.00941827 0.00325075 -0.00402667 -0.00266152 0.00411257 0.0115552 0.0157891 -0.000972775 0.00462022 0.00285605 0.00412371 0.00341342 0.003872 0.00342639 -0.00254792 0.00496912 0.0140686 0.00526227 0.00120173 0.00271491 0.00587328 0.00165555 0.00495837 0.0101925 0.0114185 0.0142522 0.00998178 0.0125311 0.00309189 0.0101091 0.00667077 -0.00261996 0.00655184 0.00622038 0.00364137 0.00332831 0.00671097 0.00855076 0.00608247 0.00477075 0.0020553 0.005283 0.00176751 0.0124397 0.011696 0.00339396 0.0019629 -0.00892321 0.000519419 0.00627867 0.00403105 -0.00122138 0.00923515 -0.00194768 -0.00306416 -0.00344712 0.00404007 0.00290169 0.00582872 -0.00402285 -0.00298594 0.0138457 0.0115206 0.00962609 0.00269988 0.00811262 0.0042268 0.00517197 0.0053915 0.00313064 0.0107115 0.0111247 0.00358573 0.00537569 0.00354926 -0.0132225 -0.0100043 0.000874248 0.00120993 0.00431589 0.00136564 -0.015123 -0.0121948 -0.0101061 -0.00550235 -0.00522845 0.000634188 -0.00378307 -0.00301243 0.0133575 0.0119243 0.00602282 0.00363763 0.00166097 0.00762887 0.00866466 0.00102157 0.00449459 0.00516831 0.00989958 0.0107253 0.00190832 0.00125966 -0.00651516 -0.00836031 -0.00137474 -0.00964785 -0.00885365 -0.010135 -0.0124517 -0.0164742 -0.0142409 -0.0113326 -0.00579044 -0.000544075 -0.000429544 0.00843026 0.00929889 0.00638931 0.00203192 -0.000630648 0.00563844 0.00360825 0.00164948 0.0035236 0.010027 9.16677e-05 0.00480592 0.0148111 -0.00380096 -0.00981191 -0.00616563 0.00272851 -3.99753e-05 -0.011774 -0.0109521 -0.0101944 -0.0115192 -0.00343187 -0.0185996 -0.0139473 0.00270333 0.00213126 0.0038078 0.00455674 0.00383783 0.00657735 0.00123369 0.00627166 0.00736045 0.00484536 0.00338249 0.0100773 0.00598662 0.00578182 0.005714 0.0062998 0.0033313 -0.00588192 -0.00641702 0.00130657 0.00269603 -0.00013603 -0.00747227 -0.00121449 -0.00412938 0.00166557 -0.00263154 -0.00846339 0.00534658 -0.00278952 0.00833349 0.00185599 0.00691668 0.0083803 0.00218505 0.00470858 0.0059332 0.00628866 0.00227509 0.00425194 0.0057926 0.00227359 0.00454195 0.0037491 -0.00977151 -0.0034679 -0.00524665 -0.00177698 -0.00708007 -0.00968769 -0.000452384 0.00141088 -0.000562098 0.00787302 -0.00536307 -0.0073911 0.0017051 0.00420987 0.0010414 0.00444123 0.00841388 0.00492431 0.00190672 0.00312958 0.00824594 0.00134021 0.0085567 0.00901787 0.000572338 0.0102649 0.00369667 -0.00915999 -0.00996094 -0.0144019 -0.00790576 2.62423e-06 0.00273991 -0.00691151 0.00516865 -0.00229164 0.00748109 0.00154843 0.00129485 -2.53788e-05 0.0032601 0.00471507 0.00308211 0.00243278 0.001706 0.000760902 0.00676876 0.000355906 0.00164948 0.00103093 0.00824742 0.00216956 0.00907365 0.00875525 0.0116667 -0.00604741 -0.00561223 -0.00992672 -0.00509611 -0.00627055 -0.00745496 0.00266368 0.00285686 3.27086e-05 0.00759694 0.00512018 0.00241758 0.00771137 0.00853453 0.00457043 -0.000419244 -0.00350523 0.000144847 -0.00103813 0.00760986 0.00500737 0.0085567 0.00443299 0.00556701 0.00183113 0.00399471 0.00335198 0.00654035 -0.000118622 -0.00303278 -0.00484405 -0.000873624 -0.00283719 -0.00150104 -0.000579672 0.0065657 0.00978668 0.0122116 0.0143269 0.00621746 0.0115159 0.00531798 -0.000499298 0.00407583 0.00515631 0.00640709 0.00398588 0.00113634 0.000112422 0.0057732 0.00494845 0.0071134 0.00952653 0.00162016 0.00528762 0.00786966 0.0133501 0.00371134 -0.000189786 0.0022702 0.00710699 0.00820146 0.00750973 0.00322255 0.00119128 0.00751612 0.0109043 0.00143533 0.0040188 0.000954113 0.00790791 0.00707302 0.00922392 0.00936151 0.0078304 0.00785417 0.00370093 0.00969072 0.00195876 0.00546392 0.00495395 0.000416233 0.0048108 0.0113238 0.00820475 0.00586441 0.00531704 0.0149876 0.00629812 0.0102451 0.00952238 0.0101454 0.0116887 0.00767918 0.00666776 0.00723435 0.00362969 0.00930287 0.00650964 0.00551241 0.0055775 0.00400804 0.00645439 0.000507031 0.00844352 0.00360825 0.00402062 0.00917526 0.00443299 0.000309278 0.00325572 0.00388741 0.00474406 0.00783304 0.0092449 0.0118719 0.00939342 0.00965971 0.0092558 0.012006 0.00445628 0.0078215 0.00330674 0.000603242 -0.000124965 0.00365573 0.00265944 0.00828785 -0.000169389 0.00195441 0.00925399 0.0028866 0.00309278 0.000206186 0.00793814 0.00701031 0.00247423 0.00824742 0.00886598 0.000721649 0.00319942 0.00484146 0.0106249 0.0030811 0.00637262 0.00770031 0.00080531 0.00940992 0.00261499 0.00178136 0.00136119 0.000521095 0.0031213 0.00916125 0.0084242 0.00753874 0.00297002 0.00862557 0.00154639 0.00907216 0.00515464 0.00391753 0.00835052 0.00556701 0.00278351 0.00896907 0.00474227 0.00907216 0.00680412 0.00773196 0.00505155 0.00154639 0.00381443 0.00412371 0.00773142 0.010205 0.00556701 0.00371134 0.0102062 0.0028866 0.00793814 0.00556701 0.00597938 0.0057732 0.00371134 0.00402062 0.00793814 0.00350515 0.00494845 0.0085567 0.0102062 0.00597938 0.0014433 0.00979381 0.00329897 0.00783527 0.00993423 0.00523189 0.00889053 0.00798557 0.00933147 0.00675347 0.00809888 0.00160643 0.00584491 0.00113488 0.00779577 0.0071706 0.000853495 0.00307357 0.00981729 0.00585222 0.00863804 0.000719292 0.0028866 0.0102062 0.00690722 0.00587629 0.00515464 0.0042268 0.00329897 0.00742268 0.00267851 0.00191933 0.000515167 0.00834296 0.00535589 0.00209386 0.00168676 0.00480534 0.00507789 0.00610064 0.0101689 0.00169764 -0.00172207 0.00128061 -0.00240981 -0.00574384 0.00669711 0.00913693 0.0028707 0.00713203 0.00864478 0.00226804 0.00865979 0.0101031 0.0057732 0.00680412 0.00266737 0.00576959 0.000569491 -5.31495e-05 0.00264562 -0.00237793 0.00331281 0.0125748 0.00694524 0.00542091 0.00745927 0.0181866 0.0172198 0.00793591 0.00653844 0.00521525 -0.00343285 -0.00861686 -0.00824918 -0.00479212 0.00891035 0.00983227 0.0035596 -0.00153578 0.00191184 0.00206186 0.00731959 0.00113402 0.00645017 0.00864807 0.00532619 0.000528848 0.00250246 0.00471533 -0.0032297 0.00628628 -0.00377472 0.0082434 0.0202627 0.0111214 0.0128355 0.0071105 0.00702687 0.0196915 0.00982742 0.00709189 0.0136015 -0.00423659 -0.0135415 -0.00895431 -0.0104639 -0.00153541 0.00401125 0.000406579 0.00938144 0.0071134 0.00288695 0.00165918 0.00590507 -0.0025366 -0.00726947 -0.00734795 -0.0144869 -0.013692 -0.0164832 -0.0136391 -0.010712 -0.0136354 0.00567767 0.0143645 0.0195915 0.0351796 0.0390526 0.0269243 0.0184532 0.0183424 -0.0175105 -0.0312259 -0.0165349 0.00609491 0.00552229 0.00678549 0.00505155 0.00855705 0.00805331 0.00717761 -0.00015461 -0.00328216 -0.01584 -0.0109517 -0.0222356 -0.0244556 -0.0310956 -0.0111969 -0.0166591 -0.00311836 0.0244566 0.0303925 0.0130839 0.00532774 0.0254641 0.015967 0.00887118 0.0190408 0.00222973 -0.0124516 -0.0108259 -0.00299624 -0.000467297 0.0061477 0.00113402 0.00165984 0.00615171 0.00661873 0.00692457 -0.000243344 -0.0196926 -0.0129414 -0.0172974 -0.0230625 -0.0155106 0.00685024 -0.00772396 0.0186862 0.0273415 0.0204083 -0.0247164 -0.0348054 -0.00852766 0.0122722 -0.0127318 0.0024573 0.0044596 -0.00588198 -0.000749732 -0.00291094 0.00631445 0.0085591 0.0100758 0.0074135 0.00409258 0.00153147 0.0044028 -0.0104119 -0.0148628 -0.0114073 -0.0157125 -0.0149102 -0.00225459 0.0281684 0.0306924 0.0377369 0.0164763 -0.0155365 -0.0175658 -0.0106485 -0.0221617 0.0132926 0.013293 -0.00838934 -0.0124692 -0.00052011 0.00760425 0.00146337 0.00384288 0.00282064 0.00731959 0.000696609 0.00970269 0.00448835 0.000480751 -0.00656842 -0.0150716 -0.0109479 -0.0219628 -0.0166658 0.00481884 0.0171069 0.0174911 -0.00136603 -0.0103083 -0.0189045 0.000484364 -0.0188492 -0.0196511 -0.0128369 0.0149129 -0.00805247 -0.0187544 0.0114125 0.0130749 0.0117758 0.00679053 0.0062294 0.00989691 0.00679502 0.00277213 0.00728239 -0.00906099 -0.00919321 -0.010147 -0.0110772 -0.0189821 -0.00147874 0.0168308 0.0249419 0.0094365 -0.0110801 0.0069767 0.0150164 -0.0165507 -0.0211608 -0.0189884 -0.0232662 0.00273305 -0.00408855 -0.00949817 0.00919655 0.0181567 0.00765852 0.00511234 0.00416946 0.00226804 0.00571595 1.32087e-05 0.00827806 -0.00042648 -0.0138925 -0.0083863 -0.00693512 -0.00693416 0.0010016 -0.000359676 0.0144775 0.00162814 -0.0125156 -0.00771839 -0.0194348 -0.0224209 -0.0360469 -0.0260748 -0.00810858 -0.0107521 -0.010397 -0.00271914 0.0019481 0.00934037 0.00684205 0.0120644 0.00354969 0.00103093 0.00495155 0.00494942 0.00254187 -0.00413778 -0.0133699 -0.0064443 -0.0160309 -0.0252321 -0.00188639 -0.00959066 -0.000617019 -0.0201546 0.00224739 -0.0219959 -0.0324637 0.00414529 0.0124964 -0.00944038 -0.00725123 -0.00185151 -0.00161881 -0.000951512 0.00595972 0.0223737 0.0112562 0.00475868 0.00127412 0.00896907 0.00845177 0.00343849 0.00652651 -0.00793508 -0.0202444 -0.00873365 -0.0106362 -0.0267764 -0.022587 -0.0280934 -0.0307026 -0.00671203 -0.0148649 -0.0397919 -0.0245115 -0.0127539 0.00172727 0.0133504 0.00816855 -0.0113949 -0.00269777 -0.0129799 -0.0100495 0.0136356 0.0167871 0.00431138 0.00531274 0.000927835 -0.00010619 -0.000487369 -0.0017141 -0.00609659 -0.00431527 -0.0159108 -0.0166988 -0.0311476 -0.0348907 -0.00112832 0.0120687 0.0193642 -0.0121364 -0.0329993 -0.0313296 -0.0272699 -0.0192637 -0.0105811 -0.00811275 -0.0104873 -0.0287646 -0.0202486 -0.0242154 0.00657973 0.0149262 0.00471998 0.00989733 0.00319588 0.00767 0.00309683 0.00230898 -0.00804826 -0.00983658 -0.0182905 -0.0215593 -0.0225872 0.00915824 0.0392957 0.0415914 0.0154099 -0.0217109 -0.00720481 -0.0166655 -0.00367718 -0.0353884 -0.0327207 -0.013202 -0.00968287 -0.0167287 -0.019962 -0.0156063 0.000641443 0.00859117 0.00512548 0.000382004 0.000618557 0.0090536 -0.000351298 0.00165841 0.00141081 -0.0179908 -0.0204905 -0.00153704 0.017736 0.0666934 0.0629639 0.0338638 -0.0173766 -0.0298299 -0.0187145 -0.00893093 -0.00785007 -0.0184547 -0.0356543 -0.0168685 -0.0121823 0.00624516 -0.0106282 -0.00876778 -0.0103837 0.00578615 0.00337541 0.000988701 0.0102062 0.00641722 0.00855418 0.00497136 -0.00682619 -0.0240817 -0.0217964 0.00694624 0.0426439 0.0871418 0.0420104 -0.00656355 -0.0316621 -0.0337712 -0.0287339 -0.0111683 -0.00166633 -0.0121553 -0.0400123 -0.0192847 -0.0106511 0.0180238 0.00325269 -0.0139852 -0.00564787 -0.0041558 0.0112304 0.00530233 0.000412371 0.00865979 0.00785508 0.00232184 0.00048332 -0.0267641 -0.00595708 0.0299483 0.0742052 0.0646635 0.0120101 -0.0351385 -0.0385116 -0.0260355 -0.0095158 -0.0144936 -0.00201892 -0.0107846 -0.0112038 -0.0111647 -0.00608899 0.0220325 0.0119717 -0.00570682 -0.010633 -0.000663221 0.00403009 0.00864135 0.00103093 0.00951472 0.0062841 0.000484202 0.00133984 -0.0124215 -0.000191367 0.0283289 0.0680519 0.0476419 0.00198038 -0.0214521 -0.00893169 0.00945214 0.00645394 -0.00264405 -0.00519235 -0.0182104 -0.0273208 -0.0124156 0.0101313 0.0258835 0.00825862 0.00315276 -0.012937 0.00162151 0.00976338 0.00708625 0.00969072 0.00387418 0.0091718 -0.00328538 -0.00182184 -0.00803222 0.0177527 0.0367683 0.0302316 -0.00630557 -0.0119588 -0.00373594 0.0154157 0.0131733 0.00667214 0.00312502 -0.0278039 -0.0186952 -0.0166492 0.00257408 0.0239984 0.023328 0.0162305 0.00687357 -0.00329237 0.0011122 0.0092678 0.0037126 0.00835052 0.00793814 0.000312259 0.00673902 0.00687996 0.00497255 0.0301148 0.0388252 0.000118349 -0.012463 -0.000299806 0.0107743 0.0157407 0.0132167 -0.00867801 -0.0229233 -0.0175072 0.00694447 0.0162885 0.0194255 0.00810251 0.00114555 0.0187055 0.0146363 0.00050444 4.97068e-05 0.00731109 0.00329897 0.00618557 0.0071134 0.00576827 -0.00103222 0.00644016 0.0137511 0.0299049 0.0546333 0.022363 0.0138719 0.013839 0.037296 0.0322926 0.00256998 -0.021243 -0.0119292 0.00429645 0.0109851 0.0213252 0.0192111 -0.00457166 -0.00920427 0.0113137 -0.000686604 0.0090677 0.00581221 0.00499442 0.00237113 0.00628866 0.00979381 0.00173541 0.00624392 0.000124872 -0.00797853 -0.00289315 0.0217421 0.0330561 0.0137907 0.0102784 -0.00814742 -0.0176641 -0.0250847 -0.0143608 0.00235067 0.0110091 -0.00513053 0.00269411 0.00871204 -0.00228806 0.00502477 0.0136385 0.00734266 0.00727751 0.000255751 0.0061818 0.00154639 0.000206186 0.00402062 0.00510226 -0.00124722 -0.00475186 -0.0119725 -0.00995278 -0.0136405 0.0068172 0.0214629 0.00813183 0.00206552 0.00157666 -0.00880111 -0.0019338 -0.0153733 -0.0138863 -0.017111 -0.0098425 -0.0014404 -0.00223386 -0.000629962 0.00283126 0.00114885 0.00981892 0.00591002 0.00567581 0.00123711 0.00649485 0.00247423 0.00658518 0.00722632 -0.000626939 -0.00822579 0.000876001 0.00352584 0.00395027 0.00810184 9.76291e-05 -0.00887335 -0.00791581 -0.00223079 -0.00595089 -0.00248273 -0.00474278 -0.00198806 -0.00107954 0.00224692 0.00368951 -0.004562 0.00801355 0.00471627 0.0090687 0.00850431 0.00921385 0.0101031 0.00649485 0.000824742 0.00247423 0.00731959 0.00305777 0.00324106 0.00518752 -0.000479326 0.00192045 0.0055186 0.00194985 -0.000710565 0.00372242 0.00647516 0.00014256 0.000686747 -0.00337741 0.0063688 -0.00140453 0.000834636 0.0048451 -0.00442922 0.00861161 0.00347611 0.00525409 0.00597938 0.00917526 0.00443299 0.00649485 0.00123711 0.000412371 0.00268041 0.00670103 0.00895754 0.0090418 0.00205616 0.00407279 0.00806663 0.000291863 0.00835612 0.00596175 0.00487665 -7.72421e-05 0.00280578 0.00239578 0.00782011 0.00183219 -6.03415e-05 0.00559775 0.00680296 0.00856923 0.00519738 0.00731959 0.00639175 0 0.00721649 0.00474227 0.00824742 0.00958763 0.00969072 0.00680412 0.0057732 0.00134021 0.00783505 0.00134021 0.00546392 0.01 0.00701031 0.0040202 0.00267949 0.000618557 0.00783505 0.00113402 0.00948454 0.00134021 0.00618557 0.00226804 0.00103093 0.00113402 0.00814433 0.000412371 0.00701031 0.00989691 0.00958763 0.00979381 0.000309278 0.00804124 0.00835052 0.00154639 0.00979386 0.00917414 0.00900622 0.00995368 0.005602 0.00594557 0.00183646 0.00463178 0.00712191 0.0111299 0.00827584 0.00159647 0.00517658 0.00957326 0.00675657 0.00676868 0.00374911 0.00468247 0.00464231 0.00773196 0.00680412 0.00103093 0.0101031 0.000515464 0.00226804 0.00835052 0.00185567 0.00330666 0.00892988 0.00624729 0.00812304 0.00923128 0.00574959 0.00354985 0.00678046 0.012928 0.0070818 0.0138244 0.00733524 0.0102782 0.00305367 0.00821423 0.00256061 0.000515974 0.00352913 0.00562714 0.0067806 0.00675961 0.00524465 0.0071134 0.00670103 0.00360825 0.00360825 0.00513695 0.00648985 0.0071656 0.00423757 0.00431332 0.00343157 0.00393117 0.00991301 0.00609382 0.00682277 0.0147186 0.0116307 0.00404729 0.0105926 0.00689119 0.00423965 0.00170516 0.00588144 0.00323093 0.00222469 0.00598233 0.00300936 0.00388118 0.00968635 0.0017083 0.00134021 0.00742268 0.00649485 0.00746673 0.00111762 0.00420475 0.00533795 0.010624 0.00641967 0.00802681 -0.000236494 0.00607424 0.00975744 0.00643401 0.00359158 0.00678798 -0.000842684 0.000942136 0.00326242 0.0012538 -0.00407354 -0.00475435 -0.0039466 -0.00116609 0.00026982 0.00738116 0.000291379 0.000555908 0.00220025 0.00927835 0.00948454 0.0048456 0.000938529 0.000161504 0.0063193 0.00130509 0.00346294 0.00429415 -0.00237023 -0.0040503 -2.10625e-05 0.00689671 0.0071325 0.00428243 -0.0038716 -0.00425945 -0.0050112 -0.00578081 -0.0101302 -0.00496642 -0.00261413 -0.00130335 -0.00250897 -0.00205547 0.00368288 0.00811191 0.00747236 0.00907216 0.0070102 0.00522236 0.00212724 -0.000376033 -0.000542536 -0.00530754 0.00359801 0.00179263 0.00195833 0.00166242 0.0123243 0.00806009 -0.00605052 -0.00780977 -0.011146 -0.00492398 -0.00540078 -0.00646621 -0.0124405 -0.0112308 -0.00216017 -0.00950436 -0.0034887 -0.00165438 0.0022299 0.00708966 0.00627795 0.0042268 0.00877246 0.00288722 0.00490424 0.00714182 0.00681471 -0.00176226 -0.00626434 0.00384147 0.00431376 0.0150703 0.0114878 -0.00512163 0.00180602 -3.69048e-05 -0.002122 -0.00931716 -0.00144859 -0.00996886 -0.0033927 -0.0195794 -0.0142142 -0.0119344 -0.00179889 -0.00583058 -2.77274e-05 0.00223741 0.000363753 0.00888509 0.00318036 0.00621372 4.89036e-05 0.00250668 0.00524332 0.00686189 0.00344811 0.00250492 0.0116525 0.00600632 -0.00380764 -0.00616931 -0.00374558 -0.00604844 -0.0154222 -0.00770467 -0.00234369 0.00243632 0.00157193 -0.0114277 -0.0118325 -0.00583115 -0.00460856 0.000228456 -0.00160087 0.000977883 0.000822604 0.00958763 0.00760167 0.00685212 -0.00207699 0.003072 0.00269587 0.00535963 0.00823321 0.00715057 0.00453522 0.00312478 -0.00637784 -0.00382469 -0.0105361 -0.00832459 -0.00676086 -0.000476026 0.00365405 0.0115999 0.00838407 0.00354715 -0.0103351 -0.00361757 -0.00812017 0.000683443 -4.86197e-05 0.00796619 0.0065661 0.00371134 0.00823361 0.00110801 0.00742889 0.00966719 0.0116992 0.00454599 0.0117778 0.00739353 -0.000615404 0.000197549 -0.00508113 -0.00732696 -0.0114972 0.00296443 0.0033095 -0.000300747 0.00353907 0.00883347 0.00322975 0.00066672 -0.00282455 -0.0046018 0.00125888 0.0044134 0.00193439 0.00956394 0.00233654 0.0102062 0.0100646 0.00211377 0.0116969 0.0146931 0.0098787 0.0100056 0.0117672 0.00892483 -0.000636175 -0.00799688 -0.0121389 -0.0131167 -0.00541649 0.0012313 -0.00150064 0.00411471 0.00416579 0.00757662 -4.41063e-05 0.00949604 0.010488 0.00139343 0.00372944 0.00324309 0.0046371 0.00980487 0.00708039 0.00670103 0.0021142 0.00339076 0.0052923 0.0128314 0.00697682 0.0173553 0.00789567 0.00117186 -0.0059418 -0.0197961 -0.0201777 -0.0109049 -0.00680907 -0.00279371 0.00250039 0.00333497 0.0076986 0.000699093 0.00014612 0.00440175 0.0187449 0.00961852 0.0155906 0.0146897 0.00833398 0.000394359 0.00821248 0.00154639 0.00958136 0.00645152 0.00518442 0.0158358 0.0169528 0.0107715 0.000487832 0.00510391 -0.00836369 -0.0100943 -0.00931938 -0.000198155 -0.00138266 0.00466325 0.000127016 0.000648356 -0.000953036 -0.00475913 0.00664368 0.00571753 0.02217 0.0152371 0.014048 0.00817723 0.0112553 0.00107426 0.00123134 0.00237113 0.000523764 0.00875558 0.00408591 0.0248885 0.0132129 0.0100674 0.0038243 -0.00799844 -0.0082431 -0.0162663 -0.010995 0.00154708 0.00663245 0.00464535 -0.00344754 0.000519468 -0.0075365 -0.00496214 0.00230382 0.0139816 0.0105735 0.0113997 0.00667018 0.00844516 0.00415349 0.0046419 0.00670084 0.00134021 0.00146225 0.00256301 0.00838584 0.0159197 0.0105786 0.0133251 0.00448773 0.00393512 -0.00445387 -0.00943508 0.000922513 0.00962099 0.00472087 -0.00311325 -0.000546258 0.00612439 -0.00359853 -0.000265037 -0.0035642 0.00809067 0.012561 0.00918445 0.00152705 0.00264025 0.00953779 0.00919779 0.00904218 0.00608247 0.00949352 0.00677609 0.00607946 0.0167449 0.0199785 0.00788278 0.0076981 0.00103423 -0.0025929 0.00142697 0.0107064 0.00604579 0.00203821 0.00611642 0.00909509 0.00772433 0.00177094 -0.00486139 -0.0156829 0.00311464 0.000443424 0.0174771 0.00940902 -0.00262804 0.00662269 0.00128716 0.00116514 0.00835052 0.000415473 0.00788034 0.00639219 0.00497188 0.00984939 0.0132815 0.00265657 0.00580806 -0.000611318 0.0128949 0.00842335 0.0125001 0.0121066 -0.00499392 -0.00132534 0.00121466 -0.00427117 -0.00753781 -0.0142357 -0.00769163 -0.000334468 0.00487043 0.00338653 -0.0046305 0.00239232 0.00416085 0.00361176 0.00835052 0.00814433 0.00745387 0.0022477 0.00484043 0.00121793 0.00400179 -0.000512744 -0.00895226 0.00185205 0.00696759 0.0145093 0.00825098 0.00521477 -0.0050739 0.000554244 -0.0120979 -0.00718504 -0.00879163 -0.00177134 0.00179103 0.00540877 0.00404159 0.00581303 -0.00319632 0.00632575 0.00164506 7.07784e-05 0.00123711 0.00223792 0.000897984 0.0035854 0.00844402 0.00921558 0.00291905 -0.00148896 -0.00331868 0.00450073 0.00854121 0.0183779 0.0117211 -0.00356018 -0.000897504 -0.00923778 -0.00855817 -0.00823126 -0.0116865 0.00450137 0.00446108 0.0103626 0.0127676 0.0068673 0.00649326 0.00983468 0.00870011 0.00153187 0.00278351 0.00992209 0.00834691 0.00854555 0.00356832 0.00570619 0.00584186 -0.00641572 -0.00696963 0.00364179 0.00220655 0.000648392 -0.00129563 -0.00467424 -0.0074659 -0.0130061 -0.00739128 0.00172072 -0.00242052 0.0102414 0.00947297 0.0083183 0.00756873 0.0042759 0.00200195 0.00478633 0.00277056 0.00412028 0.00917526 0.00958763 0.00288274 0.00493967 0.00589064 0.003168 -0.00327628 0.0031935 0.000539754 0.0102263 0.00342923 -0.00416083 0.00201029 0.00352165 -0.00100865 -0.00514472 -0.00635204 -0.00254921 0.00880256 0.00582438 0.00758204 -7.32669e-05 -0.00180802 -0.0037192 0.000818129 0.00428891 0.00202057 0.00536082 0.00752577 0.00164948 0.00535256 0.0083519 0.00879508 0.00282906 -0.00667021 -0.000641994 0.00172669 0.00335936 0.00402672 0.00128247 0.00224062 0.00869542 0.000308171 0.0011716 -0.00331626 0.00606644 0.00471193 0.00314299 -0.000592953 -0.00256118 0.00512989 0.000394137 0.00389785 0.00806427 0.000964429 0.00340206 0.00257732 0.00649485 0.00639861 0.00291355 0.00648288 0.00142082 0.00180952 -0.00554861 -0.00686854 -0.00158307 -0.00128486 0.00288548 0.00879318 0.00178365 -0.00308617 -0.000252552 0.00158508 0.00198045 0.000480445 -0.000699037 0.00592072 -0.00331526 0.00162871 0.0110073 0.00690187 0.00407748 0.00591481 0.00690722 0.00412371 0.00835052 0.00275003 0.000893954 0.00867347 0.00352302 0.00479358 -0.00302791 0.00485048 0.00174486 0.0034901 0.00214169 0.00953829 0.00721212 -0.00251343 0.00131819 0.0113413 0.00526444 0.0085461 0.0110835 0.00589212 0.0064756 0.00833864 0.0124467 0.00744974 0.0096986 0.00402022 0.00515464 0.00876289 0.00731959 0.00990392 0.0066843 0.00281005 0.00687995 0.00425836 0.00928171 0.00473634 0.00841649 0.00619369 0.00906784 0.00583403 0.006596 0.00763618 0.00323174 0.0106259 0.0012987 0.00390455 0.0080561 0.00895269 0.00768008 0.00509287 0.00791695 0.00394955 0.00690727 0.00402069 0.00762887 0.00958763 0.00360825 0.00474227 0.00618719 0.0038126 0.00639838 0.00128268 0.00659373 0.00364921 0.00952234 0.00640673 0.0052055 0.00749826 0.00430539 0.00521973 0.00799135 0.00432178 -0.001085 0.00360341 0.00171226 0.00162731 0.00195533 0.00697103 0.00733791 0.00655405 0.00659794 0.00773196 0.00804124 0.00113402 0.00721649 0.000412371 0.00907216 0.00484536 0.00969072 0.00237897 0.00537391 0.003806 0.00648443 0.00894817 0.00269749 0.00344156 0.0011694 0.00495032 0.0074803 0.000378158 0.00067435 0.00527862 0.000600953 0.000381414 0.00938816 0.00926292 0.000518117 0.00402062 0.00597938 0.00309278 0.000824742 0.00958763 0.0042268 0.00360825 0.00360825 0.00268041 0.0043299 0.00886598 0.0102062 0.00329897 0.00907216 0.00103093 0.00463918 0.00815175 0.000428623 0.00443299 0.00247423 0.00175258 0.00618557 0.00402062 0.00639175 0.00443299 0.00587629 0.0085567 0.00762887 0.000206186 0.00164948 0.00958763 0.00298969 0.0071134 0.00896907 0.00237113 0.00701031 0.00670103 0.000206186 0.00234133 0.0025759 0.00785603 0.00615702 0.00208506 -0.000498813 -0.0019078 0.00539022 0.00368586 0.00639356 0.00586982 0.00863696 0.00780062 8.40995e-05 0.000223835 0.00208607 0.00763904 0.00154661 0.00474227 0.00494845 0.00793814 0.00865979 0.000515464 0.000824742 0.00680412 0.0028866 0.00412371 0.00111638 0.00268675 0.00431294 0.00625194 -0.00158993 0.00295118 -0.00637493 -0.0050407 -0.000266658 -0.00504861 0.00406874 0.00594929 0.00387081 0.00248702 0.00159048 0.00108467 0.00611825 0.00639994 0.00817654 0.00209839 0.00369114 0.00618557 0.00835052 0.00371134 0.00329897 0.0016514 0.00948541 0.00367039 0.000803096 -0.00239796 0.000201596 0.000503679 -0.00225744 -0.00554995 -0.00393404 -0.00750474 -0.000869595 -0.00197953 -0.000412095 -0.00551887 0.00284996 -0.00267066 0.00593443 0.00541934 0.00212493 0.00997022 0.0104705 0.000888288 0.00742247 0.000445479 0.00783505 0.00670103 0.00329897 0.00598476 0.0077341 0.00194587 0.000143438 0.00298265 0.00487942 0.000974205 -0.00213946 0.00222234 0.00397616 -0.00523043 -0.00548627 -0.00280276 -0.00806633 -0.00312239 -0.00639442 0.00124671 0.00418379 0.00773077 0.00962835 0.00714532 0.00750387 0.00711994 0.00805427 0.00420125 0.00668952 0 0.00216495 0.00453173 0.00215678 -0.00189813 0.00478137 0.00423715 -0.00312805 0.00156237 -0.00215202 -0.00587077 -0.00660234 -0.00938942 -0.0102895 -0.01166 -0.0153426 -0.00332047 -0.00274925 -0.00597194 -0.00180472 0.00114758 0.00719118 0.00963674 0.0115413 0.00325457 0.00946354 0.000827625 0.000189171 0.0085567 0.00164925 0.00328943 0.0100198 -0.00162686 0.00800189 0.00368343 0.00112658 0.00551676 0.00147449 -0.0132797 -0.00382937 -0.0105409 -0.014117 -0.0101089 -0.00708439 -0.00250194 0.00660646 -0.00572667 -0.00686328 -0.00396499 0.00104155 0.00902622 0.010079 0.00995655 0.010198 0.00407559 0.00762753 0.00773196 0.00761286 0.0108407 0.00280198 -0.00140086 0.0107547 0.00633608 0.0072984 0.00666945 -0.00633665 -0.0129664 -0.0235089 -0.0286317 -0.0281749 -0.0190827 -0.00293269 -0.000441982 -0.00211789 -0.00170658 -0.00418663 -0.00664036 -0.000679725 0.00233822 0.0111425 0.012675 0.0091373 0.00194317 0.00990093 -3.69055e-05 0.00693483 0.00949387 0.0081595 0.00887609 0.0114824 0.0141841 0.00490888 -0.00496968 -0.00661303 -0.0129544 -0.0197237 -0.028271 -0.0341308 -0.0304226 -0.0164251 -0.0145725 -0.0047789 -0.00461223 -0.0102589 -0.00810558 -0.00102586 0.00100072 0.00671529 0.0142327 0.00934881 0.00219806 0.0017472 0.00628866 0.000554802 0.00625873 0.00875959 0.0113811 0.00566589 0.00970799 0.00096995 0.00863218 0.00112755 -0.00251214 -0.00702723 -0.0163481 -0.0292422 -0.0159411 -0.0159092 -0.00347899 -0.00349613 -0.0046837 -0.0114783 -0.00161153 0.00241666 0.000883175 0.00716317 0.0064643 0.00816224 0.0062565 0.0026285 0.00814433 0.000726483 0.012821 0.00789359 0.00968477 0.0151836 0.0162247 0.00215526 0.0108128 0.0193151 0.0166125 0.0127013 0.0101313 -0.00150556 -0.00995533 0.0050622 0.00154851 -0.000260903 -0.0016972 0.00324025 -0.00638912 -0.00384074 -0.00562933 -0.000125361 0.00101285 0.00461799 0.0101036 0.00663416 0.0085567 0.00563493 0.00797947 0.00431775 0.0201817 0.016599 0.0139555 0.0128856 0.0119523 0.0193172 0.0278162 0.0194367 0.014769 0.0164517 0.01134 0.018592 0.0211003 0.000467348 0.00359141 0.0033447 -0.00355553 -0.00301319 0.00586381 0.000772925 0.00309275 0.00517647 0.0032998 0.00793555 0.00690722 0.00308124 0.00469515 0.0107805 0.0175069 0.00902701 0.00500891 0.0111431 0.0105467 0.0192773 0.0181318 0.0203982 0.00997185 0.00821556 0.0107782 0.0292002 0.0189184 0.00418418 0.00346364 0.00187482 0.000996966 -0.00343553 0.00648528 -0.00481796 4.65994e-05 0.00436675 0.010323 0.00174953 0.00402062 0.0101027 0.00491396 0.0147948 0.013437 0.00708382 -0.00123214 -0.00678434 -0.0012284 0.0053581 0.0122434 0.00528646 -0.000719569 -0.00954573 -0.000514681 0.015622 0.00369282 -0.00994383 0.00394284 0.00134737 0.00612196 -0.00161332 0.00617802 2.1229e-05 0.000299285 0.00825451 0.00667454 0.00633516 0.0028866 0.000305332 0.00906066 0.00891272 0.00223895 9.05396e-05 -0.0161346 -0.00870482 -0.00630605 -0.00423216 -0.00794343 -0.00711194 -0.00288843 -0.00909639 0.0026022 -0.00014877 -0.0020473 -0.00525232 -0.00244155 0.00513129 0.00548741 0.0058284 0.0173943 0.0212981 0.0015094 0.00455063 0.00821784 0.00185116 0.00329897 0.0034894 0.000530185 0.00195388 -0.00114389 0.000396696 -0.00373341 -0.0150302 -0.00850269 -0.00997159 -0.00754005 -0.00180128 -0.00426696 -0.00393826 0.00590374 0.00113234 -0.0055592 -0.00254471 -0.00462608 0.00145415 0.00789389 0.0097574 0.0221056 0.016372 0.002345 0.00584018 0.000315903 0.00514473 0.000618557 0.00617796 0.00212385 0.00392599 0.00141193 -0.000651069 -0.00146109 -0.000961066 -0.0106908 -0.00577654 -0.00654517 -0.00231218 -0.00930493 0.00332376 0.00989986 0.0111738 -0.00615843 -0.00827069 -0.00277346 -0.00244563 -0.00341127 0.011266 0.0155144 0.00552315 0.00170508 -0.000282608 0.00368875 0.00421122 0.00175258 0.00329638 0.00800745 0.00279634 0.000829707 -0.00382056 -0.00200023 -0.00756958 -0.00606748 -0.0066974 -0.0170504 -0.00445587 -0.00452898 -0.00146243 0.00635483 0.00159715 -0.00491281 -0.00919241 -0.0105309 -0.0105729 0.00201243 0.0104543 0.0067815 0.000960993 0.0015973 1.93144e-05 0.000682753 0.00471033 0.00536082 0.00474227 0.00043753 0.000491391 -0.00391653 -0.00618837 -0.00973489 -0.000736864 -0.000334845 -0.0058485 -0.00990065 -0.0131533 -0.00565641 -0.0101928 0.00133847 0.000615532 -0.00884926 -0.000991834 -0.0109174 -0.00854724 0.00112923 -0.00142651 -0.00237261 -0.00571908 0.00457977 0.00346868 0.000853421 0.00523637 0.00494845 0.00948893 0.00458124 0.00242356 -5.16062e-05 -0.00413966 -0.000704463 -0.00507283 -0.00591112 -0.00938513 -0.0125828 -0.00581162 -0.00840265 0.00350456 -0.00356153 -0.00662074 -0.00449467 0.00698159 -0.0101352 -0.00831076 -0.00152407 -0.0129271 -0.00824445 -0.00932033 0.00672902 0.00630143 0.00108709 0.00143308 0.000103093 0.00996403 0.00867203 0.00761238 -0.00011438 0.000893968 -0.0067767 -0.00419356 -0.00575566 -0.0137711 -0.0162458 -0.00669178 0.00305377 0.00099122 -0.00244935 -0.0126287 -0.007417 0.00818257 -0.00177216 -0.00618781 -0.00259605 -0.00751677 -0.0102947 0.000740716 0.00129048 0.00720055 0.00510925 0.00257869 0.00216495 0.00443299 0.0101376 -0.00045451 -0.00244741 -0.000167927 -0.000408687 -0.00959827 -0.00475082 -0.00827097 -0.0029976 -0.00216528 -0.00177317 -0.0022166 -0.00747098 -0.00423459 0.00230091 0.00640645 0.00295735 -0.00441233 -0.000484378 -0.00154322 -0.00587645 0.00630152 -0.000619485 0.00340169 0.00758776 0.00938144 0.0101031 0.00639175 0.00813058 0.00748234 0.00271168 0.00232248 -0.00567173 -0.00654587 -0.00381818 -0.00641966 -0.00478352 -0.00543171 0.00471423 -0.00356525 -0.00523114 9.79047e-06 0.00667829 0.0124566 0.0126592 0.00696986 -0.00221252 -0.000590952 -0.00593478 0.00415604 0.00611589 0.000339224 0.00159386 0.00474227 0.00515464 0.00474227 0.000358494 0.0087506 0.00547092 0.00672383 0.00499135 0.00732599 0.00126057 0.00022405 -0.00349032 -0.00187583 0.00527501 0.000824552 0.00705755 0.00231367 0.00546673 0.0114203 0.00134733 0.0035752 -0.0044178 0.00182898 -0.0030128 0.00191746 0.00345456 0.00571698 0.0089967 0.0102062 0.00381443 0.0102062 0.00450645 0.000321224 0.0023205 0.00500834 0.00892772 0.00794157 0.00226205 0.00228817 0.00166547 0.0107814 0.0137207 0.00788193 0.00525895 0.00385426 0.00253526 0.00446662 0.00422651 -0.00134432 -0.00300824 0.00472635 -0.000497718 0.00593702 0.00555344 0.00286522 0.00742376 0.00907216 0.00608247 0.00701031 0.00616798 0.00356232 0.00245427 0.00546704 0.00445131 0.00633441 0.00805391 -0.000994405 0.00145446 0.000599376 0.00426133 0.0021547 0.00339325 0.00179429 0.00514767 0.00622546 -0.000300673 -0.00139689 0.00325794 0.00586996 0.00515237 0.00333313 0.000719863 0.00711451 0.00402195 0.00463918 0.00773196 0.00917526 0.00195876 0.00288596 0.000686487 0.00405134 0.00935659 0.00703601 0.00492406 -0.000963057 -0.00454186 0.000748439 0.00236804 0.00173452 -0.00871476 -0.00013659 -0.00252553 0.0025253 0.00276945 0.00778265 0.00212262 0.0017939 0.00503747 0.00981295 0.00936231 0.00742268 0.00134021 0.00103093 0.00226804 0.00402062 0.00773196 0.0101031 0.00649485 0.00722739 0.00733926 0.00121555 0.00221609 0.00679273 0.0040728 0.00989989 0.00340119 0.00986574 0.00137585 0.00681673 0.00211139 0.00911321 0.000822002 0.00265821 0.00152288 0.00920677 0.00753493 0.000471522 0.00113402 0.00412371 0.00257732 0 0.00237113 0.00226804 0.00979381 0.00453608 0.0014433 0.0101031 0.00494845 0.00824742 0.00969072 0.000412371 0.00546392 0.0057732 0.00255873 0.00532014 0.00525773 0.00927835 0.00649485 0.00824742 0.0028866 0.00628866 0.00804124 0.0043299 0.00690722 0.00505155 0.00742268 0.000309278 0.01 0.0071134 0.00515464 0.0102062 0 0.00752577 0.00371134 0.00978542 -9.68209e-05 0.007765 0.00701764 0.000307117 0.00547737 5.21398e-06 0.000773095 0.00755735 0.000691498 0.00861952 0.00728387 0.00220377 0.00360666 0.00396628 0.00233128 0.00688092 0.00976884 0.00216288 0.00175258 0.00845361 0.000103093 0.00835052 0.00938144 0.00721649 0.00979381 0.00278351 0.000204521 0.00618289 0.00609823 0.00433625 0.00294295 0.00653733 0.00331781 0.00208169 0.000634594 0.00569563 0.000779226 0.0076248 -0.00117859 0.00735541 0.00247519 0.00713904 0.00936016 0.0066166 0.00666217 0.00355415 0.00709039 0.00216096 0.00216495 0.01 0.0014433 0.00731959 0.00587159 0.000205499 0.00435954 0.0084681 0.00100361 0.00144688 0.00817829 -0.000885974 0.00330896 -0.00242482 0.00581065 0.00279342 0.00380095 0.00487244 0.00593522 0.000734739 0.00314247 0.00184332 0.00648151 0.000882298 0.00544528 0.00579632 0.0087961 0.00543217 0.00279722 0.00278351 0.00463918 0 0.0036941 0.00350195 0.00559706 0.00735692 0.00882396 0.00194241 0.00451195 0.00824343 0.0019328 0.000387191 0.0044313 -0.00288123 -0.00464325 -0.00399221 -0.00506019 0.00122027 0.00317293 0.00419632 0.0054503 0.00550996 0.0043678 0.00740552 0.0073035 0.00485736 0.00591212 0.00824417 0.00670103 0.000206186 0.0068992 0.00558251 0.00909588 0.000424505 0.00516016 0.00928709 0.00379308 0.00256877 0.00207972 -0.00452097 -0.00296689 -0.00743265 -0.00932195 -0.00899286 -0.0104597 0.00246584 -0.002215 0.00528874 0.00865516 0.00282185 0.0105963 0.00476764 0.00721385 0.00929959 0.00413899 0.00453368 0.00618557 0.00381412 0.00124242 0.00351644 0.00597128 0.00971036 0.00913006 0.00564784 0.00228764 0.00548723 0.00445092 -0.00641811 -0.00216851 -0.00503046 -0.00874699 -0.00809704 -0.00470962 -0.00683067 -0.00437714 0.0019622 0.00252465 0.00131753 0.0124592 0.006778 0.00528137 0.00997967 0.00424723 0.00577954 0.00474227 0.00286672 0.000540941 0.00703075 0.00474791 0.00914158 0.00347906 0.00087135 0.00158578 0.00500718 -0.000120695 -0.00576277 -0.00646285 -0.00965834 -0.00292052 -0.00244343 -0.00280377 -0.00663869 0.000669618 0.00114877 0.0028711 0.00585367 0.0136591 0.0136946 0.00595374 0.0018568 0.00592278 0.00979522 0.00843685 0.00662209 0.00711984 0.00517361 0.00126451 0.00251285 0.00644807 -0.00222848 0.00476394 0.00171767 0.000921194 0.000667375 -0.000615576 -0.00578267 -0.00763902 -0.00168875 -0.00811086 -0.001106 -0.00272341 0.00362065 -0.000414956 0.00608642 0.00492945 0.0106979 0.0119943 0.00318572 0.00723691 0.00562418 0.00690722 0.00741829 0.00903582 0.00166578 -0.000509856 0.0069223 0.00792816 0.00238248 -0.00242188 0.000281638 -0.00234122 -0.00110889 -0.00606056 -0.0111678 -0.00789989 -0.00689364 -0.00200377 0.0008664 0.0010529 -0.00249202 0.00249838 0.00142504 0.00243875 0.00594734 0.00577438 0.0013959 0.00648972 0.00486044 0.00360825 0.00607755 0.00167652 0.00516986 0.008356 0.00951044 0.00764265 0.005402 0.00264136 -0.00581105 0.00145094 -0.00240639 -0.00429388 -0.00756628 -0.0114936 -0.00584127 0.00047748 -0.00217167 -0.00491318 -0.00606099 -0.00389802 0.00184494 0.00827097 -0.00218908 0.00736923 0.00392549 0.00834027 0.00907693 0.00154639 0.000231199 0.00546673 0.00781281 0.00974517 0.00652369 0.00518814 0.00117104 -0.00235925 0.00114678 0.00507603 -0.00174607 -0.00548888 -0.00460667 -0.00995783 -0.00462761 -0.000900372 -0.00349542 -0.0068641 -0.0013137 -0.00419733 0.00167711 -0.00252972 0.000438359 -0.00170738 0.00497333 0.00938019 0.00782779 0.00742268 0.0037737 0.00319539 0.00039034 0.00487421 0.00749677 0.0036942 0.00625069 -0.000600362 -0.00212887 -0.000121398 0.00350586 0.000855518 -0.00664605 -0.00802699 0.000844311 -0.00431515 -0.00417749 0.00319054 1.6473e-05 -0.0016357 0.000965124 -0.000438744 0.00393739 0.00189565 0.00723623 0.00577035 0.00461965 0.00845361 0.0092666 0.00042871 0.00652431 0.00760955 0.00865195 0.00605714 0.00133196 -0.00113164 0.0033108 0.00482906 0.00132311 0.00213157 0.000254378 -0.00424346 -0.00633418 -0.00512849 0.000306656 -0.0018973 -0.00103928 0.00176233 0.00540546 0.00147114 0.00532683 0.00225869 0.00634064 0.00996473 0.00525628 0.00154639 0.00102726 0.00973614 0.00379357 0.00528985 0.00459153 0.00966105 0.00507357 6.8193e-05 0.00319783 0.00325735 0.00324007 0.00306726 -0.00208875 -0.00431628 -0.00855472 0.00377297 0.00285883 0.00143994 0.00552533 0.00112717 0.00350107 0.00580154 -0.00286255 0.00134431 0.00233525 0.00754413 0.000515584 0.00680412 0.0017442 0.00560668 0.00888733 0.00921936 0.00863234 0.00155493 0.0045888 0.00610522 0.00194673 -0.00331666 -0.00347502 0.00319635 -0.00348714 -0.00536813 -0.00723346 -0.000850978 -0.00243459 0.00326642 -0.00313076 0.00662808 0.00224716 0.000373007 -0.0019974 0.00657183 