0.00164948 0.00134021 0.00298969 0.00628866 0.00360825 0.00298969 0.00103093 0.00865979 0.00402062 0.00752577 0.0071134 0.00628866 0.00309858 0.00784774 0.00309278 0.00350515 0.0071134 0.00969072 0.00247423 0.0057732 0.00154639 0.0056701 0.00103093 0.00226804 0.00762887 0.00783505 0.0028866 0.00123711 0.00608247 0.00278351 0.00515464 0.00412371 0.00371134 0.0057732 0.00969407 0.00134499 0.00424246 0.00672389 0.00766261 0.00613537 0.00786077 0.00101005 0.00827226 0.00721736 0.00158983 0.00218078 0.00323113 0.00195709 0.00236748 0.00868809 0.00817644 0.000106154 0.00680412 0.00164948 0.00907216 0.00206186 0.00804124 0.000824742 0.00298969 0.00895692 0.00917116 0.00366849 0.00928086 0.00670276 0.0102393 0.00340004 0.00756557 0.00836199 0.00438057 0.00358848 0.00113301 0.0043419 0.00854297 0.0052072 3.08624e-05 0.00670543 0.0014911 0.00786238 0.0095122 0.00267318 0.00285094 0.0048323 0.0043299 0.00793814 0.00793814 0.000927835 0.00360438 0.00563345 0.00108187 0.00759889 0.0046455 0.00933045 0.00740531 0.00930972 0.00651977 0.00819144 0.00251258 0.00551707 0.00736018 0.00129124 0.00423935 -0.00297029 0.00713019 0.00212715 0.0038118 0.008788 0.00251938 0.00713468 0.000772656 0.00972368 0.00526561 0.00865979 0.00886598 0.00639175 0.00462593 0.00577531 0.00583459 0.00941793 0.00596985 0.00349996 0.00611825 0.00439113 0.00359562 -0.0039467 0.00233277 -0.00204035 -0.00238095 0.00180746 -0.000789805 -0.00107674 0.00480862 0.00821139 0.00996581 0.00467189 0.00253653 0.000923696 0.00398799 0.00516562 0.00441029 0.000628498 0.000824742 0.00123711 0.00515437 0.00738309 0.00143106 0.00721141 0.0049934 -0.000693695 0.00331389 0.00531321 -0.00231981 -0.00196244 -0.00313729 -0.00332428 -0.0127078 -0.0121478 -0.0160235 -0.00715545 -0.00848152 -0.00748999 -0.00916621 -0.00642237 -0.0055596 0.00160484 0.00764736 0.00349583 0.0100361 0.00168251 0.00979381 0.002371 0.000372551 0.0103416 0.00588887 0.00397085 -0.00113042 0.00415102 -0.00335785 -0.00398005 -0.00682585 -0.00862206 0.000354256 0.000466926 -0.00765028 -0.00537801 0.00439712 0.000264071 -0.00687585 -0.000361798 0.000476824 -0.0032271 -0.00203918 0.00266471 0.00947624 0.00371788 0.000759075 0.0026817 0.0071134 0.00311197 0.00500318 0.00488112 0.00227124 0.00361563 0.00615372 -0.0023429 0.000476169 0.000704337 0.000958779 -0.00245606 0.00644944 0.00377831 0.00713916 0.00986747 0.0151008 0.0069859 0.00750832 0.00121501 -0.00145775 0.00276351 0.00386057 0.00717601 0.00542913 9.25752e-05 0.006381 0.00199329 0.00875604 0.00289514 0.00667821 0.00252843 0.00131911 -0.00148057 0.00523399 -0.00326757 0.00253254 0.00530582 -0.00232184 0.00785298 0.00565134 0.00549979 0.00957961 0.0148859 0.0103047 0.0134506 0.0106336 0.00209108 0.00707444 0.00198507 0.00360802 0.00540104 0.00619909 0.00439819 0.00206536 0.00608226 0.00701031 0.0100101 0.00963541 0.00939246 0.00810022 0.00373904 0.00512869 0.011122 0.00547777 0.000501863 0.00333114 0.00686813 0.00365363 0.00125516 0.00349136 0.000438616 -0.00301772 0.00191068 0.00333065 0.00125246 0.000152745 0.00331615 0.00866038 0.00342983 0.00300365 0.00388137 0.00440896 0.0085328 0.000515464 0.00711044 0.00159017 0.00233863 0.00381555 0.00492555 0.000344872 0.00580909 -0.00364134 0.00729705 0.000283574 0.00813415 -0.00210249 0.000172617 -0.0021841 -0.00734599 -0.00433999 -0.00357829 -0.00204934 0.00203045 0.0043146 0.00190903 0.00194187 0.00990981 0.00455868 0.000113162 0.0046825 0.0102244 0.00298969 0.00741895 0.00107238 0.000572301 -0.000840665 0.00431254 0.0123667 0.00758251 0.00505709 0.0121432 0.0159003 0.00759981 0.00337741 -0.00382258 -0.0104745 -0.0066368 -0.00598527 -0.0134443 -0.00722183 0.000673043 0.00220784 0.00876692 0.00435223 0.00811063 0.00424046 0.00900255 0.00983756 0.00246417 0.00484536 0.0102625 0.0100022 0.0026899 -0.000726877 0.0116134 0.0028058 0.0030485 0.0130519 0.00882032 0.0115298 -0.000215036 -0.00664894 -0.00616798 -0.00563372 -0.012018 -0.00674562 -0.00454409 0.00134283 -0.00200695 0.00529287 -0.00174958 0.013301 0.00974339 0.00978466 0.00421191 0.00430664 0.00826808 0.000309278 0.00561783 0.00588462 0.00334761 0.00523078 0.00968841 0.00386225 0.0115751 0.00631729 0.011317 0.0147378 0.0013972 -0.000422045 -0.00615784 -0.00548791 -0.00463437 -0.00583601 -0.00414591 -0.00402656 -0.000701931 0.00543655 0.00165445 0.000279301 0.0103974 0.00967325 -0.000906434 0.00669978 0.000171279 0.00546392 0.00179965 0.00940384 0.0022671 0.00382349 0.00697391 0.00255721 0.0140117 0.0122642 0.0149136 0.0107016 -0.00186971 0.00590777 -0.00251478 -0.00701455 -0.000499803 -0.00530513 -0.00121271 0.00181113 0.000573558 -0.002649 -0.00652161 -0.00552247 0.0119687 0.00580062 0.00632659 0.000503808 0.00958466 0.00154639 0.00901566 0.00554743 0.00444324 0.00815282 0.0101223 0.00621228 0.0103122 0.0161704 0.0164852 0.00293351 -0.00271 0.000230393 -0.00843662 -0.0119253 -0.00772067 -0.00727894 0.00151034 -0.000354758 0.00460983 -0.00127245 -0.00509791 -0.0060735 0.00727114 0.00373793 0.0006492 0.0088543 0.00766008 0.00494845 0.00425184 0.00785869 0.00492417 0.00243644 0.0105476 0.0106973 0.0121657 0.0170642 0.0076866 0.00424252 -0.00101792 0.00107447 -0.0059352 -0.0112567 -0.0145318 -0.012662 -0.00274676 -0.00346856 -0.00133381 -0.000675459 -0.00358043 -0.00187786 -0.00224801 0.00069573 0.00265727 -0.000384526 0.00422414 0.00701031 0.00743032 0.0089801 0.00511289 0.00462608 0.00815308 0.00698447 0.00971738 0.0144598 0.00118964 -0.00872546 -0.00141215 -0.0152996 -0.0084451 -0.00727613 -0.00885323 -0.00413903 0.00315357 0.00673591 0.00104002 -0.00115928 -0.00506225 0.000776603 -0.00345529 0.0088214 0.00680961 0.00573362 0.000898792 0.000412539 0.00474227 0.000184215 0.00623725 -0.00278902 0.000301524 0.00552729 0.00799215 0.0117503 0.00464139 -0.0106491 -0.00444976 -0.00757951 -0.01014 -0.00692891 -0.00139913 -0.00306131 0.0113076 0.00224794 6.78114e-05 -0.00272645 0.00256451 -0.000332955 -0.00739272 0.00428237 0.00735536 0.0100516 0.00843584 0.00154639 0.00351095 0.00294479 0.000522235 -0.00285626 -0.000436113 0.00298604 0.0010298 -0.00325217 -0.00705845 -0.0138318 -0.0130304 -0.00606142 -0.0128586 -0.0128641 -0.00547431 0.00150213 0.00437864 0.00197613 -0.00487212 -0.00734029 0.000888923 -0.00541345 0.000696363 0.00133916 0.00913544 0.00494484 0.00337324 0.00618557 0.00588688 0.000488213 0.00569603 -0.00401691 -0.00726492 -0.00830083 -0.00268091 -0.00526859 -0.0143746 -0.0181407 -0.0138928 -0.0162416 -0.00974076 -0.00527943 -0.00745649 0.0079209 -0.00376494 -0.00470076 0.00039752 -0.0106704 -0.00181684 -0.003887 0.00441826 -2.60964e-05 0.000196794 0.00447555 0.00103093 0.00185567 0.00484602 0.00593578 0.00298392 -0.00180158 -0.00016983 -0.00338167 -0.0119322 -0.0102062 -0.0137332 -0.00775961 -0.00958887 -0.00862224 -0.00481152 -0.00449656 0.00101946 0.00607387 -0.00605574 -0.00589978 0.000532738 -0.00587644 -0.00659043 -0.00424064 -0.00191654 0.00152782 0.00392915 0.00933493 0.00391753 0.00505155 0.00608247 0.000602365 0.00153373 0.00532186 0.0025317 -0.000846969 -0.00379185 -0.0042522 -0.00779256 -0.00970289 -0.0126935 -0.00051361 0.00265676 0.00521763 0.00142508 0.00325405 -0.00420279 0.0018337 0.00101594 0.00678718 -0.00131504 0.00126624 0.00175126 0.00561699 0.00386147 0.00486783 0.00113402 0.00525773 0.00402062 0.000807919 0.00915405 0.00440437 -0.00227143 0.000338097 -0.00442489 -0.00543098 -0.0009446 0.000893545 -0.00316767 0.00171505 0.0116491 0.00466378 0.00669989 0.00706945 0.0027828 0.00242468 0.00298677 0.0014222 0.00726868 0.00471793 0.00942048 0.00481187 0.00292638 0.000610179 0.00484536 0.00113402 0.00360825 0.00571724 0.0054257 0.00205208 0.00199224 -0.00111463 0.00538599 -0.000577325 0.00605249 0.00902525 0.00192207 0.00684466 0.0112797 0.00819617 0.00318182 0.00613452 0.0136002 0.00755271 0.00665168 0.00308018 0.00149786 0.000713172 0.0056703 0.00879779 0.00466608 0.0012138 0.00917526 0.00123711 0.00360825 0.0028866 0.00641452 0.00793501 0.00480231 0.00166953 0.00422087 0.00586366 0.0103779 0.00274418 0.0097451 0.0121762 0.0110451 0.0128273 0.00739754 0.00558751 0.0120524 0.0108509 0.00583861 0.00265519 0.00226509 0.00951679 0.0098086 0.0101848 0.00184294 0.0032742 0.00494845 0.0042268 0.00443299 0.0014433 0.00608321 0.000777228 0.00442727 0.00129737 0.00427467 0.00718056 0.00142271 -0.000235946 0.00140905 0.00432212 0.0027587 0.00465174 0.00619689 0.0035049 0.00941274 0.00868435 0.00380728 0.00837 0.00301043 0.00725728 0.00613 0.0085714 0.000103093 0.00309278 0.00742268 0.00525773 0.00515464 0.000309278 0.00896907 0.00340206 0.00853923 0.00193097 0.00201747 0.00857743 0.00584866 0.0064756 0.000450247 0.00644551 0.00422479 0.00131048 0.00528777 0.00695308 0.00730126 0.00238474 0.0081458 0.00685147 0.00756797 0.00888534 0.00518005 0.00278351 0.000618557 0.00886598 0.00618557 0.00979381 0.0042268 0.00360825 0.00164948 0.00195876 0.00628866 0.00195876 0.00525773 0.00371134 0.00536082 0.00969072 0.00989691 0.00197195 0.00549278 0.00505155 0.00845361 0.00701031 0.00226804 0.00463918 0.00556701 0.00278351 0.00515464 0.0085567 0.00835052 0.00247423 0.0071134 0.00402062 0.0057732 0.00793814 0.00721649 0.00762887 0.00690722 0.00134021 0.00948454 0.00504878 0.00353193 0.00251163 0.00424674 0.0051927 0.00778768 0.00262634 0.00143288 0.00218741 0.00361421 0.00341412 0.0073656 0.0025931 0.00876161 0.00598069 0.00672497 0.00848559 0.00814739 0.00938144 0.00206186 0.00907216 0.00793814 0.01 0.0057732 0.01 0.00123745 0.00412388 0.00116039 0.00242327 0.0078385 0.0101773 0.0067408 0.00617669 0.0015752 0.0103393 0.00641501 0.000969213 0.00617909 -0.000158713 0.00547527 0.00123837 0.00610321 0.000761214 0.00372366 0.00121406 0.00808907 0.0075126 0.00524726 0.000309278 0.00402062 0.00835052 0.00917526 0.00401708 0.000618897 0.00631588 0.00898539 0.0021085 0.00568207 0.0006446 0.00946843 0.00681142 0.00621065 0.00147047 4.08228e-05 0.00298204 0.00810663 -0.0012303 -0.000893721 0.00639642 0.00395423 0.00715194 0.00766217 0.0104311 0.00239219 0.00142191 0.00796449 0.0058735 0.00752577 0.00731959 0.00360825 0.00709885 0.00475908 0.00846393 0.00870999 0.000812493 0.00137514 0.00584949 0.00206149 0.00463222 -0.00118704 0.00304696 0.00440016 0.000518846 -0.00101004 0.00256964 0.000462791 0.00146132 0.00655433 0.0016095 0.00230924 0.00163498 0.00112572 0.00193754 0.00579571 0.00348827 0.00990137 0.0057732 0.00237113 0.00762637 0.00299415 0.0024669 0.000977573 0.00555755 0.000841216 0.00320257 0.00734995 0.00398199 0.00700479 0.00129205 -0.00300633 -0.00136303 0.00014846 -0.00441028 0.00589649 0.00577621 0.00184368 0.00589283 0.00614455 0.000347375 0.00434527 0.00833845 0.00692215 0.00952834 0.00310484 0.000412371 0.00762823 0.00211789 0.000102622 0.00207396 0.00746272 0.0122335 0.00681302 0.00821802 0.000947803 0.00706175 0.00400587 0.00749949 0.00128959 -0.00361197 -0.0022587 0.00325151 -0.000683432 -0.0031663 0.00299407 0.00279943 -0.00241833 -0.000819054 0.00565063 0.00990162 0.00285548 0.00538392 0.000829625 0.00907216 0.000389006 0.0090246 0.00282338 0.000610049 0.0117475 0.0103133 0.0127889 0.00946367 0.00299766 -0.00412885 -0.00181341 -0.00027241 -0.00331429 -0.0043728 0.00235027 -0.00187051 0.000950647 -0.0056807 -0.00489888 0.00257875 0.000205681 0.00145941 0.00431169 0.00689301 0.00269228 0.00285301 0.00319526 0.000647258 0.00640904 0.00281038 0.00481378 0.00132358 0.00711036 0.00597145 0.000804621 0.00576273 -0.0021165 -0.00914324 -0.00127982 -0.00721638 -0.00196842 -0.006906 -0.00617381 -0.00285368 -0.00269544 -0.00329855 -0.00731239 -0.00226226 0.00345898 -0.00110436 0.00431989 0.0022169 0.00150072 0.00473578 0.00802643 0.000412371 0.00205832 0.00352505 0.00176027 -0.000481493 0.000884738 0.00229545 0.0078616 0.00684224 -0.00199687 7.89526e-05 0.00546969 0.00143637 -0.00396238 -0.000889726 0.00207418 0.000677639 -0.00287172 -0.00391558 0.000488045 -0.00226825 -0.00538032 -0.00343539 0.00572832 0.00516409 0.0099086 0.00730008 0.00619083 0.00608247 0.00948614 0.00826653 0.000586937 0.00710639 0.00209836 0.0112747 0.00128079 0.00936875 0.00496234 0.00311814 -0.000176406 -0.000442985 -0.00157862 0.000509181 0.00351663 0.00409552 0.00141475 -0.00362296 0.00292787 -0.00116823 -0.00759985 -0.00513872 0.00210335 0.00905598 0.00846247 0.00250163 0.00671311 0.00412371 0.00994832 0.00386687 0.00587285 0.00461092 0.00872013 0.0107841 0.00599156 0.00828833 0.00725621 0.0063482 -0.00681818 -0.00481738 0.00174598 0.00791571 0.00877251 0.00927807 0.00426943 0.00353268 0.00309847 -0.000280544 0.0038466 0.00226564 0.000121531 0.00431462 0.00821594 0.00550816 0.00413132 0.000721649 0.00736453 0.00317463 0.00399384 0.0113859 0.00951634 0.00942152 0.0119207 0.00384385 0.00024524 0.00270453 -0.00422851 -0.00157734 0.00135567 0.00307072 0.000461418 -0.000544901 -0.00102827 -0.00107407 0.00410214 -0.00041181 0.00651459 -0.00186983 -0.000780073 -0.000153852 0.00113032 0.00456452 0.00246223 0.0028866 0.0101179 0.00106436 0.00804975 0.00626576 0.00915317 0.0076077 0.00579427 0.00258599 0.00229601 -0.00130066 -0.00682943 0.000669089 -0.0023598 -0.0028877 -0.00742884 -0.0026336 -0.00392913 -0.00630536 0.00364225 0.00286143 0.00180727 0.00592518 -0.00144596 0.00418851 0.00586413 0.00103086 0.00300181 0.00690722 0.0063059 0.00600567 0.00524459 0.00556918 0.00396356 0.00484006 0.00308547 0.00483473 0.00313285 0.00217159 -0.00419181 -0.00168449 -0.00556793 -0.00929135 -0.0076898 -0.00757348 -0.00228243 -0.000201364 0.000759501 -0.000884912 0.00396186 0.00311578 0.00695988 0.00692165 0.00251096 0.00862201 0.00638138 0.00206186 0.00390949 0.00765804 0.00234154 0.00794268 0.0060513 0.00845983 0.0118994 0.00353829 0.00587861 -0.000273022 0.00405671 -0.00238955 0.000925311 -0.00718058 -0.00640681 -0.00541411 0.00202579 -0.00236786 -0.00123834 -0.00449582 0.00106445 0.00352314 0.00672236 0.00728853 0.00122267 0.00589723 0.00603958 0.00680412 0.000610908 0.00332736 0.00159024 0.00357998 0.00306672 -0.00215806 -0.0025663 0.00751208 0.0094825 0.0033461 0.00432181 0.00285193 -0.00326854 0.0025424 0.00347568 0.00197938 -0.00418095 -0.00428584 0.00361061 -0.00409857 -0.00488068 0.00310931 0.0103875 0.00936731 0.000292298 0.00718439 0.00729464 0.00608247 0.00247267 0.00885851 0.00550777 0.00601795 0.00535986 0.00174285 0.0042704 0.00585076 0.00890234 0.00387965 0.00673019 0.00120618 0.00939867 -0.000649193 -1.95818e-05 -0.000169171 0.00140208 -0.00170351 -0.00717191 -0.00425888 0.00290451 0.00554985 0.0042732 0.00225806 0.00512741 0.0080217 0.00711025 0.00535941 0.00958763 0.00701679 0.00405681 0.00168294 -0.0028095 0.000714023 -0.00417656 0.00492859 0.00478217 0.00320715 0.00675015 0.00604421 0.00724908 -0.00346978 7.48929e-05 0.00204041 -0.00331056 -0.00669704 -0.00541811 0.000264026 0.00350319 -0.000885871 0.0134726 0.0112869 0.00578979 0.00325812 0.00128686 0.00391753 0.00185108 0.00336866 0.00756873 -0.00169724 -0.00279987 -0.000794034 -0.00531688 -0.00379261 -0.00193485 -0.000457385 -0.00174818 0.00208026 0.000129476 -0.00381825 -0.00558442 -0.00757226 -0.00927636 -0.0077482 -0.0115679 0.00334876 0.00283348 0.00368969 0.0135831 0.0105184 0.00767594 0.00540117 0.00865481 0.00917526 0.00526654 0.00715227 0.00495582 0.000454807 0.0037458 0.00163282 -0.00401145 -0.000293217 0.00621035 -0.00488544 -0.00676893 -0.00114926 -0.00881795 -0.000597832 -0.00557097 -0.0024576 -0.00671339 -0.0102837 -0.00888245 -0.000766672 0.000248457 0.00499626 0.00843094 0.0075668 0.0104278 0.00402383 0.00319588 0.00567055 0.00865606 0.00255542 0.00874925 0.00702626 0.00312442 0.00563782 0.00180734 -0.00506103 -0.00280575 -0.00321733 -0.0029116 -0.0101889 -0.012817 -0.0102304 -0.00682478 -0.0103094 -0.00168044 -0.00273832 -0.00260577 0.00095242 0.00480697 0.00456856 0.0123093 0.00636683 0.00768397 0.00697146 0.00474227 0.00587672 0.0034022 0.00722125 -0.00036418 -0.0012229 0.00111004 -0.00229879 -0.00516988 -0.00245594 0.00092866 -0.00591781 -0.00120703 -0.00720739 -0.00166188 0.00553256 -0.00393863 0.00455485 -0.00386121 0.00504723 0.00354286 -0.00150626 0.00913806 0.0110376 0.007578 0.0126152 0.0101448 0.00848086 0.000721649 0.0071134 0.00793814 0.00913432 0.00986718 0.00581708 0.00528956 0.00363634 0.0004047 0.000398999 -0.00202312 -0.000707566 -0.00817018 -0.00453242 0.00342722 0.00547356 0.00557411 0.00498922 0.00681892 -0.000699714 0.00632282 0.0080174 0.00606384 0.00602585 0.0119458 0.00466136 0.00707366 0.00468378 0.00381443 0.00731959 0.00319588 0.00937231 0.00121044 0.000565707 0.0057246 0.00347737 0.00141751 -0.00241111 0.00357826 -0.000542464 7.88147e-05 0.00107364 0.0102776 0.00471859 0.0110673 0.00434312 0.00370973 -0.00019149 0.00458516 0.00721004 0.00648542 0.00160291 0.00240766 0.0108822 0.00343629 0.000397421 0.00319588 0.0042268 0.00659794 0.00567034 0.00112335 0.00151885 0.00613441 0.00330552 0.0079837 0.00811076 0.0043465 0.00480422 0.00251732 0.00157511 0.00544062 0.0117648 0.0113501 0.000384826 0.00270252 0.00354724 0.0092472 0.00433746 0.00232212 0.0042923 0.00287028 0.00113841 0.00318393 0.00513876 0.00762887 0.00824742 0.00587629 0.000618557 0.000103058 0.00762618 0.00440773 0.00172156 0.00809371 0.000531815 0.00221464 0.0107779 0.0100439 0.00336252 0.00434319 0.0029787 0.00611929 0.00630546 0.00635429 0.00875682 0.00709826 0.0063486 0.00606876 0.000559706 0.00273304 0.00661222 0.00639175 0.00113402 0.000309278 0.00876289 0.0057732 0.0042268 0.00783505 0.00948454 0.00371013 0.00525725 0.00380619 0.00728481 0.0105755 0.00262415 0.00701364 0.00644464 0.00285722 0.00675572 0.00100791 0.00370468 0.000872732 0.00140997 0.00838779 0.00849956 0.00278875 0.00355841 0.00676042 0.00762887 0.00402062 0.00329897 0.00917526 0.00360825 0.00206186 0.00979381 0.00762887 0.00381443 0.00731959 0.00123711 0.00886598 0.00824742 0.00536082 0.00587629 0.00381443 0.000571008 0.00257633 0.00546392 0.00515464 0.00597938 0.00463918 0.00195876 0.00494845 0.00969072 0 0.000103093 0 0.0014433 0.000412371 0.00969072 0.00103093 0.000721649 0.00546392 0.0102062 0.00309278 0.000927835 0.00329897 0.00371911 0.00423296 0.0011784 0.00728653 0.00210086 -0.000124138 0.00810797 0.00884865 0.003993 0.00437912 0.00291442 3.1543e-05 0.00733036 0.000449122 0.004108 0.00685227 4.18072e-05 0.00113055 0.00536082 0.00412371 0.00536082 0.00886598 0.00876289 0.0057732 0.00793814 0.00587921 9.53334e-07 0.00901095 0.000315175 0.00100452 0.00930487 0.00957728 0.00620562 0.0111202 0.00583831 0.00582739 -0.000901059 -0.000357106 -0.00408142 -0.00518296 0.0009058 -0.00207279 0.0093716 0.00342417 0.00694152 0.00369696 0.0101408 0.00549515 0.0056701 0.00134021 0.00329897 0.00123711 0.0036342 0.00774796 0.00644191 -0.000308078 4.67393e-06 -0.000256205 0.000489313 0.0110421 0.00837529 0.0122245 0.0163755 0.013087 0.00863372 -0.0010642 0.00980828 0.00311593 0.00088368 0.00331467 -0.00225556 0.00271827 0.0093699 -0.000388633 0.00244763 0.00485926 0.00749071 0.00783505 0.0071134 0.00381443 0.00735565 0.00767626 0.00325968 0.00951692 0.00612433 -0.0037292 -0.00676656 0.00063849 0.00785271 0.0184588 0.012068 0.00765433 -0.00035709 -0.0109922 -0.00591346 0.0119453 0.016162 0.00769212 0.00156472 -0.00805601 0.00360552 -0.0105314 0.00209823 0.00196492 0.00985475 0.00737638 0.00525773 0.00463918 0.00272322 0.00987195 0.00120484 -0.000546618 0.00372742 0.00829226 0.0109688 0.0142163 0.0233112 0.021307 0.00358877 0.00190108 -0.0187642 -0.0221885 0.0108615 -0.00798104 0.00710745 0.0225789 0.0142898 0.0120347 0.0250537 -0.00512663 -0.00180871 0.00520646 -0.000483419 0.0017585 0.0102062 0.00577729 0.00770486 0.00320187 -0.00223544 0.00381404 0.00189395 0.00152941 0.0126989 0.0204739 0.0170745 -0.00226025 -0.0153445 -0.0214701 -0.00826802 -0.00795452 -0.00266113 -0.0198116 -0.00194989 0.00724361 0.0125956 0.00290358 0.0103984 -0.00793117 0.00106906 0.00346866 0.00377339 0.00233931 0.00309278 0.00463704 0.0021998 0.0018115 0.00365129 0.000184785 0.00225243 0.00108666 0.0019028 -0.00167364 -0.0013892 0.00446151 -0.00908314 0.00358687 0.0126436 0.0113259 0.0103023 -0.0129114 -0.0153879 0.00972052 0.02357 0.0206965 0.014848 -0.00150179 -0.00129994 -0.00683018 0.0063316 0.00562812 0.00220059 0.00316092 0.000710775 0.00433941 0.00208858 -0.00227484 0.00130302 -0.0110309 -0.0240546 -0.0318017 -0.0121513 -0.00720471 -0.00668905 -0.00413007 0.0225627 0.00762064 0.00951467 -0.00165396 0.00776675 0.0281421 0.0247371 0.0207351 0.025356 -0.00515653 -0.0145979 -0.00137357 0.00116256 0.00886032 0.00845361 0.00778581 0.00679606 0.00506085 0.00297605 0.0031987 -0.0069648 -0.0109243 -0.0236017 -0.0339587 -0.00669713 -0.0031862 0.0108499 -7.37612e-05 -0.00403528 0.01395 0.0282764 0.00408046 0.0118053 0.0224999 0.0319214 0.0217115 0.0148774 -0.0122681 -0.010242 0.00584411 0.00949448 0.00419687 0.00206186 0.00769558 0.00979694 0.00993626 -0.000506396 0.00041409 -0.0050912 -0.00348706 -0.00908345 -0.014947 -0.00879908 0.00365684 -0.00578161 0.00527645 -0.00600602 0.0021724 0.0286921 0.0162664 0.0165564 0.0294884 0.0148284 0.0181129 0.000120447 -0.0234313 -0.00306042 0.000267955 0.00870957 0.00504098 0.00793814 0.008685 0.00893847 0.00728575 0.00138397 -0.0126123 -0.00896942 -0.0126752 -0.0107534 -0.012541 -0.0133125 -0.0171543 -0.0364518 -0.0252006 -0.000998124 0.0116041 0.0100909 0.0184608 0.00678141 0.0171569 0.0120761 -0.000828082 -0.0101691 -0.0212919 -0.000689829 0.000309698 0.0027624 0.00320902 0.00237113 0.0100156 0.00590049 0.00378182 -0.00554968 -0.0204 -0.013732 -0.0242514 -0.0293614 -0.0260157 -0.0320704 -0.0532587 -0.0518604 -0.0358847 0.00253687 0.00569828 0.0181711 0.00157637 -0.00240748 -0.00319591 0.000306114 -0.00632639 -0.00897757 -0.0114381 0.00419403 0.00194881 0.00343242 0.00709913 0.00257732 0.00304739 0.00585986 0.00818374 -0.00744411 -0.0127235 -0.0277238 -0.0292526 -0.0373259 -0.0373423 -0.0483845 -0.0390336 -0.0360773 -0.00992703 0.00550469 0.000462998 -0.00554504 -0.0191237 -0.0119302 0.00470853 0.00934687 -0.0137196 -0.0125953 -0.0126627 0.0033862 0.001966 0.00664671 0.00253728 0.00536082 0.00047452 0.00261408 0.00812591 -0.00743838 -0.0251219 -0.021281 -0.0146571 -0.0322956 -0.0293154 -0.0235895 -0.0187015 0.00351511 0.00624746 -0.0123339 -0.0131046 -0.0229898 -0.0142898 0.00349236 0.00238456 -0.00556975 -0.0124897 -0.00214387 -0.00654145 -0.000402655 0.00146281 0.006132 0.00258676 0.00917526 0.00814029 0.00462635 0.0104722 0.00529635 0.00339264 -6.2464e-05 -0.0194015 -0.0189883 -0.0160133 -0.0052466 -0.0106711 -0.00158306 0.000302083 -0.0165257 -0.0209848 -0.0237715 -0.0186505 -0.0176664 -0.00724221 -0.014551 -0.0241579 -0.00973301 -0.00552409 0.0114017 0.0063055 0.008907 0.0070842 0.0043299 0.00441163 0.00274751 0.0159579 0.00477057 0.00517997 0.00424808 0.00408184 0.00798337 0.00596012 0.0127758 0.011707 0.00924924 -0.000807533 -0.0179865 -0.0116309 -0.0164923 -0.00869462 -0.0156186 -0.0115664 -0.0241752 -0.0235879 -0.00755042 -0.000649522 0.00999578 0.0118644 0.0100175 0.00169161 0.00917526 0.00439646 0.00982517 0.0232617 0.016953 0.0141931 -0.00240463 0.00239383 0.00208383 0.000640342 0.0064767 0.0217112 0.0330817 0.0128551 -0.00224972 -0.00658039 -0.0193093 -0.0229665 -0.0351904 -0.0161948 -0.0244627 -0.025095 -0.0177461 -0.00659009 -0.00179116 0.00786094 0.00276871 0.00514311 0.00474298 0.00371134 0.003447 0.0261468 0.0371517 0.037034 0.0203316 0.000807087 -0.0124301 -0.00669657 -0.0032884 0.00696339 0.0199387 0.0241621 -0.00223891 -0.0136443 -0.0106777 -0.0261596 -0.0251404 -0.00779709 -0.0241353 -0.0121802 -0.0136851 -0.00397574 -0.00220618 0.00778748 0.000914162 0.00208057 0.00371134 0.00327918 0.00769521 0.0281223 0.0600301 0.049956 0.0278248 0.0147457 0.0209242 0.0177591 0.0204058 0.037308 0.0232925 0.0212934 -3.04751e-05 -0.0149348 -0.0291422 -0.0291143 -0.0283681 -0.0126675 -0.0308948 -0.0234563 -0.0199846 -0.0104078 0.00151272 0.00763078 0.00203432 0.00127087 0.00608247 0.00587694 0.00845064 0.0318163 0.0486924 0.0519227 0.0212775 0.0230125 0.0166703 0.0130534 0.00438463 0.00409511 -0.00154568 0.00192548 -0.000329855 0.00608946 0.0139779 -0.00418788 -0.0136531 -0.0119597 -0.0108579 -0.016997 -0.017649 0.00489949 0.0110307 0.00951 0.00193216 0.00969072 0.00731953 0.00412369 0.0121827 0.0183354 0.0223695 0.00885983 0.00207057 0.014163 0.00289568 -0.00235594 -0.00813008 -0.0259386 -0.0186763 -0.00624499 0.0192623 0.025869 0.0421825 0.0477225 0.0493594 0.0374204 -0.00571521 0.00609038 0.00711487 0.0150006 0.0118455 0.0106579 0.00120619 0.00515464 -5.4328e-08 0.00185565 0.0105611 0.00612548 -0.0058154 -0.00851043 -0.0184741 -0.0243503 -0.016782 -0.0220902 -0.0284523 -0.0289835 -0.0133922 0.00438793 0.0273964 0.0340459 0.0432018 0.0515844 0.0546151 0.0445731 0.0225955 0.0197652 0.00354486 0.00986336 0.00917007 0.00297233 0.00826274 0.00969072 0.00835052 0.00628866 0.00831549 0.000786501 -0.0166568 -0.0116479 -0.0145994 -0.0141479 -0.0189893 -0.0151333 -0.00932307 -0.0122894 -0.0140963 -0.0103619 0.00243121 0.0173828 0.0223 0.0234486 0.0392673 0.0268859 0.0301839 0.023037 0.0226734 0.0195064 0.00547486 0.00318542 7.65547e-05 0.00896907 0.00773196 0.00237113 0.00771938 0.00143978 3.38921e-05 -0.000919663 -0.00796444 -0.0122707 -0.0228699 -0.0169715 -0.018635 -0.0100838 -0.00497876 0.000189606 0.013128 0.00979653 -0.00338657 0.00997891 0.0146536 0.0150281 0.0182803 0.0207319 0.0135899 0.0049956 0.00926983 0.00280127 0.0022943 0.00505155 0.00701031 0.00381443 0.0083552 0.00801367 0.00548091 0.00348431 0.00152967 0.00834813 0.00275063 0.00547502 0.00338364 -0.00594079 -0.00420896 -0.00636816 0.00769453 -0.00320218 -0.00151153 0.00395594 0.0054704 0.000517963 0.0101012 0.00879351 0.00889285 0.00482227 0.00715624 0.00899239 0.00518254 0.000515464 0.000309278 0.00340206 0.00175258 0.0014433 0.000733879 0.00255374 1.36871e-05 0.00648542 0.00102372 0.00212636 0.00676375 0.00716388 0.00582806 0.0073287 0.00649555 0.00327059 0.0024514 0.00143939 0.00509909 0.0095046 0.0103034 0.00926423 0.00586889 0.00785611 0.00433885 0.00865979 0.00628866 0.00237113 0.00865979 0.0014433 0.000103093 0.00618557 0.00587629 0.00546383 0.00360681 0.00421627 0.00512456 -0.000886296 -0.000956436 0.00373247 0.00370328 0.00286211 0.00093139 0.00540799 0.00292559 0.00342799 0.00198535 0.00496039 0.00326449 0.00970474 0.00242005 0.00229238 0.00948454 0.00649485 0.0057732 0.000618557 0.00814433 0.00793814 0.00103093 0.00463918 0.00154639 0.00453608 0.00804124 0.00515464 0.00824742 0.00639175 0.000824742 0.00824742 0.00922117 0.00770988 0.000206186 0.000206186 0.00402062 0.00783505 0.00639175 0.00402062 0.00597938 0.00587629 0.00381443 0.0056701 0.0028866 0.00463918 0.00536082 0.000927835 0.00340206 0.00515464 0.00773196 0.00762887 0.00185567 0.00226804 0.00439068 0.00754047 0.00313796 -0.00165525 0.00264323 -0.00602902 0.000552176 0.00513503 -0.00162362 0.00191878 0.00350733 0.00495184 0.00671298 0.00750686 0.00674455 0.000752774 0.00301475 0.00308928 0.00948454 0.00793814 0.00484536 0.00350515 0.00989691 0.0028866 0.00731959 0.0067051 0.00608387 0.00221255 0.000837122 -0.0125734 -0.0046831 0.00685097 0.000105236 -0.00202741 -0.00626729 -0.00476473 -0.00437229 -0.0103035 -0.004171 -0.00780908 -0.00961428 -0.00215313 -0.00147092 0.00162055 0.0012095 0.0032878 0.00359251 4.01956e-05 0.00195876 0.00494845 0 0.00752577 0.00683486 0.00558485 -0.00203147 0.000422053 -0.00831094 0.00310602 -0.0015813 0.0112108 0.0343022 0.0500574 0.037276 -0.00779507 -0.0275318 -0.0546449 -0.0190311 -0.0157523 -0.0309627 -0.0093132 -0.0111643 -0.00382062 -0.00389934 0.00366768 -0.000606101 0.00216983 0.00734088 0.00989691 0.00216495 0.00175258 0.00135672 0.00227999 0.00883097 0.00758708 0.0135371 0.0323408 0.0615025 0.0673696 0.0920353 0.0984599 0.0519459 0.0308346 -0.0115268 -0.0400146 -0.0540298 -0.03427 -0.0414631 -0.0421989 -0.0262159 -0.0231973 -0.00830362 -0.00551657 0.00320451 0.00108851 0.00191327 0.00829011 0.00309278 0.00989691 0.00620496 0.00100218 0.00652407 0.0089057 0.0303862 0.043105 0.0149353 0.0136039 0.0591638 0.0426564 0.0421245 0.0266287 0.0134347 0.00431129 -0.0214736 -0.0401025 -0.0351498 -0.0377129 -0.038004 -0.030965 -0.0122088 -0.0134491 -0.00441995 0.00736095 0.00879468 0.00101823 0.00185567 0.0101106 0.00702004 0.00334168 0.0164233 0.0132837 0.0119841 0.00902113 -0.00837669 0.0185679 0.0226088 0.0179334 0.0326674 0.0420248 0.0308928 0.00106126 0.000596721 -0.00383197 -0.0242451 -0.0276278 -0.0439982 -0.0304773 -0.0185439 -0.00494447 -0.000402794 0.00319474 -0.000272885 0.00597376 0.00278351 0.0082013 0.00100759 0.00718059 0.0181903 0.012015 0.00327999 0.00285727 0.00750434 0.00911476 -0.0258666 -0.0349771 -0.0271673 -0.00880998 0.0200086 0.0110787 0.0331635 0.0155281 -0.0129468 -0.0560121 -0.0569376 -0.0465636 -0.0288396 -0.00587337 0.00498729 0.00921083 0.0066926 0.00207115 0.00124215 0.00821478 0.00435333 0.0134308 0.0313724 0.0138575 -0.000883325 -0.00650292 -0.0261225 -0.0376007 -0.0402526 -0.0703536 -0.050318 -0.00232565 0.0497376 0.0416037 0.0405064 0.0326273 -0.00780252 -0.0427115 -0.049431 -0.036575 -0.0290238 -0.0136321 -0.00227529 -0.00107162 0.0040048 0.00691301 0.00938144 0.00299021 0.00404464 -0.00059184 0.0271869 0.0178099 -0.00852352 -0.0410923 -0.0638092 -0.0727304 -0.0611688 -0.0888193 -0.0541331 0.0160323 0.018578 0.0254761 0.0474132 0.0220813 -0.0217443 -0.0409007 -0.0350748 -0.0334292 -0.0241071 -0.0151353 -0.00602269 0.000367075 0.0074885 0.0059893 0.000618557 0.00684639 0.00322461 0.00823499 0.00695239 -0.0153108 -0.0263586 -0.0623868 -0.0905444 -0.0742181 -0.025316 -0.0272642 0.0109458 0.0371161 0.0149823 0.00469468 0.0167306 0.0125871 -0.0135729 -0.0296388 -0.0174699 -0.0124257 -0.0160059 -0.00448223 -0.00154512 -0.000976428 0.00252944 0.00704965 0.00371134 0.00396018 0.00602141 0.00686201 0.00065093 -0.030349 -0.0419863 -0.057706 -0.0488518 -0.0344908 0.0123679 0.0273502 0.0479883 0.0507459 0.0178728 -0.0172781 -0.0194812 0.00472583 0.00600028 0.00393883 -0.0129655 -0.0193961 -0.0180414 -0.00706088 0.000976274 0.00554533 0.0090715 0.00281923 0.00690722 0.00023162 0.00444476 0.00563892 -0.00557801 -0.0212371 -0.0360749 -0.0162112 0.00249398 0.0275271 0.0469333 0.0360347 0.010964 -0.0180463 -0.0109654 -0.0242958 -0.00549449 -0.00641594 0.0145869 0.0126529 -0.014057 -0.011929 -0.0149126 -0.00783232 -0.000856259 0.00456067 0.0078301 0.00621893 0.00958763 0.00138539 0.00593688 0.00522389 -0.00202872 -0.0126557 -0.00706969 0.00250518 0.0124662 0.0343809 0.0221235 0.0225579 -0.000712171 -0.0420252 -0.0211178 -0.0158666 0.00435619 0.00565355 0.00144937 0.00366215 -0.0130821 -0.0147388 -0.0178453 -0.00356425 0.00257903 0.00264766 0.00268365 0.00943262 0.0071134 0.00632172 0.000161991 0.00327512 0.00322397 -0.00894656 0.00512865 0.0149652 0.00495554 0.0125648 0.00935562 0.0028278 -0.0275558 -0.0382798 0.0107248 -0.00799265 0.00357873 -0.0229373 -0.0371735 0.000294307 -0.00346043 -0.00115079 -0.0160586 -0.00312563 0.00529563 0.0127111 0.00916485 0.00682981 0.00814433 0.00347469 0.0012358 0.00125829 -0.00022178 -0.00834176 0.00733111 0.00929146 -0.0234822 -0.00260871 -0.0210229 -0.0436377 -0.053427 -0.0216839 0.0297175 0.0226023 0.0196243 -0.0146598 -0.0439888 -0.0155339 0.0032006 0.00383813 -0.00697166 0.00943381 0.0199129 0.018751 0.0149248 0.00496957 0.00391753 0.000870351 0.00462929 0.00599233 -0.00305908 -0.0119019 -0.00591796 0.00145637 -0.0220809 -0.00242656 -0.018905 -0.0381198 -0.0459418 -0.0196093 0.00735289 -0.00517594 0.00562352 -0.0174535 -0.0127621 0.00371432 0.0048311 0.02363 0.00926498 0.0216081 0.0203533 0.0247206 0.0128244 0.00421099 0.00618557 0.00795081 0.0102975 0.00516864 -0.00681032 -0.024302 -0.0159579 -0.0107436 0.00481343 0.00514375 -0.0191966 -0.0461298 -0.0153268 -0.000652626 0.0134242 -0.014278 0.0100559 0.00951386 0.0119623 0.0134122 -0.00150264 0.0176234 0.0139222 0.00635489 0.000757661 0.0169156 0.00846508 0.00606205 0.00886598 0.0085567 0.000548766 0.00796744 0.00297379 -0.00762788 -0.00741074 0.000862605 0.00415069 0.0134808 -0.00509924 -0.0231975 -0.00901547 0.00120632 -0.0061552 0.00733999 0.0278497 -0.00170112 0.0150808 0.0129638 -0.00535891 0.0206183 -0.00135411 -0.019148 -0.00122 0.0129262 0.0090357 0.00912806 0.00556701 0.008388 0.00543699 0.0059939 0.00753091 -0.00480185 -0.0196869 -0.0135618 -0.0181587 -0.00644599 -0.00623127 -0.00731025 -0.0193355 0.00199634 0.00104209 -0.00363408 0.00695902 -0.0089579 0.0356043 0.0334927 0.0134039 0.000478172 0.000206881 -0.00794612 -0.0111091 0.00749388 0.00950573 0.00588664 0.00185567 0.00100725 0.00793402 0.0113999 0.000923817 -0.0147511 -0.017607 -0.00387505 -0.000933384 0.0180481 0.0149031 0.00689809 -0.012325 -0.00863424 0.000181842 -0.00672647 0.00288072 0.00547496 0.0270816 0.00903735 -0.0189476 -0.0146598 0.000906452 0.00429522 -0.00963868 0.00830206 0.0058483 0.00783505 0.00401809 0.0029889 0.0019639 0.00525189 0.0041507 -0.0171432 -0.00797091 -0.00809601 -0.00236494 0.00879244 0.00673057 -0.0201075 -0.0104907 -0.00211034 0.00300183 -0.0149521 0.00933831 0.000598395 -0.0145666 -0.00239614 -0.0201737 -0.0201871 0.0146164 0.00841099 0.00440541 0.00442023 0.00574947 0.00453608 0.00886351 0.00185488 0.00724202 0.0125075 0.0160023 0.00487704 0.00580242 -0.00575261 -0.00443452 0.00460172 0.0188944 -0.00108384 0.0192283 0.0306062 -0.00214653 0.00283418 -0.0363914 -0.036001 -0.0228895 0.0012742 0.00755166 -0.00489915 0.00900465 0.0128183 0.00825433 0.00660882 0.00668288 0.000103093 0.00876289 0.00443299 0.00901798 0.00934579 0.00546195 0.00527751 0.00558992 0.0149335 0.0159182 0.0214049 0.026395 0.0124617 -0.00186545 -0.00609235 0.0063922 0.00305199 -0.0371114 -0.0381593 -0.00894191 -0.00803731 0.00435034 -0.00537017 0.00447781 0.0159225 0.0126175 0.00707199 0.00795138 0.00391753 0.00206186 0 0.00546076 -0.000298571 0.000706207 0.00560361 -0.000212167 0.0117448 0.00487891 0.00638667 0.0028056 -0.00812394 -0.0130313 -0.00416762 0.01358 0.00880984 -0.0129746 -0.00712649 -0.0105045 -0.00558801 -0.0065836 0.0123117 0.00495136 0.00863808 0.00544116 0.00308197 0.00877784 0.00257732 0.00628866 0.000103093 0.00907535 0.007502 0.00464952 0.00164655 0.00331075 0.00625704 0.00413102 0.00171539 -0.00202414 -0.00344124 0.0104281 0.0120214 0.0244458 0.00697974 -0.0118639 -0.000927524 -0.00249809 -0.000582624 -0.00399856 0.00549946 -0.00117266 -0.000318101 0.000639576 0.00898235 0.000325168 0.00525773 0.00804124 0.00536082 0.00618557 0.000721461 0.004179 0.00118075 0.000513055 0.00717749 0.00321269 0.00355199 0.00323936 0.00392706 0.00158822 -0.00318616 -0.00788175 0.00360771 0.00770753 0.00389151 0.0045006 0.00607833 0.00491441 0.00294172 0.00279543 0.00107545 0.0072135 0.00278351 0.00824742 0.000309278 0.00886598 0.000515464 0.00845361 0.00701031 0.00340206 0.000309278 0.00597804 0.00808284 0.00562866 0.00874741 0.00723526 0.000671588 -0.000480104 0.00592063 0.00714341 0.00288881 0.00676122 0.00396632 0.00608577 0.00235394 0.000601862 0.00209503 0.00841465 0.00144558 0.00381443 0.0085567 0.00206186 0.000618557 0.000206186 0.0102062 0.00453608 0.0042268 0.00164948 0.00907216 0.00927835 0.00134021 0.00989691 0.00886598 0.00226804 0.00690722 0.00801223 0.00323548 0.00835052 0.00484536 0.00474227 0 0.000927835 0.00536082 0.0085567 0.00525773 0.00824742 0.00670103 0.00989691 0.0085567 0.00989691 0.00783505 0.00587629 0.00690722 0.00298969 0.00371134 0.00247423 0.00876289 0.00121536 0.00254371 0.0076365 0.00317254 0.00928057 0.00838393 0.00703089 0.00477837 0.00739161 0.00301081 0.00260159 0.00423109 0.00189793 0.00255221 0.0083249 0.00812635 0.000930214 0.00174553 0.00804124 0.01 0.00154639 0.00257732 0.00597938 0.00762887 0.00948454 0.00277645 0.00432749 0.00447098 0.00945294 -0.000435681 0.00087308 0.005907 0.00242531 0.00475373 -0.000767516 0.00378117 -0.00208523 -0.00423135 -0.0017005 0.00566714 -0.000261987 0.00293715 0.00856583 0.00916738 0.00172032 0.00562046 0.00697952 0.00526572 0.0056701 0.01 0.00670103 0.00649485 0.00403667 0.0042125 0.00696239 0.00621178 0.00350274 -8.07208e-05 1.7569e-05 -0.0056046 -0.000437274 -0.00431181 -0.0063204 -0.00879028 -0.0163067 -0.010771 -0.00671894 -0.00342909 0.00194953 0.00421409 0.00756616 0.000174966 -0.00033635 0.00438867 0.00397046 0.000776739 0.00207331 0.00989691 0.00824742 0.00752577 0.00305964 0.00349497 0.00754768 0.0083266 0.00109631 0.00315737 0.0131022 0.00920923 0.00820855 0.0146695 0.0146474 -0.00281922 -0.00479566 -0.00681466 -0.0103353 -0.00171016 -0.00381693 -0.00637735 -0.0127739 -0.00421522 0.00647114 0.0066239 0.00465947 0.0102838 0.0041432 0.0061594 0.00515464 0.00103093 0.00131725 0.00248483 0.00311048 -1.57169e-05 0.0110591 0.00857473 -0.00324733 -0.00680597 -0.00624926 0.00275339 -0.000144026 0.0134882 0.00267515 -0.00308862 -0.00165257 0.00687602 -0.00356482 -0.00534153 -0.0195871 -0.0381594 -0.0195328 -0.00711085 0.0065257 0.00599855 0.00230918 0.00946593 0.00453608 2.00213e-06 0.00881141 0.00699253 0.0129471 0.00868854 -3.94281e-05 -0.00666749 0.0057452 0.00883311 0.0203438 0.017927 0.0291343 0.036796 0.0265984 0.0081631 0.0213101 0.0148324 0.014875 0.00454858 -0.000841963 -0.018882 -0.0251481 -0.00975024 0.00299833 0.00167195 0.00078082 0.00114937 0.00701031 0.00831894 0.0089871 0.00124211 0.0128014 0.0160733 0.00160195 -0.00326167 -0.000864642 0.009869 0.0383879 0.0289851 0.0130553 0.0024959 0.00873813 -0.00168112 0.00409261 -0.00134977 0.00517141 -0.00251544 -0.0126317 -0.019725 -0.0283481 -0.0095391 -0.000341775 0.00235967 0.00604877 0.00624381 0.00646963 0.00701095 0.00690925 0.00743165 0.0203388 0.0101467 -0.00388079 -0.00190739 0.00281475 0.0106073 0.00787803 -0.0081216 -0.0394811 -0.0255986 -0.0195044 -0.00451344 0.0070802 0.00909263 4.67945e-05 0.00121865 0.00163978 -0.023567 -0.00796033 -0.00493331 0.00360261 0.00612124 0.00135546 0.0082414 0.00731959 0.00653095 0.00289932 0.00311256 0.0190497 0.00304284 0.00869863 0.0180221 -0.0029622 -0.0129107 -0.0356638 -0.0483237 -0.0501062 -0.037998 -0.00188246 0.0452999 0.041629 0.0223821 0.00919669 0.00360509 0.00670484 -0.0176619 0.00241758 0.00402637 -0.00324241 0.00764946 0.00857582 0.00726907 0.00536082 0.00901546 0.00149737 0.00276181 0.00495923 0.00507404 -0.00307464 -0.0134615 -0.0350385 -0.0513717 -0.0684231 -0.0600243 -0.0463352 0.00571339 0.0365535 0.0176637 0.0115818 0.017859 0.0123413 -0.0159851 -0.00525516 -0.0123289 -0.00216529 -0.00312623 -0.00143188 0.000949472 0.00164098 0.00528389 0.000618557 0.00355428 0.00161657 0.00491532 -0.0137539 -0.0273315 -0.0324314 -0.0403242 -0.0528872 -0.0572038 -0.0377659 -0.00849046 0.0424699 0.0466505 0.0178425 -0.00346772 0.00322476 0.00416776 -0.00508598 -0.0242772 -0.0140133 -0.0172927 -0.0107028 -0.00542607 -0.00736611 0.0054238 0.00362312 0.00520042 0.00247423 0.00904566 0.000294699 -0.000651342 -0.0188078 -0.0265835 -0.0263563 -0.0421846 -0.03917 -0.0213875 0.0261881 0.0419352 0.0283517 -0.00926919 -0.00616145 -0.0236398 -0.0148986 -0.0139969 -0.0150697 -0.0316455 -0.0191691 -0.028813 -0.0178475 -0.0105689 -0.00740166 0.00805286 0.00193081 0.00446206 0.00195876 0.00367956 0.00405386 0.00216419 -0.00814962 -0.0180189 -0.0090707 -0.00466356 -0.00522622 0.00338337 0.0243825 0.0159314 0.017018 -0.0170781 -0.0273755 -0.0219434 0.00715709 -0.00198444 -0.0208951 -0.0183097 -0.0170803 -0.0231644 -0.0227996 -0.00742518 -0.0021041 0.00479706 0.00254028 0.00808623 0.01 0.00593865 0.00851554 0.000801983 -0.00310424 -0.0160067 -0.000542041 0.0150536 0.0249362 0.00122585 0.00439001 0.00546118 -0.0181363 -0.0047711 0.00217053 -0.00186097 -0.0179423 -0.0103346 -0.0329187 -0.0174227 9.33856e-05 0.000740221 -0.00925082 -0.0086102 0.00289572 0.00702148 0.00685345 0.00061087 0.00731959 0.00331003 0.00479983 0.00871881 6.89324e-06 -0.00943216 0.00904268 0.00912155 0.00772702 -0.00022263 0.0177981 0.0411441 0.0239342 0.0295602 0.00650807 -0.0272177 -0.029309 -0.0385096 -0.011916 -0.0182126 -0.00137733 0.0139527 0.0189895 0.00433131 0.00142679 -0.00237383 0.00621264 0.00775256 0.000103093 0.00459388 0.00380517 0.00700406 -0.00582326 -0.0173445 -0.00456047 -0.00632784 -0.00874381 -0.00173627 0.0154048 0.0493473 0.0498951 0.0387708 0.0180511 -0.00372618 -0.0237513 -0.0128456 0.0187788 -0.00468527 -0.0225454 0.011305 0.0216675 0.0119078 0.00621459 -0.00365967 0.00689722 0.00376416 0.0042268 0.00984622 0.00580963 0.00816827 -0.00447765 -0.0172516 -0.0295018 -0.0325339 -0.0273534 -0.0469017 -0.047663 -0.0324707 -0.0126504 -0.00973445 -0.0170228 -0.0037554 -0.0172649 -0.0023319 0.0199304 0.0148769 -0.0186336 -0.00169248 0.0116591 -0.000362126 -0.00343356 0.000845315 -0.0022262 0.00236845 0.00307766 0.00123711 0.00528312 0.00919562 -0.00431596 -0.0178551 -0.0261242 -0.035022 -0.0474213 -0.0625109 -0.066425 -0.0638552 -0.0702949 -0.0620913 -0.0442798 -0.00663554 0.0193087 0.0113906 0.00271159 0.0270741 -0.00454828 0.0123508 0.00194038 0.00296962 -0.00515424 0.00372797 0.00285762 0.00585421 0.00680412 0.00727529 0.0078454 0.0126704 0.00521607 -0.00179642 -0.0278538 -0.0284623 -0.0410417 -0.0444767 -0.0510563 -0.0526425 -0.0554333 -0.0357353 -0.0167677 -0.0050516 0.00622446 0.00403461 0.00484443 0.00906197 0.024225 0.0225422 -0.000272782 0.00602159 -0.000360599 0.00926673 0.00919536 0.00525254 0.0042268 0.0008763 0.00583523 0.00568312 0.00888328 0.00942359 -0.00831849 -0.0162864 -0.017797 -0.0142561 -0.0324518 -0.0462771 -0.0357185 0.00265865 0.0215949 -0.0110104 -0.033268 -0.0011322 0.0225104 0.00946478 0.0157127 0.00836503 -0.0159352 -0.00362047 -0.0013939 0.0074084 0.000428769 0.00927835 0.00649221 0.00673355 0.00774675 0.00266671 0.0150969 0.0127982 0.0072333 -0.0100438 -0.0195239 -0.0104515 0.00474788 -0.0112915 -0.00126656 0.006178 0.0100337 -0.0163675 -0.00503159 -0.00149306 0.00936544 0.0185932 0.00251374 -0.019956 -0.0149855 -0.0122162 0.00459615 0.001678 0.00928466 0.000721649 0.00422423 0.00288577 -0.000151066 0.00479509 0.00965502 0.0126158 0.00540838 0.011986 -0.0244153 -0.0143512 0.00853417 0.00422138 -0.00208899 0.0111044 -0.0154644 0.00612213 0.0101456 0.0150374 -0.00937224 -0.0022185 -0.016899 -0.0293125 -0.0122467 -0.00237928 0.00133076 0.00664888 0.00741726 0.00340206 0.00412371 0.0071134 0.00306495 0.000455574 0.00623892 0.0156556 0.00393317 0.0251275 0.0147027 0.0172742 0.026784 0.0236315 -0.0200677 -0.0115888 -0.0163168 -0.00233872 -0.00383106 -0.0101718 -0.00555284 -0.00951156 -0.0262836 -0.0283099 -0.00580612 0.00533289 0.00895619 0.00964245 0.00181257 0.00927835 0.00690722 0.00979381 0.00728363 0.000689941 0.0131725 0.011791 0.0199561 0.0188765 0.024544 0.0439548 0.0509734 0.0213513 0.0131081 0.000959709 -0.0133056 -0.0177082 -0.00219237 0.0115292 -0.00211255 -0.00872724 -0.011464 -0.00261483 0.0030828 0.00625182 0.00165257 0.00772791 0.00287271 0.00948454 0.00680412 0.00639175 0.00329965 0.00896955 0.0091131 0.0188695 0.0179764 0.0235898 0.0211578 0.0210846 0.0348383 0.0198018 0.010785 0.0227189 0.000534224 0.00264846 0.0103965 0.00569275 0.00988867 0.00621163 0.000368506 0.0014706 0.00375716 0.000845925 0.00265729 0.0051567 0.0049337 0.00917526 0.00350515 0.000206186 0.00216495 0.01 0.00894575 0.00403366 0.0065832 0.00413493 0.00615343 -0.00138518 0.00299659 0.00179294 -0.00146902 -0.00375167 -0.00451722 0.00156525 0.00610701 0.00842983 0.00400016 0.00778085 0.00844268 0.00988119 0.00876972 0.00541315 0.000514278 0.00360825 0.00721649 0.000824742 0.00731959 0.00237113 0.000721649 0.00597938 0.00123711 0.00514152 0.00368506 0.00514509 0.00716116 0.00364449 0.00328581 0.00751149 0.00474142 0.0031251 0.000226804 0.00867253 0.00711327 0.00603201 0.00675102 0.00113674 0.000426391 0.00515658 0.00822623 0.00390942 0.00154639 0.0014433 0.00113402 0.0028866 0.00484536 0.000618557 0.00185567 0.000309278 0.00360825 0.00865979 0.000412371 0.00948454 0.00340206 0.00185567 0.00680412 0.000721649 0.00651049 0.00836527 0.00195876 0.00886598 0.00402062 0.00474227 0.00216495 0.00505155 0.00680412 0.00587629 0.0102062 0.00154639 0.00597938 0.00453608 0.00639175 0.00835052 0.00865979 0.00443299 0.00371134 0.00216495 0.00721649 0.000824742 0.000266113 0.00465225 0.00387565 0.00339475 0.00278797 0.00889577 0.00707625 0.00136195 0.00458426 0.00442063 0.00676487 0.00214929 0.0101725 0.00305138 0.00958172 0.0094269 0.00294398 0.0018521 0.00298969 0.000824742 0.00340206 0.0014433 0.00989691 0.00938144 0.00721649 0.00421989 0.00803891 0.00258523 0.00053122 0.00140733 0.00423749 0.000510295 0.000701409 0.00100653 0.00425405 0.00793276 0.0113875 0.0101454 0.00873043 0.00146974 0.00796054 0.000786643 0.00210376 0.00114705 0.00237348 0.000793658 0.0060811 0.00758246 0.00340206 0.00721649 0.00195876 0.000309278 0.0098978 0.00461862 0.000607481 0.00222776 0.00529565 0.00538398 0.00678289 -0.000365369 0.0063756 0.00221161 0.00874054 0.00852464 0.00630268 0.00933291 0.00587897 0.00722501 -0.0017894 -0.000625657 0.00752031 0.00874986 0.00183555 0.00741852 0.00603024 0.00242667 0.00751098 0.00319588 0.00690722 0.0057732 0.00845668 0.0087643 0.00661605 0.000948503 0.00776622 0.00996957 0.0102798 0.00545068 0.00121926 0.000261371 0.0104372 0.0116407 0.00287902 -0.000214069 0.00365835 0.00590155 -0.00154351 0.00131726 0.00880279 0.00538002 0.00542248 0.00507855 0.000954844 0.0023244 0.00816882 0.00287212 0.00113402 0.00804124 0.00721692 0.0057053 0.00663596 0.00445981 0.00650927 0.000407514 0.00816896 0.00542839 -0.000231823 0.00104442 0.00539505 0.00674062 0.00683565 0.00473858 0.00212114 -0.00108076 0.00420219 0.00510011 0.0074905 0.00901675 0.00956841 0.00458841 0.0100297 0.000159415 0.00706692 0.00132073 0.0101031 0.00164925 0.00833012 0.00941414 0.00354902 0.00679751 -0.000624173 -0.000287752 0.00751589 0.00581445 0.00685345 0.00408175 0.00382299 -0.00176669 -0.00525411 -0.00912786 -0.00814935 -0.0121881 -0.0103923 0.00406052 -0.00496186 0.00650368 0.00253663 0.00203675 0.010114 0.00893123 0.00276135 0.00988463 0.00185567 0.00804141 0.00837876 0.00212077 0.00645313 0.0033653 -0.000182158 0.00648158 0.00171443 0.00545982 0.00162626 -0.0096123 -0.00304323 -0.00602588 -0.0176518 -0.012859 -0.0101293 -0.00316248 -0.00139687 -0.00393967 -0.00739734 -0.0102309 -0.00623626 0.0109542 0.0096269 0.00482402 0.00957547 0.00307714 0.00378732 0.00276222 0.00832261 0.0105353 0.00910116 0.00192801 0.00357548 0.00762778 -0.0121638 -0.0156068 -0.00762915 -0.00903269 -0.00330934 -0.00664677 -0.0109666 -0.00732845 -0.00518032 -0.00857927 -0.00511837 -0.00656909 -0.00506347 -0.0103162 -0.00739583 0.00350741 0.0112345 0.00437826 0.00128051 0.00660384 0.00123711 0.00401305 0.00225341 0.00820541 -0.000198709 0.00624329 0.00164516 -0.00650224 -0.0151671 -0.00955904 -0.0070668 -0.00706903 -0.00709444 -0.0158577 -0.0137824 -0.00531053 -0.00332482 0.0035573 0.00610463 1.52718e-05 -0.000487159 -0.0100563 -0.0112044 -0.00768778 0.00312132 0.00778645 0.00253469 0.00894862 0.00721649 0.00638064 -0.000336157 0.00859256 0.00135051 0.00342668 0.00524619 -0.012069 -0.00872722 -0.00369422 -0.00104102 0.0108835 -0.000150782 -0.00525698 -0.0013556 0.00382304 0.00385116 0.00832487 0.00949827 0.00414694 0.00633221 -0.00840745 -0.00568607 -0.00555142 0.0014138 0.00210186 0.000355713 0.00590858 0.00247423 0.0026371 0.00917263 0.00377348 0.00551957 0.0105111 0.00376522 0.000726115 0.00782471 0.00983623 0.00740759 0.00836909 0.00371235 0.00160584 -0.00411994 0.00317557 0.00163124 0.0102506 -0.00107097 0.00662723 -0.013358 -0.00989668 -0.0139875 -0.00450726 0.0106125 0.00549301 0.00952225 0.00713516 0.00608247 0.00264346 0.00365632 0.00012561 0.00882675 0.00941257 0.00361856 0.00219053 0.00512082 0.00213459 0.00740925 0.00229846 0.00269528 -3.09823e-05 0.00174197 0.00482178 0.00776499 0.00312362 -0.0088469 -0.00679411 -0.0135548 -0.00920836 -0.00718825 0.00503389 0.00836971 0.00275207 0.00495468 0.00947982 0.00505155 0.000235515 0.00746973 0.00858391 0.00988063 0.00331147 -0.00265903 5.00107e-05 0.00657764 0.00816558 0.00775375 0.000333466 0.00488839 0.00310552 0.00132397 0.000307459 -0.00243441 -0.00462005 -0.0100195 -0.0137081 -0.00857488 -0.0102976 0.00347298 0.00431536 0.00676759 0.00867855 0.00106677 0.00959166 0.00371134 0.00726952 0.00908003 0.00498536 0.00461106 0.00261257 -0.00291275 0.00602529 0.00265419 0.00484118 0.00132697 -0.00250953 -0.0109736 -0.0127341 -0.0117354 -0.00835467 -0.0107555 -0.00547412 -0.00929776 -0.00251985 0.000798871 0.000115511 0.00379874 4.88527e-06 7.75164e-05 0.0100177 0.00590275 0.00484589 0.000721649 0.0011337 0.000590627 0.0100975 0.00818053 0.00294396 0.00828153 0.00181267 0.00485992 0.00235274 0.00048062 -0.00392296 -0.0142093 -0.0117849 -0.00885774 -0.00753797 -0.00554276 -0.00696037 0.00463998 0.00387387 0.00133054 0.00253514 3.65468e-05 -0.00121005 -5.19053e-05 0.00657244 0.00983463 0.00930262 0.01 0.0101033 0.000709857 0.00130991 0.0111616 0.0108643 0.00831547 0.00211453 0.00403814 0.0026352 0.00804172 -0.001534 -0.0126282 -0.00268523 -0.000943549 -0.00677419 -0.0131481 -0.00902579 0.00518153 0.00571686 0.00525724 0.0039466 0.003889 0.000229798 0.00163502 0.00525711 0.00974238 0.00862225 0.0057732 0.00546386 0.0073925 0.00757464 0.00575181 0.011203 0.00387209 0.00737009 0.00378411 0.00414958 -3.41579e-05 0.00391431 0.00741483 0.00305995 0.000263924 -0.00187245 -0.0050712 -0.00769829 0.00674242 0.011435 0.00886966 0.00963608 0.00128172 0.00460423 0.00831035 0.008119 0.010362 0.0069388 0.00556774 0.00113402 0.00931108 0.0025698 0.00612 0.0139151 0.00459337 0.0100466 0.0035246 0.00392294 0.00596048 0.00863318 0.00331985 0.00975095 0.00337117 -0.00229367 -0.00679947 -0.0116367 -0.000153392 0.00899027 0.0118857 0.00600003 -0.00220601 0.000845076 0.0069242 0.00666739 0.00381241 0.00725074 0.00402062 0.00318366 0.00678233 0.00904884 0.00387738 0.00544853 0.0125574 0.00814977 0.00694633 0.00282119 0.0042988 0.00511358 0.00569013 0.00650562 0.00409599 -0.0155804 -0.0124156 -0.00630153 0.000931067 0.00573663 0.00693869 0.0105549 0.00632424 0.00502734 0.00761735 0.000716112 0.00695793 0.00948159 0.00907216 0.00174828 0.00114563 0.000490316 0.00321255 -0.00546482 0.00873254 0.0122466 0.00408696 0.00988773 -0.00246398 -0.00272314 0.00405568 0.00229356 -0.00550241 -0.0201913 -0.0181097 -0.0179184 -0.00274888 0.00451322 0.00785964 0.0115466 0.00667074 -0.00254895 0.00240408 0.00541361 0.00568495 0.00618557 0.00515464 0.00350509 0.00348487 0.00328572 -0.00770401 -0.00714165 0.00159895 0.00331857 -3.83875e-05 -0.00278103 -0.000243597 0.00135343 -0.00188817 -0.00800006 -0.0161328 -0.0233987 -0.0226788 -0.00642116 0.00187029 0.00296791 0.0117263 0.0095593 -0.00064342 0.0102376 0.00191091 0.00181974 0.00725831 0.00783505 0.00546392 0.00391753 0.00125879 0.00763132 -0.0109189 -0.00945086 -0.012607 -0.00647102 -0.00770015 -0.00475917 -0.00878761 -0.0142809 -0.0160018 -0.0184642 -0.0177166 -0.0165397 -0.00137691 0.00366623 0.00649877 0.00708893 0.00432096 0.0140408 0.00617199 0.00565393 0.0108282 0.00612171 0.00523253 0.00206186 0.000927835 0.00185567 0.00681168 0.00922669 -0.000843376 -0.0156338 -0.0117965 -0.00901192 -0.0148797 -0.0109445 -0.0124807 -0.0133324 -0.016489 -0.0147722 -0.0112676 -0.00102232 0.00241838 -0.00140985 0.00146858 0.00856724 0.009493 0.00555378 0.0112196 0.00169336 0.00190788 0.00696263 0.00316799 0.00515464 0.00340206 0.00752577 0.00227221 0.00974232 0.00694025 0.00544409 -0.00638321 -0.00468458 -0.0114883 -0.00516083 -0.00915567 -0.00973329 -0.00864662 0.00331889 0.0111091 0.0076328 0.00769759 0.0103287 0.0114786 0.00907238 0.00872819 0.00836668 0.00754622 0.000730654 0.0059442 0.00897084 0.00309072 0.00185567 0.00247423 0.00958763 0.00350515 0.000619626 0.00843835 0.00165299 0.00576538 0.00882267 0.0098783 0.00470253 0.000255896 -7.43835e-05 0.00816907 0.00450123 0.00290842 0.000757098 0.010271 0.00745531 0.00898824 0.00367939 0.00849728 0.00579146 0.00850276 0.00930994 0.00144451 0.00360762 0.00164729 0.00773196 0.00680412 0.00298969 0.00525773 0.0100001 0.00567556 0.00250513 0.00199512 0.00544579 0.00188314 0.00699294 0.00530938 0.0088387 0.00531835 0.00408127 0.00437765 0.00595859 0.00902722 0.00639475 0.00303336 0.00281326 0.0050259 0.00303909 0.00222009 0.00603182 0.00120123 0.00680412 0 0.00134021 0.00206186 0.00917526 0.00886598 0.00237113 0.000824742 0.00453608 0.00845423 0.00951302 0.00652632 0.00373808 0.00878415 0.00221923 0.000786016 0.0045818 0.00997668 0.000298352 0.00390131 0.00420666 0.00540183 0.00292523 0.0079117 0.00920972 0.00053293 0.00475849 0.00762887 0.00742268 0.00587629 0.00371134 0.00175258 0.00360825 0.00484536 0.000412371 0.00618557 0.00340206 0.00278351 0.00360825 0.0042268 0.00979381 0.00278351 0.00835052 0.00493215 0.00305709 0.00597938 0.00907216 0.00391753 0.00773196 0.00453608 0.00391753 0.00298969 0.00896907 0.00721649 0.0102062 0.00618557 0.00783505 0.0102062 0.00453608 0.00597938 0.00123711 0.0042268 0.00185567 0.00206186 0.00896907 0.00215116 0.00588226 0.0030862 0.00418519 0.00797544 0.00687639 0.000798536 0.00711824 0.00586489 0.00556378 0.00740584 0.00946169 0.00585995 0.00803845 0.00877244 0.00236223 0.00158723 0.000916844 0.0014433 0.00412371 0.00463918 0.00226804 0.00742268 0.00525773 0 0.00813996 0.00896792 0.00112815 0.00157133 -0.000358558 0.00645192 0.00640798 0.00343876 0.0011035 0.00400691 0.000462519 -0.00143894 -0.00187476 -0.00546136 -0.00471565 -0.00181036 -0.000677548 0.0018251 0.00455183 0.00662891 0.00777406 0.00175193 0.00752795 0.00185567 0.00360825 0.00309278 0.00958763 0.0101203 0.000193183 -0.000132261 0.00364338 0.00680041 0.00351263 0.0081597 -0.00145292 0.00985003 0.00889219 0.0025147 -0.00194032 -0.00511948 -0.0076896 -0.00557429 -0.00512531 0.00106523 0.000502812 -0.00562498 0.00624257 0.0019093 -0.00180355 0.00663118 0.00866032 0.00369708 0.00742268 0.00350515 0.00587629 0.0061419 5.47908e-05 0.000992153 0.00453121 0.00174761 0.00968236 0.00791577 0.00796556 0.00719353 0.00666879 -0.0035128 -0.0105816 -0.0143431 -0.00968243 -0.0124537 -0.0144871 0.000903807 -0.00208685 -0.00351068 -0.00240392 0.00627552 0.00234005 -0.00011864 0.00148413 0.00342326 0.000899119 0.00948454 0.00391753 0.00316243 0.00747569 0.00277095 -0.00194863 -0.00182833 0.00815193 0.00211675 -0.000214676 0.000555987 -0.0102936 -0.00702437 -0.0145987 -0.0133773 -0.00229984 0.00532377 0.00502212 -0.00200778 -0.00959022 -0.00662782 0.00751999 0.0102992 0.00614084 -0.00135497 -0.00173042 0.00060271 0.00791117 0.00371134 0.00268106 0.00315105 0.00355409 0.00707428 -0.000620863 -0.00277552 -0.00304653 -0.00144045 0.00365213 0.00202107 -0.000917015 0.00449389 -0.00820549 -0.00394503 0.00362664 0.00869922 0.00493406 0.00567834 0.00182759 -0.0076471 0.000547148 0.0158758 0.00098271 0.000802135 -4.01817e-05 0.000684297 0.00639392 0.00927835 0.00384483 0.00324669 0.00874462 0.00262909 0.000408594 0.0012268 0.00362406 0.00581759 0.00892574 0.00718283 0.0118786 0.00968094 0.000244567 0.00612761 -0.00235836 -0.00442554 -0.00586436 -0.00124769 -0.00392297 0.00476282 -0.00131169 0.00981534 0.00757474 0.00387389 0.00315053 0.00859625 0.00214743 0.00324462 0.00782955 0.00628505 0.00571134 0.0108187 0.00928623 0.00577935 0.0131155 0.0063792 0.00952896 0.00133485 0.00511859 0.000246612 -0.00300369 0.000224485 -0.0074213 -0.00314536 -0.00423121 0.0161888 0.0100223 0.00714069 0.00356745 0.0158994 0.0221077 -0.00381326 -0.00090396 0.00249317 0.00216024 0.0056701 0.00393445 0.00382337 0.00286402 0.00132312 0.00605449 0.00802366 0.00525159 0.00803973 -0.00464328 0.00653846 0.00441904 0.0085637 0.00365227 0.00230012 0.0051781 0.00185148 0.0058698 0.0107237 0.0122921 0.00853731 0.00805197 0.0174023 0.0118819 -0.00510351 0.00710625 0.00881188 0.00454018 0.00402062 0.00196494 0.0104015 0.00121439 -0.0047285 -0.00133032 -0.0058446 -0.00047001 0.0180063 -0.00575065 -0.00750594 -0.0130321 -0.00655802 0.00884165 -0.000994035 -0.00453624 -0.000601234 0.0106776 0.00784941 0.0144762 0.00752487 0.00490103 0.00882467 0.00607699 -0.00111558 0.00361677 0.0079697 0.00494741 0.00123711 0.00780412 -0.000327995 0.00344397 -0.00229142 -0.0196667 -0.0159386 -0.0117109 -0.000561621 -0.018514 -0.0207271 -0.0238676 -0.0223458 -0.010222 -0.0138909 -0.0201386 -0.0127223 -0.0100217 0.0012435 0.0122433 0.0123642 -0.00184725 0.00436426 0.00319304 -0.000551963 0.00522825 0.0102676 0.00351031 0.00123711 0.00901093 0.00287803 0.00288101 -0.00589457 -0.0153201 -0.0236756 -0.0230151 -0.0204366 -0.02284 -0.0171598 -0.0270427 -0.0151806 -0.0117346 -0.00629138 -0.0137096 -0.023858 -0.0177958 0.00316289 0.00103712 0.00869804 -0.00101056 -0.00331652 0.00111295 -0.00416884 0.00851396 0.00943484 0.00385926 0.00773196 0.00452098 0.00248833 0.00363889 -0.00842241 -0.0250208 -0.0277926 -0.0288997 -0.0235616 -0.0229753 -0.0265799 -0.0294983 -0.0190987 -0.00589558 0.000513587 -0.00913553 -0.0219386 -0.00169967 -0.00366364 -0.00396545 0.00675471 -0.00581305 -0.00414998 0.000873173 -0.0019207 0.00384755 0.00914965 0.0028326 0.00536082 0.00524801 0.00528096 0.00295898 -0.00249563 -0.0204336 -0.0185465 -0.0123839 -0.0120513 -0.0136457 -0.00679022 -0.0145692 -0.00877332 0.000624518 0.0019306 -0.00879583 -0.0063102 0.0038371 0.00601058 0.0052787 -0.0109868 -0.0108456 -0.0021125 -0.00739488 -0.00148392 0.00603172 0.00543585 0.00876948 0.00103093 0.00778395 0.00457432 -0.000416213 0.00528715 0.00286065 -0.000353025 -0.0128193 -0.00785471 -0.00807466 0.00309565 0.00170595 0.00121237 0.00403161 0.015968 0.0126747 0.00418191 0.00434254 0.00599805 -0.00405533 -0.0068109 -0.00106293 0.00091075 0.00258335 0.0100488 0.00594591 0.006478 0.00167202 0.000309278 0.0102712 0.00393139 0.0136175 0.0167944 0.000621673 -0.00228028 -0.00572592 0.00701818 0.00342752 0.00378202 0.0100859 0.0188997 0.0174008 0.0206655 0.0227596 0.0204908 0.0205956 0.0109766 0.0129394 0.00155377 0.0121798 0.00524253 0.00490442 0.00449714 0.00740426 0.00596719 0.0102501 0.00195876 0.00796428 0.0105772 0.0085932 0.019984 -0.000642218 -0.0108218 0.000236723 0.017457 0.00462519 0.00957524 0.00899556 0.00125099 0.00661469 0.0189011 0.0225595 0.0139912 0.0138781 0.0160208 0.0124695 0.00475245 0.0127389 0.00248987 -0.00122389 0.00161902 0.00367128 0.00497613 0.00653136 0.00824877 0.00649485 0.00882655 0.0173576 0.0168499 0.00734661 -0.00486583 0.00736892 -0.00204643 -0.00397841 -0.00694994 -0.00528383 -0.0072226 -0.00205329 0.00875075 0.0135785 0.0107455 0.021253 0.0155112 0.0220429 0.0140621 0.0109938 0.00647642 0.00046833 0.00946728 0.0065401 0.00237051 0.00160958 0.00701031 0.00836229 0.00756729 0.0134457 0.0219083 0.0115594 -0.00833846 0.00639005 0.00343157 -0.00968177 -0.0148799 0.0043193 -0.00165862 -0.000972535 0.0016934 0.00231063 0.00561367 0.00649137 0.0092335 0.0171238 0.0159598 0.0183346 0.00577451 0.013228 -0.000356843 0.00648107 0.00860645 0.00638833 0.00319588 0.00595883 0.00180194 0.0101389 0.0165645 0.0161575 -0.000446396 0.0137213 0.0110876 -0.00190996 -0.0103416 -0.00533562 -0.00538388 -0.012055 -0.00460068 -0.00121651 0.00222238 -0.000487162 0.00493749 0.00339055 0.0123808 0.021829 0.0111899 0.0112161 0.00736812 0.00890363 0.00201403 0.00742268 0.00597757 0.00578333 0.00877114 0.00601974 0.014176 0.00271545 0.000591201 0.00973942 0.0105563 -0.00391467 -0.0061025 -0.0182671 -0.0147795 -0.00412374 0.00220909 0.0115403 0.00593808 0.000244995 0.00282671 0.00194828 0.00172224 0.0169002 0.00621225 0.0196142 0.0125061 0.0031082 0.00349862 0.00608247 0.00907039 0.00288603 0.0101182 0.0026102 0.00606531 0.00773295 0.00218145 0.00149046 0.0100582 -0.0027846 0.00632297 0.00901831 0.00562278 0.00799317 -0.000406845 0.0083177 0.011932 0.00765403 -0.00958415 -0.00132847 0.0060292 0.00294445 0.0143368 0.0150267 0.0106166 0.00104475 0.00208785 0.00226804 0.00123711 0.00309278 0.00929581 0.00499995 -0.000760329 0.010866 0.0170316 0.0239248 0.00568342 0.0027695 0.0069185 0.00958495 0.00844657 0.00377619 -0.00352953 0.00295364 -0.00655278 -0.00714996 -0.00731612 -0.01109 -0.000333245 0.00414421 0.0133401 0.0129326 0.00345707 0.0057728 0.00155248 0.00350515 0.0056701 0.00731959 0.00300619 0.000974558 0.00421546 0.0082155 0.00691019 0.000156593 -0.00570732 -0.00478108 -0.0089098 -0.00789863 -0.00701066 -0.0140596 -0.000331757 -0.00181804 -0.0091999 0.00557775 -0.00265955 -0.00125249 -0.00622473 0.00405146 0.0116469 0.00416085 0.00415404 0.00339325 0.00146307 0.00835052 0.00402062 0.00773196 0.00208436 0.00953797 0.0040989 -0.00468031 0.00160704 0.00268674 0.00689444 -0.00267219 0.00496513 -0.0043452 -0.00253698 0.00477931 -0.00287269 0.00330707 -0.0013735 -0.00151918 0.00652588 -0.00216909 0.00803138 0.00124884 0.00362914 0.00176961 0.00518354 0.00115472 0.000124097 0.00597938 0.00494845 0.0043299 0.00742268 0.00195876 0.00427231 -0.000185241 -0.00404688 0.00280763 0.00785439 0.00729976 0.00646392 0.00766749 0.00430654 -0.00172458 -0.000774195 0.00707682 0.00732699 0.00354612 0.00535163 0.0066212 0.00323482 -0.0018771 0.00874069 0.00639776 0.00165172 0.00886598 0.00268041 0.00216495 0.0014433 0.00268041 0.00134021 0.00773196 0.00783505 0.00917147 0.00998951 0.00208806 0.00284918 0.00580532 0.0022032 0.00812192 0.00310234 0.00801798 -0.000164891 0.00548561 0.00754244 0.00671693 0.0106458 0.00461671 0.000127551 0.0063184 0.0048522 0.00704468 0.000824742 0.00762887 0.00371134 0.00639175 0.00773196 0.0085567 0.00226804 0.000206186 0.00371134 0.000103093 0.00680412 0 0.00463918 0.00298969 0.000824742 0.00917526 1.80245e-05 0.00931781 0.0043299 0.00391753 0.00845361 0.00175258 0.00690722 0.0057732 0.00731959 0.00237113 0.000721649 0.00670103 0.00845361 0.00886598 0.00371134 0.0057732 0.00628866 0.00690722 0.0056701 0.00453608 0.00195876 0.0102062 0.0051599 0.00650376 0.00554541 0.00430357 0.0026199 0.00935962 0.00610265 0.00585389 -0.000316958 0.00226344 0.0100509 0.00169231 0.000452251 0.00376134 0.00438236 0.00511074 0.00811251 0.00279065 0.00783505 0.00958763 0.00969072 0.0056701 0.000309278 0.00164948 0.00917526 0.00785124 0.00526377 0.00386452 0.00448683 0.00641531 0.00179733 0.000780846 0.00170652 0.00286753 -5.71251e-05 0.000383449 0.00759093 0.00557807 0.00398591 0.00668756 0.00432559 0.0029078 0.00828352 0.0070925 0.00780424 0.00836633 0.0036968 0.00730149 0.0043299 0.00762887 0.00989691 0.00639175 0.0095902 0.00880157 0.00319334 0.00845964 0.00710778 0.0080941 0.00866712 0.00853895 -0.000669144 0.00403523 0.00702725 0.00983085 0.00688333 0.00596058 0.00626223 0.00375387 -0.000161583 0.00622586 0.00190906 0.00946879 0.00532145 0.00723966 0.00939873 0.00191045 0.00689782 0.00804124 0.00659794 0.00453608 0.00712298 0.00898194 0.00445118 0.00129506 0.00398792 -0.000623267 0.00613418 0.0015765 0.00402024 -0.00216802 0.00163056 -0.00124418 0.000246053 0.00280356 0.00554873 0.00840455 0.0145747 0.00361447 0.00181705 0.0118048 0.00587929 0.0104888 0.00847649 0.00992201 0.00274115 0.00845996 0.00731959 0.00804124 0.00980119 0.00557901 0.00644502 0.00566879 0.00842434 0.00670881 0.00127136 0.00549703 -0.001178 -0.00322028 0.00599445 0.0120943 0.0206534 0.0123159 0.00410975 0.00277811 -0.000933359 0.00426408 0.0108628 0.000402323 0.00874207 0.00349998 0.00369095 0.00114911 0.0057342 0.00545259 0.00113402 0.00587693 0.00922487 0.00589848 0.00564735 -0.00087128 -0.000797022 0.0037893 -0.00394816 -0.0111418 -0.00823937 -0.00581657 -0.00286175 0.00255778 0.00212544 0.00690923 0.00366599 0.000227344 0.000571718 0.00793558 0.00462502 0.00836288 0.0095659 0.00794474 0.00433022 0.00393601 0.000680538 0.00858485 0.000206186 0.00360799 0.00995246 0.0023768 0.00685306 -0.00318575 0.00130768 -0.00440252 -0.0176393 -0.00402666 -0.00142264 -0.0153529 -0.0104508 -0.0100388 -0.00603945 -0.00691337 -0.00292688 0.00625031 0.00859504 0.0194374 -0.000862154 -0.00801106 0.0180578 0.0198305 0.0043811 0.00631171 0.00761365 0.00286927 0.00490766 0.00317122 0.00878059 0.00720455 0.00660559 0.00275421 0.00372844 -0.0102604 -3.27931e-05 0.00540052 -0.00843543 -0.0103757 -0.00372982 0.00473502 0.00172788 0.0048218 -0.000136678 -0.00144388 0.01178 0.0129794 0.0061763 7.8032e-05 0.016589 0.0223982 0.00997561 0.00244624 0.00407754 0.00978024 0.000824742 0.00902841 0.00316879 0.00595013 -0.000801573 0.00634662 -0.000152515 -0.0020877 -0.00810034 0.00707604 -0.00182659 -0.015537 -0.00992993 0.000381408 0.00133582 0.00202865 -0.0106589 -0.00739794 -0.00441659 0.0153661 0.0164293 0.00530561 0.0261991 0.0242753 0.0183648 0.0109254 0.00307327 0.00851333 0.00783505 0.00592266 0.000594393 0.00742321 0.00240719 -0.000662052 0.00165113 0.00341015 0.00438837 -0.00280656 -0.00588699 -0.0069505 -0.00617867 -4.16037e-05 0.00127983 0.0152771 0.00950235 0.0161054 0.00316835 0.0097833 0.0152432 0.0081624 0.0197231 0.0229655 0.020504 0.00624877 -0.000140145 0.00448194 0.00680412 0.0102127 0.00949261 0.00486209 0.00984249 0.00113221 -0.00693817 0.0149635 0.0100724 0.00650059 -0.0104105 -0.0152485 -0.0149944 -0.00611543 -0.0047126 -0.00392713 -0.00358773 -0.00010776 0.00380212 0.00979551 0.0194951 0.00900249 0.00308839 0.0132944 0.0129945 0.00325586 0.00093081 0.00652596 0.00969072 0.00343825 0.00791614 0.00961708 0.0085215 0.00152177 0.0109921 0.0216173 0.00590882 0.00297119 -0.0111144 -0.00264778 -0.010827 -0.00913993 -0.0151118 -0.00899265 -0.0110987 -0.00500134 0.00575055 0.00411306 0.0103069 0.00238891 -0.00421957 0.00587102 0.012759 0.00956578 0.00789947 0.00353601 0.00402062 0.00545366 0.00344963 0.00444142 0.0101006 0.00762086 0.0368888 0.023056 0.00775363 -0.00134507 -0.00703648 -0.0101282 -0.0093142 -0.0215879 -0.0145411 -0.00938747 -0.018009 -0.00973173 -0.00447746 0.00334196 0.00846005 0.00473537 -0.00386004 0.00191386 0.0100865 0.00645815 0.00794402 0.00552673 0.00257732 0.00838618 0.00355776 0.0119646 0.0116831 0.0289229 0.0395639 0.0323872 0.00222451 -0.00821256 -0.00664513 -0.0124479 -0.0191493 -0.0165252 -0.0182973 -0.0307398 -0.0338874 -0.0110873 -0.00379174 0.00337274 0.0103767 -0.00184538 -0.00478143 0.00134478 0.00752579 0.00176374 0.00665302 0.00916776 0.00896907 0.00850963 0.00158527 0.00447307 0.00770492 0.0301835 0.0338456 0.0270194 0.00140317 -0.0249089 -0.0315371 -0.0227844 -0.0195346 -0.0164073 -0.0250923 -0.0272885 -0.0296775 -0.011731 0.00380556 -0.00659234 0.00801084 -0.0110485 0.000616863 0.0114216 0.0102128 0.000834825 0.00920044 0.0063418 0.00371134 0.000133 0.00629727 0.00274477 0.0124254 0.0288291 0.0267632 0.0238086 -0.0142093 -0.0389926 -0.0294285 -0.0242065 -0.021666 -0.0166011 -0.0196444 -0.0121598 -0.0120026 -0.0043909 -0.0137592 -0.0144722 -0.000590369 -0.00943368 0.00652946 0.0010349 0.00867797 0.00395254 0.00180663 0.00258744 0.00608247 0.00423609 0.00508327 0.00603941 0.0106377 0.0298725 0.0252486 0.0143656 -0.0215101 -0.0203544 -0.0241207 -0.0183249 -0.0126084 -0.0113748 -0.00117721 -0.00482167 -0.00108009 -0.00801766 -0.0110305 -0.00921418 -0.00691371 0.001809 0.0106276 0.00210752 0.00372862 0.00660377 0.0052648 0.00540846 0.00412371 0.00556701 0.0101004 0.000191913 0.0140918 0.0213163 0.0223067 0.0146306 0.00362132 -0.0113664 -0.0228188 -0.0165245 -0.017154 -0.00441712 -0.0108688 -0.0109783 -0.0143507 -0.018523 -0.016969 -0.00936503 0.00827974 0.00764225 0.00165525 -0.00109982 0.00159572 0.00492965 0.00710236 0.00971255 0.00298969 0.00564398 0.00715939 0.000630475 0.00746482 0.0171905 0.0216126 0.0146804 0.00418655 -0.0144168 -0.0220369 -0.0245111 -0.0120786 -0.0129548 6.67756e-05 -0.00456111 -0.0155141 -0.0113682 -0.0187914 -0.0162445 -0.00328337 0.00247254 -0.00406342 0.0010985 0.00190972 -0.00019884 0.00644282 0.00889766 0.00298969 0.0023054 0.00583455 0.00671465 0.00361474 0.000972349 0.0103219 0.00347052 0.00674646 -0.00188019 -0.00911474 -0.0178204 -0.0145259 -0.00963497 -0.0081208 -0.0123135 -0.0129362 -0.0110869 -0.0249469 -0.0123671 -0.0106176 -0.00127543 -0.00210419 -0.00394938 0.00189266 0.00206231 -1.53171e-05 0.00113402 0.0073214 0.00155155 0.00226198 0.00384114 0.00469809 0.00292306 0.0115974 0.00882258 0.00544447 -0.00876443 -0.00866195 -0.0143521 -0.0180535 -0.0125248 -0.00503895 -0.00176308 -0.00854821 -0.0163125 -0.0150212 -0.00426028 -0.00914395 -0.0104323 -0.00414409 -0.00372568 -0.000885825 0.00524108 0.00705963 0.00845361 0.0067028 0.00257789 0.00511325 0.00340738 0.00709202 0.00725998 0.0106111 0.0130189 0.0188859 0.00662543 0.00782596 -0.00397269 0.0051405 0.0108946 0.0107609 0.00450198 -0.00519236 -0.00356742 0.00250777 0.00661563 -0.00466997 -0.00746388 -0.00534561 0.000614545 0.00109346 0.00808896 0.00827677 0.00546392 0.00969072 0.0102062 0.00597396 0.00695093 0.00735416 0.00858005 0.00850492 0.00142009 0.0128336 0.00730208 0.0109819 0.00903038 0.0257312 0.0166712 0.00989786 0.00237495 -0.00802944 -0.00494438 0.00423373 0.00369137 -0.011611 -0.00580922 0.00371828 0.00336158 0.00344236 0.0101157 0.00590477 0.00237113 0.00556701 0.00814433 0.00855216 0.00268884 0.00603071 0.0119046 0.000554957 -0.00443456 -0.00321322 0.00296188 0.00885532 0.00797687 0.0214133 0.0170815 0.0174626 0.00564675 -0.000106902 -0.00401167 0.00184934 -0.00124119 -0.00157951 0.00317682 0.00884042 0.00216158 0.00768942 0.00645017 0.0036794 0.00927835 0.00474227 0.00175258 0.00680407 0.00957124 0.00210462 0.00936557 0.00197889 0.00145584 -0.00215558 0.00201531 0.00454101 0.00546175 0.0158509 0.00576617 0.00696985 0.00258739 0.00547883 0.0036102 -0.00448171 0.00932735 0.00478955 0.00731303 0.0041813 0.00239769 0.00253234 0.00429665 0.0081104 0.0028866 0.00484536 0.00340206 0.0101031 0.00670103 0.00534725 0.0035293 -0.000541176 0.00753837 0.00705448 0.00508603 0.00529227 0.00897759 0.00275622 0.00741133 0.00526989 0.00404973 0.00888915 0.00515128 0.00808775 0.00599212 0.00600704 0.00779293 0.00601971 0.00220922 0.00763156 0.00793814 0.00969072 0.00659794 0.00969072 0.00463918 0.00226804 0.0057732 0.0057732 0.00649485 0.00721422 0.00102445 0.00483731 0.00109904 0.00608466 0.00910179 0.00748936 0.00813209 0.00298626 0.00798354 0.00918443 0.00531278 0.000655723 0.0062182 0.00422582 0.00848764 0.00467795 0.00603993 0.00845361 0.00989691 0.00948454 0.00587629 0.00371134 0.00896907 0.00536082 0.00793814 0.0028866 0.00958763 0.00731959 0.0102062 0.00989691 0.00391753 0.00865979 0.0071134 0.00628153 0.00153079 0.00216495 0.00494845 0.00278351 0.0057732 0.00226804 0.000927835 0.0085567 0.00783505 0.00938144 0.0102062 0.000103093 0.00247423 0.00103093 0.00865979 0.00680412 0.00536082 0.00257732 0.00587629 0.00247423 0.00216495 0.00764324 0.0070904 0.00336408 0.00274253 0.00826551 0.00490261 0.00433836 0.00719629 0.0111073 0.00686347 0.0022577 0.00823748 0.00773827 0.000901965 0.00154229 0.00462536 0.00130502 0.00721201 0.00680412 0.00453608 0.00773196 0.0043299 0.00298969 0.00845361 0.00381443 0.00680542 0.00398562 0.00954965 0.00252037 0.00101168 -9.01787e-05 -0.00396894 -0.00576939 -0.00399617 0.0215759 0.0127703 0.0153307 0.0129322 0.012781 0.0164538 0.0132884 0.0122302 0.00500085 0.00850894 0.00815442 0.00465766 -1.69305e-05 0.000931831 0.00639175 0.00927835 0.00536082 0.00484536 0.00865709 0.00176593 0.00551034 0.00415872 0.00606164 0.00792653 0.00300227 -0.00348414 0.000357935 0.0111427 0.00982712 0.00726055 0.0115821 0.0169672 0.0147576 0.0111025 0.0152393 0.0108424 0.0146142 0.00204927 0.00595692 -0.000136656 0.0093129 0.0086275 0.00630775 0.00824742 0.01 0.0014433 0.000713371 0.000502988 0.00657538 0.00303979 0.000600661 0.00558286 0.00517082 0.00348095 0.00185958 0.0120386 0.0115896 0.0226707 0.0160002 0.00933611 0.00245279 0.00533394 0.00485823 0.0101843 0.015304 0.0181253 0.0132165 0.0126202 0.00819422 0.00411506 0.00755884 0.00887654 0.00659794 0.00216495 0.00680741 0.00524166 0.00869011 -0.000309859 0.00167666 -0.00176001 0.00759354 0.00418349 0.0106435 0.0152219 0.00350621 0.0159265 0.00401397 -0.00826093 0.000199763 0.00793763 0.0263951 0.0180942 -7.40165e-05 -0.00118912 0.000273282 0.013855 0.0117276 0.000323962 0.00649071 0.00248071 0.0071134 0.00855625 0.000442729 0.00653267 0.00384521 0.00619982 0.00280355 -0.0103055 -0.00864612 -0.00596258 0.00570111 -0.00121648 0.0036541 0.00822781 0.00555942 0.00512603 0.0164778 0.0200104 0.00960579 0.0181678 0.00803367 -0.000945302 -0.0112209 0.00168694 0.00743351 0.000897005 0.00637947 0.00491319 0.0042268 0.000824292 0.00545486 0.00283788 0.000897175 6.34964e-05 0.00487129 -0.0148772 -0.0134637 -0.0126304 -0.0135507 -0.00552342 0.0144139 0.011333 0.00218816 0.000906047 0.0101736 0.013643 -0.0140451 0.00416504 0.0168886 0.00747521 0.0125638 0.00127202 -0.000635425 0.000951606 0.00351773 0.00426945 0.00408777 0.00310502 0.0015636 0.00841383 0.00877122 -0.00180836 3.39572e-05 -0.0129274 -0.0161571 -0.0100518 -0.0110494 0.00789136 0.00797523 -0.0065081 -0.0179 -0.0235122 -0.0127758 -0.00647721 -0.00717757 0.0116283 0.015033 0.00783936 0.0034866 0.00492187 -0.00718141 3.87537e-05 0.00212258 0.00858568 0.00257732 0.00681588 0.001299 0.00152387 0.0120478 0.00637726 -0.00162843 -0.00440519 -0.0109678 0.00802055 0.00956378 0.0101871 0.0149136 -0.0114396 -0.0139831 -0.0156218 -0.000416645 0.00287418 0.0239826 0.0400769 0.0350957 0.0251711 -0.00407256 -0.00639432 -0.00445124 0.00225359 0.00503436 0.00229101 0.00319588 0.0048558 0.00425738 -0.000613696 -0.000323838 0.0045571 -0.00765411 -0.007708 0.0068157 0.0115265 0.00147484 0.0199682 -0.00436588 -0.0120446 -0.0333961 -0.0381677 -0.0183391 -0.0196181 0.0024234 0.0243596 0.0219242 0.0173632 0.00075738 -0.0045134 -0.0071783 0.00434698 0.00753281 0.00188384 0.00927835 0.00760711 0.00777823 -0.00443583 0.000442106 0.00950898 0.00493085 0.000836737 0.0191118 -0.00147706 0.0113229 0.000314944 -0.00461766 -0.012657 -0.0255174 -0.0349235 -0.0324226 -0.0339147 -0.0263012 0.0176255 0.0201192 0.0200734 0.0133895 0.017346 -0.00395519 0.00561184 0.00549534 0.00172161 0.00134021 0.00745463 0.0018138 -0.00184336 0.0102261 0.0200811 0.000328589 0.00155556 0.00681998 0.00063557 0.00732709 -0.00412828 -0.0029418 -0.0145771 -0.027557 -0.0254538 -0.0240026 -0.0318151 -0.036546 0.00402222 0.014159 0.0236719 0.029582 0.0201804 0.0059594 0.00258616 0.00502999 0.00513333 0.00556701 0.0103231 0.00554281 -0.00974856 0.0140247 0.0287756 0.00416553 0.00516591 0.000413084 -0.00994516 0.0075496 -0.0132125 0.00185972 -0.0171782 -0.0161838 -0.0176984 -0.025937 -0.0284027 -0.0436114 -0.00168256 0.0205863 0.0339086 0.0327336 0.0112257 -0.000658311 -0.00117992 0.00574625 0.00687331 0.01 0.00396325 0.00234907 -1.18902e-06 0.00643901 0.00700978 0.0152253 0.00142941 0.0080262 0.0117058 0.00484002 0.00266834 0.00471808 -0.0186321 -0.00722864 -0.0059151 -0.0127985 -0.0284879 -0.0156397 0.0226884 0.0441236 0.0152948 0.0166155 0.00236293 -0.0071557 0.00891775 0.00875307 0.00793965 0.00556701 0.0024223 0.00430671 0.00981098 0.00242653 0.00910088 0.0140671 0.00166558 0.00236347 0.0287102 0.0226457 0.0126808 0.00585026 -0.00655151 -0.0197452 -0.0288776 -0.0498895 -0.0386879 0.0144791 0.0361656 0.029421 0.00420759 0.0106575 -0.0126967 -0.0138701 0.00170974 0.00811613 0.00857091 0.00175258 0.00643581 0.00408474 0.00137186 0.00520088 0.00472948 0.0154438 -0.0117205 -0.00582029 0.00310826 -0.00536702 -0.0102963 -0.0240103 -0.0318406 -0.028418 -0.030116 -0.046518 -0.0188621 0.0407178 0.019597 0.0235466 -0.00782497 0.0043767 -0.00807244 -0.000779405 0.00726524 0.00943908 0.00882076 0.00546392 0.00849677 0.0092249 -0.000944083 0.00457881 -0.00641031 0.00791718 -0.0138699 -0.017432 -0.00423936 -0.00804383 -0.015186 -0.0260246 -0.0299989 -0.0196045 -0.0214127 -0.0260989 0.00814761 0.0413058 0.0192203 -0.00696462 -0.0153569 0.0111723 -0.00878555 0.0018211 0.00584766 0.00918412 0.00879582 0.000412371 0.0057732 0.00232237 0.00148003 -0.000205446 0.00182187 0.00275609 -0.0180439 -0.0279988 -0.00612352 -0.0133637 -0.00944912 -0.00960072 -0.00312634 -0.0195793 -0.0265558 -0.0184822 0.0442019 0.0420975 0.0202632 -0.00420733 -0.00793113 0.00208552 -0.0102248 -0.000526036 0.00226818 0.00421284 0.00483906 0.00484536 0.00772454 0.00851157 -0.00380932 -0.010449 -0.00653893 0.00631872 -0.015334 -0.0129643 -0.0158828 0.000875435 -0.00332381 0.00364366 -0.0205291 -0.0150123 -0.0170571 0.0105154 0.0298696 0.0367466 0.00448152 -0.0193541 -0.0101529 -0.0162236 0.00506351 0.00604033 0.000213177 0.00848381 0.00752009 0.000515464 0.000514774 0.00922223 0.00471403 -0.0161256 -0.0131083 0.00239804 -0.0164221 -0.0101034 -0.00620978 -0.00592309 6.27907e-05 -0.0238099 -0.0247803 -0.0155337 -0.0101661 0.0246966 0.0223568 0.0246003 -0.00645013 -0.0210923 -0.0172776 -0.00768596 0.00820117 0.013278 0.00413716 0.000293671 0.00515464 0.00206054 0.00123884 0.00646285 2.49902e-06 -0.00642169 -0.0114178 -0.0119286 -0.00745443 -0.00118972 0.00452664 -0.000613181 0.00988848 0.00115291 0.00482491 -0.0168542 -0.00344756 0.025118 0.0364082 0.0132417 -0.0126065 -0.0120376 -0.0129747 0.00583719 0.0112426 0.00517778 0.00562072 0.00734618 0.00340206 0.00463789 0.00350474 0.00380581 0.00177562 -0.00756101 -0.0163416 -0.0136631 -0.024264 -0.0178683 0.000247797 -0.0187361 -0.0207784 -0.0178719 -0.0175607 -0.00254973 0.00941969 0.0238763 0.01949 0.000605824 -0.00128115 0.00758857 0.00340604 0.0161773 0.00857577 0.0115707 0.00948446 0.000720318 0.00494845 0.00876289 0.00742268 0.0021847 0.00544847 -0.00411917 -0.00278909 0.00467865 -0.01929 -0.0146214 -0.0128579 -0.008025 -0.0125034 -0.00970293 -0.00771689 0.0145395 0.012893 0.00501686 0.000545374 -0.00626278 0.00266069 0.00989405 0.0016792 0.00812872 0.00988909 0.00659825 0.00968384 0.00509016 0.000515464 0.00979381 0.00505155 0.00379178 0.00143952 0.00163931 0.00125061 0.00204642 0.00858448 -0.00330671 0.000778637 -0.00424539 -0.000602042 -0.00644939 0.00510052 0.0209083 0.0226572 0.0317302 0.00218072 -0.00642109 0.00657773 0.0203977 0.0164612 0.0135394 0.00277918 0.00930822 0.00741337 0.00494666 0.00515464 0.00938144 0.00278351 0.00463559 0.00872385 0.00212818 0.00235777 -0.0019057 0.0012586 0.00421253 0.00953765 0.00316489 -0.000515197 0.00850458 0.0128305 0.0422596 0.0212215 0.00186669 0.000600339 0.0136022 0.00825796 0.012097 0.0223679 0.0111475 0.00302419 0.00297023 0.00680936 0.00834861 0.00927835 0.00731959 0.00536082 0.00329897 0.0028865 0.00961934 0.00358935 0.00410349 -0.000996098 0.00607666 0.00460326 0.00749474 -0.00378214 0.00647044 0.0160791 0.016585 0.00311213 0.00396348 0.0117357 0.00791332 0.00434347 0.00240176 0.0124408 0.00635899 0.00958297 0.00360378 0.00103093 0.00701031 0.00938144 0.00927835 0.00237113 0.00670103 0.00185567 0.00525773 0.00608391 0.00392624 -0.00211762 -0.000690141 0.00309742 0.00465162 -0.0016837 0.000274109 0.00427716 0.00439717 0.00380548 0.00282707 0.00891446 0.00714059 0.00243921 0.00805822 0.00535223 0.0021795 0.00867333 0.00958763 0.00453608 0.0043299 0.01 0.00309278 0.00381443 0.0056701 0.00185567 0.00134021 0.000515464 0.00938144 0.0014433 0.00185567 0.00762887 0.00474227 0.00721649 0.00268578 -2.72322e-05 0.00391753 0.000927835 0.0071134 0.00783505 0.00154639 0.00948454 0.00257732 0.00195876 0.00649485 0.0101031 0.00237113 0.00969072 0.00226804 0.00886598 0.000618557 0.00680412 0.00907216 0.00659794 0.00319588 0.00103093 0.00520237 0.00583906 0.00256611 0.00938416 -0.000321437 -0.00244094 -0.000389993 0.000475326 0.00264852 0.0103903 0.0123394 0.000349324 0.00546997 0.00500107 0.00913801 0.00750851 0.00273373 0.008061 0.000412371 0.00690722 0.00103093 0.00845361 0.00773196 0.00237113 0.00752577 0.00722036 0.000413885 0.00475132 0.00457157 0.00317649 0.0102948 0.00409314 0.0082814 0.0074996 0.0102355 0.0188325 0.013375 0.00700938 0.0144954 0.00568911 0.00426619 -0.0137508 -0.00288468 -0.000893024 -0.000173181 0.0096946 0.000586904 0.0101471 0.00907216 0.00597938 0.00917526 0.0101031 0.00159542 0.0098427 0.0128548 0.00817505 0.0106188 0.0149417 0.0152775 0.0168744 0.0251396 0.0168597 0.0188971 0.0309056 0.0245041 0.00378721 0.0275088 0.0158727 -0.00536045 -0.0187901 -0.00300779 -0.00807554 -0.00766238 -0.00360757 0.00145107 0.00745917 0.00537322 0.00546392 0.00597938 0.00412371 0.00165491 0.00836209 0.00996826 0.0126445 0.0177781 0.0165107 0.0150389 0.0344326 0.0296931 0.0367729 0.0401649 0.0297952 0.0181462 0.0214033 0.00212121 -0.014483 0.00184598 -0.00211531 0.00161171 0.00105547 0.0019799 -0.00580046 0.000262466 0.00288281 0.00912804 0.00781485 0.00845361 0.00360825 0.00169946 0.00298907 0.0108797 0.00583367 0.0161107 0.0261814 0.042855 0.0421282 0.026503 0.0237378 0.0499241 0.0526276 0.0338351 -0.00624779 0.0335534 0.00639132 0.0392189 0.0151708 -0.0033378 0.00309706 0.00406643 -0.0124381 -0.00287604 -0.0065079 0.00600446 0.00301884 0.0043299 0.00215884 0.00970277 0.00537886 0.00495305 0.0091663 0.00586492 0.0214699 0.0098574 0.0278176 0.0223083 0.00533132 0.0230737 0.0561506 0.0586992 0.0176557 0.00939411 -0.00804224 0.0219838 0.0239751 0.0186282 0.0137449 0.00622234 -0.0091645 -0.00872245 -0.00900678 0.00168413 0.00231961 0.00268041 0.00544362 0.00611077 0.00770106 0.00782379 0.00534641 -0.00228542 0.0105171 0.00190037 0.0182259 0.0139597 0.00875386 0.0211614 0.056218 0.0374037 0.0230199 0.0133278 0.00584941 0.00514715 0.00409857 0.0138346 0.0152851 -0.000841834 -0.00696185 -0.0132417 -0.00703733 0.00562023 0.00184106 0.00281893 0.00132194 0.00409699 -0.00370332 -0.00073406 -0.0179521 -0.0272997 -0.0267815 -0.0459483 -0.0516512 -0.0160732 -0.0266903 -0.0161343 -0.00531834 0.00360819 0.0174071 -0.0175907 -0.0110015 0.0155654 0.012616 -0.0155673 -0.00744558 0.00679556 -0.00826376 -0.0199672 0.000754808 0.00196133 0.00929625 0.0056701 0.00970379 0.00538764 0.000213985 -0.0153768 -0.0226119 -0.0450871 -0.0444286 -0.0545061 -0.0621723 -0.0578727 -0.0762685 -0.0624747 -0.0939373 -0.0503866 -0.0391939 -0.0540143 -0.0298631 0.0206014 0.000727113 -0.0282389 -0.0242265 0.00946938 -0.00140982 -0.0179025 -0.00302948 0.00689786 0.0058003 0.00412371 0.00258084 0.00254052 -0.00640586 -0.026593 -0.0363409 -0.0497741 -0.0509206 -0.0693516 -0.0807628 -0.10961 -0.127261 -0.116083 -0.106878 -0.0748686 -0.0357071 0.00314291 -0.0132638 0.00275494 -0.00215919 -0.0189932 -0.00514132 0.000246213 -0.0140479 -0.0145445 0.00411373 -0.000433806 0.0068653 0.00618557 0.00103846 -0.00181802 -0.0109321 -0.02894 -0.0544005 -0.066988 -0.0802483 -0.0816726 -0.101807 -0.116799 -0.106352 -0.102039 -0.0496419 -0.0154174 0.0125992 -0.0110792 -0.00550763 -0.016171 0.0198963 0.00806199 -0.0178532 0.00228939 0.0100521 0.00131647 0.00409075 0.00834613 0.0052172 0.000515464 0.00207123 -0.000936971 -0.0059344 -0.0318533 -0.0547693 -0.056228 -0.0606756 -0.0510683 -0.044726 -0.0168582 -0.0149778 0.00976255 0.0494705 0.032655 0.0155902 0.00651179 -0.0336481 -0.0263238 0.00632093 0.0168919 -0.00713677 0.00342885 0.0108865 0.00265281 0.0127415 0.0097654 0.000563332 0.000927835 -0.00326654 -0.000847275 0.00254038 -0.0144187 -0.0210036 -0.0270078 -0.0190837 0.0208625 0.0312538 0.0442678 0.0323459 0.0417997 0.0375136 0.0439971 0.0327721 0.00387221 -0.0408281 -0.0241525 0.000637811 0.0104071 0.0112571 0.00541275 0.0105541 0.00402583 0.0124776 0.00339575 0.00671352 0.00453608 0.00375598 0.00604598 -0.00408219 -0.00316381 -1.4789e-05 0.00813971 0.037603 0.0484817 0.048654 0.01653 0.00877062 0.036832 0.0553054 0.0407466 -0.00202196 0.0459129 0.0175663 0.00446024 0.0129992 0.0238266 0.0168284 0.00711998 0.0138917 0.00981121 0.00756385 0.0134754 0.00374623 0.00701031 0.00254557 0.00715823 0.00522668 0.0217907 0.029261 0.040269 0.022851 0.00825158 -0.0172145 -0.012205 -0.0197198 -0.0196017 0.0229456 0.0325882 0.0226091 0.0128052 0.00929743 -0.00287832 -0.0181562 -0.00203821 0.0148347 -0.0195109 -0.0101468 0.00153911 0.00462383 0.00196029 0.00347375 0.00649485 0.00573451 0.0136956 0.0245289 0.0407766 0.0266276 0.0309106 0.000511908 -0.0204508 -0.0131541 -0.0023368 0.0110691 0.00342284 0.0223423 0.0168145 -0.0110856 0.00142767 0.00243259 -0.00905556 0.0199812 0.0187619 0.00274157 -0.020545 -0.00344865 -0.0105142 0.000780655 0.00929311 0.00632892 0.00876289 0.00220883 0.00925529 0.0220741 0.0289944 -0.00172358 0.012797 0.00181333 -0.00827337 0.0128813 0.0134657 0.00854674 0.0167471 0.0144491 0.00868321 0.00620584 -0.0121934 -0.037361 0.0262055 0.0241397 0.0177815 0.0100898 -0.00237326 -0.00455481 9.70003e-05 0.0213645 0.014532 0.00766593 0.00123711 0 0.00877081 0.024171 0.0146707 -0.0235756 0.0220124 0.025058 0.039765 0.0219211 -0.0165261 -0.0189057 0.0148947 0.0062217 0.00911284 0.00323562 -0.00470094 -0.0185678 0.0258108 0.0374852 0.0184426 0.0105289 -0.00691109 -0.0102382 0.0111249 0.0213505 0.0102525 0.00324442 0.00948454 0.00694296 0.00664295 0.00420697 -0.00192277 -0.0258771 0.00308023 0.00954189 -0.036464 -0.0332322 -0.0171779 0.00555521 -0.00667417 0.0166406 0.00940718 -0.0048492 -0.00943898 -0.00139736 -0.0181042 -0.0127575 0.00418562 -0.01382 -0.0285019 -0.0208652 0.00343088 0.0101972 0.00223342 0.00358453 0.00628866 0.00995409 0.000648959 0.0140064 -0.0107053 -0.0164612 -0.00598398 -0.00245201 -0.0223256 -0.0236842 0.00396416 0.00434832 -0.0105099 0.00572155 -0.00990041 -0.00166503 -0.00332206 -0.00566671 -0.0292158 -0.0486833 -0.0128465 -0.0118902 -0.019443 -0.00362944 0.00891652 0.00571316 0.00552201 0.00216495 0.00195227 0.00808302 0.00405043 0.0101478 -0.0129344 -0.0304714 -0.0196582 -0.0201938 0.00252099 -0.0361425 -0.0019996 -0.032725 -0.0483176 -0.0324106 -0.0248604 -0.000990629 0.0216808 -0.0167384 -0.0212191 0.0113738 -0.00674223 0.00722074 -0.00215985 0.0157271 0.0130921 0.00183777 0.00235638 0.00474227 0.00576686 0.0080392 0.00112309 0.0109619 -0.0101648 -0.0157405 -0.0373 -0.0161807 0.00518789 -0.011387 0.00521775 -0.0231744 -0.0390607 -0.0264975 0.00905203 0.00414748 0.0229326 0.00524752 -0.0364065 -0.00512547 0.00229747 -0.00682717 0.00703022 0.0130494 0.00971232 0.00316284 0.00260211 0.00226804 0.00989691 0.00804124 0.0030846 0.00353778 0.0104035 0.0118166 0.0242581 0.0383203 0.00578319 0.0149002 -0.0290368 -0.0148011 -0.00118565 -0.0237625 0.00455461 0.00993743 -0.00320585 -0.022856 -0.0331055 -0.017518 -0.00528346 -0.00207828 0.0087734 0.00970479 0.00424176 0.00333564 0.00452633 0.0056701 0.0085567 0.00134021 0.00616219 0.00328236 0.00314931 0.00561444 0.0308646 0.0259909 0.0235891 0.0157902 -0.0155479 -0.0176226 -0.0174675 -0.0158957 0.0130401 0.00337923 -0.00282571 0.005386 -0.0254467 -0.0264583 -0.000425462 0.00811424 0.0135895 0.00123012 0.00222152 0.00605463 0.00397101 0.00556701 0.00474227 0.00701031 0.00489944 0.0101021 0.00391462 0.00717875 0.00481389 0.0130546 0.00406517 0.0030894 0.000600622 0.00250384 -0.00334321 -0.00347827 0.00353199 0.0058737 0.000538636 0.00770552 -0.00291179 -0.00106355 0.00854875 0.0114649 0.00858011 0.00636418 0.00104325 0.00692017 0.00490863 0.00824742 0.00804124 0.00536082 0.00340206 0.000824203 0.000515382 0.00367293 0.00125843 0.00635302 0.00850969 0.0046493 0.00269982 0.00467984 -0.00567956 -0.00311364 -0.0044755 -0.00208457 -0.00441837 -0.00456946 1.67563e-05 0.0105603 0.00811654 0.0066075 0.00200277 0.00206362 0.00659831 0.00701031 0.00268041 0.00484536 0.00515464 0.000824742 0.00226804 0.00350515 0.000618557 0.00710487 0.00513421 0.00565126 0.000626935 0.00511159 0.000395731 0.00834062 9.84325e-05 0.00339647 -0.00122489 0.00825211 0.000236157 0.00408663 0.00864519 0.00733373 0.00613076 0.00895175 0.00384762 0.00876287 0.000103093 0.00742268 0.00690722 0.0101031 0.00350515 0.00907216 0.00907216 0.00360825 0.00505155 0.00721649 0.00680412 0.00381443 0.00216495 0.0085567 0.00845361 0.00298969 0.00314922 0.00818427 0.00381443 0.00257732 0.00185567 0.00742268 0.00195876 0.00659794 0.000206186 0.00453608 0.00948454 0.00505155 0.00381443 0.00721649 0.00134021 0.00969072 0.000103093 0.00123711 0.00731959 0.00443299 0.00113402 0.00113402 0.00621043 0.00831451 0.00134793 0.00376894 0.00148061 0.00524529 0.00220787 0.00314647 0.0044332 0.00760022 0.0024812 0.00214963 0.00142941 0.000865412 0.00517048 0.0102731 0.00397948 0.00494472 0.000721649 0.00762887 0.00659794 0.00979381 0.00814433 0.00742268 0.00505155 0.00720615 0.00432601 0.00122532 0.00164371 0.00292792 0.00308489 0.00933801 0.00812951 0.0017401 0.0103146 0.00889756 0.00571974 0.00116143 0.00375054 0.00152101 0.00350732 0.0010533 0.00644982 0.00526989 0.000447994 0.00190986 0.00105929 0.00463833 0.00876289 0.00309278 0.00268041 0.00701031 0.00380979 0.000798191 0.00504795 0.00102608 0.000999944 0.00158526 0.00956934 0.00657919 0.00142675 0.00650628 0.00844531 0.00509168 0.00563935 0.0112224 0.0068667 0.00750471 0.00648614 -6.72804e-06 0.00883935 0.00487215 0.00913961 0.0102054 0.0034021 0.00239269 0.0062023 0.000824742 0.00896907 0.00453608 0.00668536 0.00612531 0.000142777 0.00377674 0.00828943 0.00514503 0.00256016 -0.0013949 -0.000845979 0.0032798 0.00689441 -0.00776002 -0.00492761 -0.00273499 -0.00230534 -0.00439673 0.0015775 0.00157237 -0.000521554 0.00354508 0.00651054 0.00308932 0.00266461 0.00948293 0.00295331 0.00434645 0.00278351 0.00453608 0.00979244 0.00542603 0.00807151 0.00487575 0.00320526 0.00556328 0.00347504 0.012363 0.00261009 0.00895316 0.00241102 -0.00150249 -0.0186902 -0.0155502 -0.0150142 -0.0169831 -0.00946288 -0.00258183 -0.0044942 -0.00337539 -0.00515067 0.00179175 0.00395712 0.00151944 0.00680487 0.00971781 0.00206186 0.0093798 0.00343682 0.0056207 -0.00192448 -0.00715539 0.00413164 0.0204321 0.0114873 0.020051 0.0305226 0.0326968 0.00863823 -0.00323247 -0.00973871 -0.0145708 -0.0169445 -0.0150174 -0.0259941 -0.0147635 -0.0143145 -0.00518798 -0.00372672 -0.00368056 0.00170697 0.00739542 0.0038021 0.00391357 0.00381443 0.000733284 -1.84501e-05 0.00319879 0.00223057 -0.00302706 0.00366354 -0.00717969 0.00919668 0.0328888 0.0230524 0.014789 0.0018565 0.011318 -0.00407357 -0.00985608 -0.0131252 -0.0268671 -0.0183639 -0.0208993 -0.0292086 -0.0192119 -0.00583298 -0.00745494 0.000986359 0.00342632 0.00332198 0.00811452 0.00159609 0.00734915 -0.000115614 0.00649682 0.00526909 0.00444983 0.00435627 -0.00436784 0.0271266 0.0122101 -0.0230965 -0.0126248 -0.00868959 -0.00463133 -0.00649275 -0.0148478 -0.0198096 -0.0256757 -0.0239237 -0.0324717 -0.0373682 -0.0220497 -0.0123459 -0.00190151 0.00343839 0.00826139 0.00358288 0.00838704 0.00113402 0.00934682 0.00606605 0.00588979 0.00358381 0.00512426 0.00379985 0.0121111 0.00366364 -0.0235993 -0.03373 -0.0159699 -0.0268854 -0.0150804 -0.0153984 -0.0189355 -0.0012138 0.00303241 -0.00431557 -0.0188326 -0.0262768 -0.0167215 -0.00856591 -0.00208482 0.000255539 0.0064259 0.00933321 0.000820867 0.0071134 0.00811419 0.00818469 0.0122227 -0.00256821 -0.00244595 0.0157879 0.0195238 -0.0206667 -0.0331191 -0.0287959 -0.0291074 -0.0352645 -0.0272883 -0.0237219 -0.0158169 -0.0016069 0.00493917 0.00895541 -0.0167783 -0.0228137 -0.0136354 -0.0151857 -0.00983409 0.000679504 0.0022498 0.00516755 0.00326953 0.00103093 0.00360405 0.00189423 0.0041066 0.0010047 0.00824 0.021721 0.0242907 -0.0192477 -0.0290989 -0.0145076 -0.0181633 -0.0243574 -0.025028 -0.000359567 0.0161603 0.0221462 0.0230028 0.0108568 0.00657799 -0.0126463 0.00131548 -0.0172258 -0.00263901 0.00239514 0.00387796 0.00384808 0.00499798 0.00340206 0.00767083 0.00345847 -0.000692337 0.00583912 0.0116271 0.0243237 0.0128363 -0.00949867 -0.0216399 -0.026097 -0.0229248 -0.0194262 -0.0186928 0.00880387 0.0142841 0.0132565 0.0186277 0.0131399 0.0149174 0.00867709 0.00489653 -0.0122502 -0.00503711 -0.000207856 0.00303965 0.00602643 0.0012999 0.00206186 0.00123005 0.00385532 0.00266703 0.00200894 0.0131457 0.017457 0.0160393 0.00250446 -0.0104406 -0.00509381 -0.0275129 -0.0228737 -0.00388208 0.0136815 -0.00221523 -0.00857945 0.00467178 0.0159304 0.0241287 0.0167629 0.0128063 -0.00622776 -0.00390581 -0.00197308 0.00177915 0.00459659 0.00878576 0.00329897 0.0030037 0.00175265 0.000463171 0.000765336 -0.00152633 0.0200091 0.0213755 0.013513 0.0166157 0.010196 -0.00672349 -0.0051766 0.0088802 0.00532283 -0.0269045 -0.0191219 -0.00128092 0.025682 0.0113936 0.00658988 0.00446409 -0.00535115 -0.013571 -0.0103837 -0.00100282 0.00756855 0.00957452 0.00237113 0.0061687 0.00733834 0.00136024 0.00375273 0.00247086 -0.00139731 0.00725226 0.0248705 0.0303312 0.0259021 0.0207253 0.0271408 0.0187967 -0.00616986 -0.0121374 -0.000616636 0.00573662 0.0143885 0.000674061 -0.0054015 -0.00953456 -0.00787849 -0.0104222 -0.000982656 0.00445837 0.0053934 0.0059212 0.00938144 0.0088973 0.00438421 0.00525336 -0.00206252 -0.00593188 -0.00447176 0.00406656 0.0118788 0.0143133 0.0189067 0.0234425 0.0179781 0.0159657 0.0108895 0.00922589 0.00213651 -0.00404144 0.00444145 -0.0106628 -0.00414533 -0.0173259 -0.0158229 -0.0105531 -0.00227323 0.000853211 0.00696989 0.00849672 0.000927835 0.00825826 0.00107436 -8.3946e-05 -0.00308595 -0.00319216 -0.00270167 -0.00714121 0.00995688 0.00683187 -0.00248554 -0.00796496 0.00645824 0.00179898 0.00270806 -0.00796959 0.000336523 -0.00756883 -0.0146071 -0.0139767 -0.0037103 -0.0137351 -0.0167243 -0.00562366 0.00175938 -0.0028962 0.0048553 0.00577972 0.00999934 0.00989691 0.0020155 0.00303048 0.00184795 -0.00225212 -0.00617626 -0.00918666 -0.0104367 -0.00830899 -0.00125967 0.0047676 0.00204901 -0.00311002 -0.0154683 -0.0218844 -0.00612625 -0.00114456 -0.00975978 -0.0151585 0.00703017 0.000603437 -0.00771757 -0.0193831 -0.00448983 0.00285533 0.00186147 0.00360767 0.00402062 0.00309034 0.008008 -0.00151717 0.000989756 -0.00149036 -0.00112831 -0.0130999 -0.0132134 -0.01573 -0.00778415 -0.0116831 -0.000422549 -0.0155982 -0.00577517 -0.0167411 -0.00813679 -0.0018227 -0.00364863 -0.00111363 0.00106304 0.000335083 0.00508843 -0.00350847 -0.00216254 -0.00114476 0.00561157 0.00277802 0.00278351 0.00866057 0.00370955 0.00482365 0.00245837 -0.00098695 -0.00655018 -0.0213428 -0.0137093 -0.0129261 -0.0257108 -0.0162986 -0.0148973 -0.0149792 -0.00847918 -0.0228919 -0.0113502 -0.00490488 -0.00790724 0.0102367 0.00596278 0.0106406 0.00482524 0.00326217 -0.00320718 0.00302182 0.00571044 0.0101031 0.00216597 0.00814584 0.00303837 0.000768618 -0.00155211 -0.0013389 -0.00831416 -0.00822245 -0.0125372 -0.00944256 -0.0149768 -0.0253931 -0.031565 -0.027557 -0.0242577 -0.0314033 -0.0219421 -0.00840952 -0.00526569 0.00463538 0.00680923 -0.00340773 0.00389345 -0.00205748 0.00497275 -0.00237703 0.0096782 0.000927835 0.0102072 0.000412691 0.00388829 0.00211266 0.00342329 0.00393894 -0.00591713 -0.0116971 -0.0106898 -0.0108474 -0.0112904 -0.0226101 -0.0222479 -0.0157437 -0.0162431 -0.0187728 -0.00416529 0.00165479 -0.00241885 0.00965881 0.0102574 -0.00791757 0.00891494 0.00425105 0.0074838 0.00904726 0.00217002 0.000309278 0.00515464 0.00835052 0.00617106 0.00162728 0.00282022 0.00514841 -0.00164608 -0.00478694 -0.00446536 -0.0134509 -0.00814267 -0.0207535 -0.0171602 -0.0189831 -0.016585 -0.0146291 -0.00459189 -0.00342429 -0.00824952 0.0152546 0.0204634 0.00973677 0.0230889 0.0158072 0.0120289 0.00581048 0.00764296 0.00463918 0.00278351 0.00639175 0.00972223 0.00690922 0.00192801 0.00463704 0.00862557 0.00817003 0.00038004 -0.00122945 0.002651 -0.00252245 -0.000705873 0.000810555 1.41024e-05 0.00763953 0.011674 0.00824423 0.0186368 0.026904 0.0368915 0.0357674 0.0218851 0.011422 0.00855289 0.000360147 0.00364715 0.00927835 0.00927835 0.00278351 0.00742382 8.39399e-05 0.00255272 0.00618181 0.00111879 0.00842225 0.0113901 -0.000692621 0.00430493 0.00271385 0.00178697 0.0114261 0.00653225 0.00121511 -0.00716502 -0.0088339 0.0123598 0.0189449 0.027745 0.0177377 0.00562107 -0.00284004 0.00310014 0.00993446 0.00537639 0.00783505 0.00257732 0.000515464 0.00742268 0.00330568 0.0042885 0.00586822 0.00555446 0.00265256 0.00389235 0.00972932 0.00250748 0.00769795 0.0126407 0.0073523 0.00885026 0.00481266 0.00486342 -0.00134692 -0.00837928 -0.0112877 0.0081066 0.0180824 0.00337558 0.00071219 0.00789829 0.00525773 0.00206186 0.00474227 0.000721649 0.0042268 0.00793814 0.00814433 0.00237113 0.00608247 0.00278485 0.00711215 0.00756011 0.00283733 0.00981014 0.00977063 0.0075859 0.00240185 0.0042324 0.00682292 0.00307844 0.00100232 0.00393127 0.00827445 0.00735324 0.00925102 0.00584981 0.0081026 0.0057732 0.0056701 0.00752577 0.0102062 0.0101031 0.00731959 0.00731959 0.00989691 0.00659794 0.01 0.00690722 0.00917526 0.00793814 0.00762887 0.00134021 0.00927835 0.00125607 0.00647221 0.00412371 0.00381443 0.00536082 0.00958763 0.00670103 0.00969072 0.00525773 0.00329897 0.00649485 0.00865979 0.00556701 0.00381443 0.00123711 0.0056701 0.00587629 0.00793814 0.00216495 0.00814433 0.00659794 0.00391753 0.00516233 0.00232602 0.00148901 0.00240288 0.00614406 0.00141595 0.00498457 0.00739687 0.00517606 0.00124919 0.0106031 0.00420631 0.00878544 0.00746553 0.00207163 0.00872115 0.0099138 0.00505992 0.00907216 0.00969072 0.00556701 0.00659794 0.00917526 0.000206186 0.00742268 0.00240469 0.00279504 0.00991902 0.00981038 0.0069066 0.00863506 -0.0025875 0.00406968 0.0117293 0.00370411 0.00440068 0.00464832 0.00159855 0.00961071 0.00788456 0.00173234 0.00679231 0.00871008 0.00163439 0.00428144 0.00887507 0.00588081 0.00337757 0.00257732 0.00896907 0.00979381 0.00835052 0.000987437 0.00833289 0.00653902 0.00784453 -0.000153056 0.000411911 0.00183665 -0.00130488 -0.00561397 0.007045 0.00544729 0.0301647 0.0368847 0.0133818 -0.00204206 -0.0189218 -0.0108221 0.00371983 -0.00112117 0.00390221 -0.00248276 0.0066355 0.000766106 0.00718235 0.0042606 0.00907216 0.00773196 0.00505155 0.00562235 5.14676e-05 0.00100738 0.00443839 -0.000879316 -0.00205491 0.0072694 0.00235116 -0.00832057 -0.0172594 -0.0154205 0.013607 0.0100079 -0.00641603 -0.0371797 -0.0315882 -0.0185867 -0.00750389 -0.0101468 -0.00574083 -0.00565 -0.00851622 -0.00354421 -0.00200414 0.00428826 0.00944216 0.0057732 0.00443299 0.0101637 -0.000336555 0.000577818 -0.00402425 -0.00619514 0.0026374 0.00718419 -0.000306542 -0.000601776 -0.0103681 -0.00593216 0.00340829 0.019017 0.0121587 -0.00481768 -0.0277948 -0.0154564 -0.0122972 -0.0169436 -0.00660123 -0.00773707 -0.0126966 -0.00720248 -0.00111231 0.00960282 0.000398269 0.0102062 0.00133992 0.00537416 -0.000859835 -0.00534662 2.94181e-06 -0.0100498 0.0131589 -0.000242565 -0.0116006 -0.0169209 -0.0104807 -0.0173566 0.0214442 0.0302625 0.0167512 0.00359462 -0.0123857 -0.00631799 -0.0043972 -0.0179318 -0.0152704 -0.00889349 -0.00403651 -0.00910613 0.00152432 0.00222936 0.00311525 0.000824742 0.00215722 0.00501429 -0.000530836 0.00203309 0.00263411 -0.000106161 0.00113676 -0.00296377 0.00960772 -0.000907387 -0.0109924 -0.00300518 0.0155999 0.00251894 -0.0165416 -0.00964067 -0.0289485 -0.011362 -0.00188478 -0.0274675 -0.0176978 -0.0181132 -0.0029179 -0.00205909 0.0020066 0.00653469 0.00462434 0.00932042 0.00112351 0.00441989 0.00689228 0.00251413 -0.00458501 -0.00224595 -0.0161221 -0.0117336 -0.00118292 -0.0033075 -0.00760506 0.0168166 0.0152889 -0.0325266 -0.0361527 -0.00486971 -0.00428908 -0.00486466 -0.018584 -0.00796138 -0.00997529 -0.0224809 -0.0141947 -0.00547715 -0.00299091 0.00320345 0.00400986 0.00670103 0.00534808 0.00166781 0.00764676 -0.00164954 -0.00970085 -0.0142115 -0.016854 -0.00578456 -0.00217219 -0.00443855 0.0193329 0.0160845 0.0134305 -0.0125747 -0.0246026 -0.0045977 -0.00385876 -0.0110355 -0.0211629 -0.00559598 -0.0160933 -0.021974 -0.0183331 -0.00595795 -0.00286676 0.00671679 0.00725567 0.00639175 0.00318958 0.0072012 0.00324528 0.00549585 -0.000805716 -0.0166979 -0.0216246 -0.00499427 0.0086813 0.0105785 0.01884 -0.00874562 0.0107813 0.00207887 0.0148824 0.0284791 0.0203279 0.00440012 0.00477225 -0.0156801 -0.0146015 -0.00996563 -0.0124194 -0.00436576 -0.000332336 0.0063742 -0.000272458 0.00762887 0.00608218 0.00631997 0.00444646 -0.0056954 -0.0136062 -0.0187727 -0.0154817 -0.0208981 0.00880161 0.00912855 -0.00107402 -0.00954593 -0.0265739 -0.0128395 0.0128287 0.0220322 0.0145724 0.0171986 0.0138008 -0.00762313 -0.00455973 -0.00520419 -0.00765924 -0.00562756 -0.00875229 0.00590027 0.00179966 0.00453608 0.00336741 0.00781608 0.00254247 -0.00663805 -0.0175409 -0.0179548 -0.0281475 -0.0216672 0.0307451 0.0274044 0.0217021 -0.00405437 -0.0373795 -0.018363 -0.00855351 0.00844362 -0.00957957 0.00642621 0.00387663 0.00301978 0.0149663 -0.00949266 -0.00603764 -0.00284197 -0.00789073 0.00583424 0.00835425 0.00752577 0.0031557 0.0105803 0.00830845 -0.00156313 -0.0169886 -0.0150166 -0.0200553 -0.00453462 0.0354627 0.0279491 0.0141422 -0.0405853 -0.053491 -0.0281664 -0.0489936 -0.0392145 -0.0150428 0.00224813 0.00554388 -0.0172568 0.0103921 -0.000802182 -0.00171053 0.00652261 -0.00291801 0.000701038 6.38657e-05 0.00536082 0.0100587 0.00767788 0.00520052 -0.000793921 -0.00694475 0.00148936 -0.0106965 0.0122119 0.0328961 0.0337089 0.0148229 -0.00373009 -0.0232657 -0.0418954 -0.0363887 -0.0355525 -0.0137267 0.0032271 -0.00424118 0.0207225 0.0217135 0.00721259 0.00653034 0.00954847 -0.00219713 0.00364347 0.00697936 0.00773196 0.0086363 0.000915759 0.00540955 -0.00442195 -0.00257565 -0.00742606 0.0104039 0.0080695 0.0135614 0.041736 0.0320904 0.0231445 -0.0194908 -0.036161 -0.028251 -0.0317372 -0.0236319 0.0178412 0.0100815 0.0272149 0.0162854 6.31291e-05 -0.00146782 -0.00024584 -0.00678783 0.00120072 0.000448494 0.00762887 0.00791918 0.00149924 0.0115368 0.00545266 0.00624177 -0.0127962 0.00228843 0.0237045 0.0219186 0.0223375 0.0438237 0.0201761 -0.0198777 -0.0227878 -0.0291188 -0.0187362 -0.0173791 