0.0071134 0.00814433 0 0.0102062 0.00835052 0.00175258 0.00804124 0.00958763 0.00443299 0.00515464 0.00402062 0.0102062 0.000899187 0.00303007 0.0071134 0.000515464 0.00824742 0.00649485 0.00443299 0.00948454 0.00309278 0.00340206 0.00360825 0.00175258 0.00969072 0.00463918 0.0028866 0.00268041 0.00958763 0.00969072 0.00525773 0.00350515 0.00340206 0.00649485 0.00635718 0.000225646 0.00410998 0.00502151 -0.000161826 0.0034601 -0.000889164 0.00920034 0.00344564 0.00742076 0.000549722 0.00387827 0.00696884 0.00764332 0.000567813 0.00722258 0.00601697 0.000927835 0.00896907 0.00443299 0.00907216 0.00958763 0.00154639 0 0.00103093 0.00143235 0.00865603 0.00498579 0.00261611 0.00406531 -0.000236135 -0.00201441 0.00753004 0.00704161 0.00958972 0.0016383 -0.00246883 0.000104153 0.00236093 0.00735388 -0.000264541 0.000203431 0.00929416 0.00742485 0.00852266 0.00261091 0.00644513 0.0100454 0.000927835 0.00835052 0.00659794 0.00340206 0.0026075 0.00131369 0.0101882 0.00197038 0.00382487 0.00556746 -0.00295566 -0.00566036 -0.00559052 -0.00185478 0.000861611 -0.00557394 -0.00720027 -0.00604252 -0.00857628 0.00178262 -0.00459422 0.00224542 0.00160466 0.000668496 -0.000697381 0.00298105 0.00290136 0.000547699 0.00791022 0.00350515 0.00247423 0.00752577 0.0078353 0.00600596 0.00457442 0.0068571 -0.00053168 0.000141056 -0.00357203 -0.0129015 -0.000668391 -0.00661192 -0.0104556 -0.00477162 -0.0129796 -0.0144789 -0.0212695 -0.0354828 -0.0151049 -0.0125246 -0.00873928 -0.00691533 -0.00374869 0.00788936 0.00864479 0.00975364 0.00261654 0.00757991 0.000103093 0.000824742 0.0100143 0.00290956 0.00366298 0.00348944 -0.00313173 -0.0215776 -0.000430145 0.00322478 -0.0055495 0.00515272 0.00691007 0.00612446 0.0209166 0.0119692 0.0192498 -0.0042815 -0.0200134 -0.0184952 -0.0297789 -0.0169461 -0.0118627 0.00157573 0.0094228 0.00053809 0.00828364 -6.85794e-05 0.00463918 0.00360931 0.00994625 0.00630133 0.00249932 0.00789881 0.0160457 0.00957359 0.0202815 0.023939 -0.00449598 -0.0455943 -0.0469745 -0.0623269 -0.00116158 0.0195368 0.0352833 0.0370811 -0.00726791 -0.0150639 -0.0211342 -0.0200025 -0.00390026 0.000568695 0.00410499 0.00834163 0.00283984 0.00745102 0.00350574 0.00295515 0.00104969 0.0147173 0.00723649 0.00789618 0.0230929 0.0153839 0.00408039 0.0348443 -0.00193295 -0.0392247 -0.0334556 -0.0445507 -0.0528559 -0.0110806 0.00291227 0.0486724 0.00313791 0.0010311 -0.000289295 -0.00277711 -0.00231018 0.00196389 0.000511004 0.00408189 0.00848145 0.0056058 0.00168313 0.00714188 0.00985351 0.00961645 0.0100202 -0.00236274 0.00947137 0.0147342 0.00793041 0.00956028 0.00375982 0.00452172 0.00302048 -0.00875419 -0.0196673 0.0282501 0.00495144 0.00630602 -0.0118908 -0.0195292 -0.00304497 0.00541976 0.00123035 -0.00302328 -0.00243722 0.00686149 0.0081013 0.00405362 0.00299008 0.00970045 0.00312566 0.00573247 0.0188196 -0.023126 -0.00428348 -0.0126655 0.00347421 -0.00195691 0.00795764 -0.00723842 0.00358716 -0.00952914 -0.00336241 0.0485135 0.0232105 -0.0317426 -0.0181727 -0.0166242 -0.00206769 0.00446631 -0.00168386 -0.00744252 -0.0106804 0.00629714 0.00878862 0.00994964 0.00381443 0.00471769 0.0105898 0.011914 0.00571075 -0.00735382 -0.0054988 -0.016259 -0.0176826 0.0169967 -0.00294083 -0.0342539 -0.0312026 -0.0164555 0.0464318 0.0708 0.011739 -0.0406826 -0.0187778 -0.00330544 -0.0161728 -0.0139622 -0.00983182 -0.0154092 -0.0093417 0.008655 0.00736618 0.00200019 0.000824742 0.00445686 0.0136476 0.0102278 0.00611279 -0.00814391 -0.0172436 -0.023239 -0.00229978 -0.0224107 -0.0102969 -0.0393707 -0.057842 -0.0405196 0.0458649 0.0529311 -0.0196342 -0.051115 -0.0240767 -0.0282933 -0.015866 -0.00911382 -0.0090749 -0.0162096 -0.00543631 0.00667084 0.000439585 0.0012884 0.000824742 0.00799447 0.0127722 0.00393763 -0.00303036 -0.00936857 -0.0301704 -0.0133664 -0.00423302 -0.0419227 -0.0179723 -0.0593213 -0.0304378 -0.029723 0.0114344 0.0568399 -0.00436621 -0.0520258 -0.0166244 -0.0334438 -0.0263821 -0.0144296 -0.00749405 -0.0181638 -0.0052608 0.00372141 0.00235653 0.0043336 0.00876289 0.00254324 0.00976681 0.00937867 -0.00329829 -0.0127234 -0.0226042 -0.0224552 -0.0220613 -0.0258304 -0.00434258 -0.0228532 -0.0375108 -0.0598165 -0.00835677 0.03571 0.0103474 -0.0173488 -0.00524655 -0.0177856 -0.0138466 -0.00325514 -0.0132215 -0.0124475 -0.00510937 0.00520881 0.00460613 0.00950012 0.00515464 0.00992207 0.00683965 0.00164995 -0.0014911 -0.0109854 -0.0104015 -0.0213861 -0.00763424 0.00662996 0.00214165 -0.0288812 -0.0179556 -0.0175439 0.00196034 0.0152278 0.0238164 0.0319355 0.00800625 0.0114211 0.0122048 0.017866 0.0088794 0.00640286 0.00387732 0.00192623 0.00226248 0.00773369 0.00463918 0.0100135 0.00355108 0.00150387 0.00403507 -0.00683725 -0.00636883 -0.0087929 0.000632349 0.000743527 0.00442358 0.031811 0.004521 0.00119015 0.0343661 0.0587091 0.0314071 0.0317582 0.0111668 -0.0036066 0.0230167 0.0396157 0.0353004 0.0177429 0.00197501 -0.00533891 0.00342504 0.0082288 0.0056701 0.00880327 0.0104316 0.00591099 0.00496515 0.00509838 0.0195931 0.0196623 0.0318871 0.0156624 -0.0141592 0.00754513 0.00796919 -0.00623615 0.0195051 0.0651611 0.0420136 0.0411157 0.0491045 0.0344014 0.0382545 0.0293502 0.00478626 -0.00567939 -0.00279895 -0.0143125 -0.00501781 0.00815247 0.00350515 0.00262147 0.00398692 0.00393862 0.0091985 0.018101 0.02265 0.000473653 0.00738961 0.0113744 -0.00301718 -0.00480655 -0.0137648 -0.0100773 0.0626533 0.0730872 0.0318675 0.0223555 0.00875716 0.000880995 0.0128231 0.00337368 -0.00678858 -0.0157114 -0.016735 -0.0171918 -0.00167488 0.00182878 0.00814433 0.00474381 0.00867094 0.00481989 -0.00412617 0.00410547 -0.00448926 -0.00630217 -0.0304588 -0.0346975 -0.0520152 -0.0514011 -0.0635999 -0.00494062 0.0456606 0.0578168 -0.019326 -0.00652093 -0.0349047 -0.033944 -0.0253909 -0.0118705 -0.0107638 -0.0148514 -0.0087363 -0.00485477 0.00131016 0.00931023 0.00360825 0.000259928 0.00599975 0.00896463 0.00420078 -0.0100408 -0.0190122 -0.0180191 -0.0314689 -0.0404391 -0.0668235 -0.0730539 -0.0547747 -0.00186001 0.0433715 0.0327442 -0.0205783 -0.052704 -0.0666868 -0.0482684 -0.04244 -0.0367117 -0.0389718 -0.0179612 0.00448954 0.00318235 0.000398254 0.00720285 0.00216495 0.00925681 0.00778649 0.0109025 -0.000496282 -0.010428 -0.0221462 -0.0288563 -0.0239873 -0.0349475 -0.0614994 -0.0812952 -0.0455598 -0.0131232 0.0228025 0.0213386 0.0117772 -0.0453164 -0.0557288 -0.0589956 -0.0386787 -0.032492 -0.0247963 -0.0153391 0.000390664 0.00560999 0.00620546 0.00886598 0.000927835 0.00762887 0.00585673 0.0117124 0.00119022 -0.00734303 -0.027297 -0.0293823 -0.0294313 -0.040952 -0.0640463 -0.0670904 -0.0300519 -0.0134003 0.0143276 0.0154579 0.0366811 -0.0380465 -0.0660423 -0.049172 -0.0356824 -0.0216111 -0.0169677 -0.0109718 0.0034682 0.00649669 0.0070246 0.00494845 0.00237113 0.00824742 0.00273934 0.00543142 0.000451463 -0.000667408 -0.00624406 -0.0170589 -0.0277698 -0.037894 -0.0426028 -0.0354751 -0.0142799 -0.00939982 0.00325595 0.0134837 0.0308504 -0.0157791 -0.050358 -0.0242866 -0.0289059 -0.0213586 -0.0147881 -0.006493 0.00281737 0.00890155 0.00553009 0.00505155 0.00360825 0.000309278 0.00570618 0.0101586 0.00549831 0.00781585 0.00459177 -0.00279048 -0.0232286 -0.024998 -0.030387 -0.030584 0.00224367 0.0208034 0.0190735 0.0217414 0.0264316 0.0136153 -0.0169443 -0.0166122 -0.0394739 -0.0328418 -0.0106436 -0.00115304 0.00477918 0.00880648 0.00798007 0.0042268 0.0085567 0.000515464 0.0048026 0.0100651 0.00509157 0.00996195 0.00321622 0.00651595 -0.00988591 -0.0206766 -0.0238299 -0.00909576 -0.0373547 0.0120558 0.0119275 0.024463 0.0168473 0.0357131 -0.00369359 -0.0206015 -0.0181692 -0.0136405 -0.000587887 -0.00348528 0.00243893 -4.88402e-05 0.000937487 0.00845361 0.00412371 0.00237113 0.00710347 0.0036924 0.0058424 0.0082829 -0.00353378 0.00325537 -0.0019796 -0.0183463 -0.0226226 -0.00755078 -0.0283739 -0.0154928 0.00657148 0.00764511 -0.0284486 -0.0117435 0.0160582 0.00403168 -0.00211767 -0.00726722 -0.0021835 0.00156125 0.00304382 0.00186752 0.0102127 0.00453608 0.00628866 0.0056701 0.00164948 0.00669853 0.00580084 0.00481159 0.00188088 0.00610655 0.00889666 0.00501001 0.00160123 -0.000662136 -0.00264107 0.00576675 0.00454886 0.0135763 -0.00701462 -0.0125006 0.00751111 0.00317454 5.46334e-05 -2.20723e-05 0.00878058 0.00881582 0.00185657 0.00453608 0.00443299 0.00164948 0.000103093 0.00329897 0.00278351 0.00237113 0.00536082 0.00958852 0.00254907 0.00622569 0.00159842 0.00269699 0.00475071 -0.00170634 0.00193777 0.00603844 0.00771233 0.00123301 0.00121761 0.0106606 0.00415448 0.00192236 0.00215568 0.00452986 0.000828486 0.00766233 0.000412371 0.00969072 0.0071134 0.0043299 0.00216495 0.00649485 0.00309278 0.00185567 0.00185567 0.0056701 0.00762887 0.00938144 0.0085567 0.00907216 0.00371134 0.00391753 0.000103093 0.00835052 0.00474227 0.00206186 0.00536082 0.00876289 0.00505155 0.00237113 0.00329897 0 0.00752577 0.00412371 0.00195876 0.00742268 0.00639175 0.00360825 0.00639175 0.00721649 0.00525773 0.00618557 0.00773196 0.00381443 0.000564765 0.00544687 0.00683697 0.0022942 0.00923709 0.0029038 0.00788947 0.00377468 0.00732669 0.00917314 0.00125413 0.00268462 0.00645636 0.00499001 0.00677453 0.00748442 0.00528161 0.00639033 0.00309278 0.00618557 0.0102062 0.00298969 0.00206186 0.00917526 0.000721649 0.00887303 0.00154882 0.00283131 -0.00131258 0.00751428 0.00680894 0.00428111 0.0057037 0.00465429 0.00302302 0.00467635 0.00160402 -1.57671e-05 -0.00208158 0.00292306 0.00161001 0.00194181 0.00369178 0.00501945 0.00444993 0.0040195 0.00742524 0.0085935 0.00536082 0.00340206 0.00690722 0.00340206 0.00566203 0.00480077 0.00316346 0.00872379 -0.0011489 0.00184504 0.00255027 -0.00121039 0.00662953 0.00260087 0.00151829 0.00637478 0.0092795 -0.00529861 -0.00575252 -0.00701398 0.00255297 -0.00129585 0.00310684 0.00171392 0.00352407 0.00662662 0.00551117 0.00794485 0.00353224 0.000515464 0.00412371 0.00896907 0.00919136 0.00176001 0.00147413 0.00398541 0.00540748 -0.00214919 0.00605167 0.00754201 0.00272329 -0.00583253 0.00247308 0.00348906 0.0233105 0.0206353 0.0165283 0.000881248 0.00114102 -0.00123481 -0.00252037 0.00882355 0.00467694 0.0117868 0.00646314 0.0128238 0.00155491 0.000251244 0.00938144 0.00515464 0.00251938 0.00800964 0.00278416 0.00232131 -0.000935307 -0.00233416 -0.00885398 -0.010178 -0.0180815 -0.0223927 -0.0161601 -0.00710498 0.0102252 0.00674661 0.0278353 0.0272989 0.0078352 0.0157101 0.0200603 -0.0100247 0.00655814 0.0110698 0.00925454 0.0116761 0.00411773 0.00827124 0.00113402 0.00680472 0.0014682 0.00568673 0.0022041 -0.00380197 -0.00657927 0.00100597 -0.0144039 -0.0135298 -0.0260418 -0.0287704 -0.0370132 -0.0143201 0.00141215 0.0228328 0.0181328 0.0196648 0.0184533 0.0251028 0.0161556 -0.0017013 -0.00730961 0.00710876 0.00545602 0.00850564 0.00514465 0.00512836 0.00103044 0.00197827 0.0034873 0.00599398 0.00680135 -0.00212014 -0.00654394 -0.0116842 -0.00957132 -0.0096538 -0.0164516 -0.00953538 -0.0182158 -0.00373002 0.0253596 0.0134152 0.0146919 0.0114697 -0.0017415 0.0126134 0.00627657 -0.00242783 -0.00606368 0.0103751 0.00990674 0.010394 0.00676063 0.000596258 0.00651747 0.00355646 0.00954368 0.00758339 0.005381 0.00783429 0.00143059 -0.00193986 0.000884452 0.00396244 0.0129507 0.00131334 0.00188749 0.0121757 0.00808629 0.00506326 -0.01004 -0.0127105 -0.0183769 -0.0247754 -0.0111913 0.00197364 0.00533799 0.00459326 0.0132373 0.0130331 0.00750127 0.000351932 0.0053605 0.00983343 0.00401393 0.00881063 0.00542011 0.0068359 -0.00545451 -0.00301781 0.0012647 0.0157093 0.00119907 -0.00314637 0.00768997 0.00194334 -0.00149139 -0.0197435 -0.0142081 -0.0049851 -0.0129332 -0.0188949 -0.0294123 -0.0147456 0.00885588 0.011684 0.00437418 0.00657918 0.0110821 0.0029039 0.0071134 0.00806389 0.00585771 0.00489606 0.00409417 -0.000894694 -0.0134546 -0.00474097 0.000904444 0.00599592 -0.000489339 -0.015966 -0.00456425 0.000968026 -0.0187042 -0.0141082 -0.00124135 -0.00162647 0.00656484 -0.000163489 -0.010754 -0.00370183 0.00871063 0.00455291 0.009218 0.0142556 0.00567712 0.00836074 0.00927835 0.00116343 0.0002819 0.0044994 0.000949592 -0.00709217 -0.0156175 -0.0168222 -0.00739536 0.0067865 -0.0121601 -0.0330842 0.0005894 0.00481233 -0.00993733 -0.0081032 -0.00265923 -0.00189999 0.014739 0.020955 0.00462707 -0.00328104 0.0016284 0.0023561 0.00265413 0.0100035 0.00565628 0.00788986 0.00360825 0.00160945 0.0075902 0.00755916 0.00605556 -0.00732026 -0.0159111 -0.0157685 -0.0164628 -0.00187657 -0.00286929 -0.017026 -0.00530299 0.0179915 0.00638423 -0.0104321 -0.0234675 -0.0116175 0.00455029 0.0126694 0.0144149 0.00949974 -0.0144203 -0.0128457 -0.00345645 0.00905102 0.0101828 0.00418397 0.00927835 0.0011046 0.00465513 9.18171e-05 -0.00245551 -0.00770436 -0.0234852 -0.0220732 -0.00978843 -0.00911514 -0.0181138 -0.0154243 0.0231243 0.0367131 0.0210895 -0.0126136 -0.0345581 -0.0281318 -0.0154247 0.00445882 0.000804815 0.00198819 -0.0149876 -0.0159969 -0.000512615 0.00598975 0.00643639 0.00321354 0.00247423 0.0103615 0.00863464 0.00895171 -0.00191271 -0.00788578 -0.014092 -0.0194616 -0.0180454 -0.023442 -0.0225183 -0.0114714 0.0262559 0.0389764 0.0201448 -0.0116101 -0.0314567 -0.0318543 -0.0309748 -0.0214346 -0.000212722 -0.00706083 -0.021085 -0.00988712 -0.00169481 0.00836602 0.00770539 0.00175454 0.00917526 0.00279136 0.00866172 0.00247635 0.00184731 -0.00947152 -0.0101243 -0.0180177 -0.033814 -0.0355284 -0.0387485 -0.0318582 0.00968121 0.0291863 0.0209161 0.00866977 -0.0141992 -0.0331381 -0.0225937 -0.0191385 -0.0103482 -0.0126357 -0.0135269 -0.00931376 -0.00181039 0.00536751 0.00353359 0.00698513 0.00721649 0.00372624 0.00362336 0.00848118 0.0057519 -0.0104013 -0.015555 -0.0279575 -0.0346323 -0.0626372 -0.05326 -0.0289605 0.00760224 0.0253938 0.0356966 0.0293441 -0.0044548 -0.0342411 -0.007527 -0.0127528 -0.0158848 -0.0179417 -0.00815361 -0.00776 0.00408378 0.00976105 0.00353344 0.00460686 0.00402062 0.00118508 0.0065586 0.00557179 0.00766514 0.00240254 0.0117158 -0.0015833 -0.0197762 -0.0531461 -0.0720605 -0.0473866 -0.0320169 -0.00253736 0.020378 0.0421156 0.0178817 -0.00360349 -0.0169714 -0.0130873 -0.0209286 -0.01407 -0.0145653 -0.00195085 0.00391606 0.00214016 0.00170108 0.00759017 0.0071134 4.09531e-06 0.00122747 0.0097576 0.0222788 0.0197399 0.0335685 0.023084 0.000360398 -0.0358222 -0.0341763 -0.0355812 -0.0419564 -0.0251044 -0.00201558 0.0271413 0.0363676 -0.00858066 -0.0175207 -0.0113524 -0.022094 -0.0155707 -0.0138515 -0.00705105 0.00447074 0.00250231 0.00968212 0.00932763 0.00453608 8.99367e-05 0.00330359 0.00826273 0.014953 0.0303329 0.0287054 0.0143466 0.00765925 -0.0195784 -0.0164519 -0.0190166 -0.0275889 -0.0192917 -0.00951981 -0.00559102 -0.00480303 -0.00312526 -0.00276988 -0.0241549 -0.0187669 -0.0074849 -0.00286399 -0.00346364 0.00427434 0.00379254 0.000843269 0.00195303 0.00463918 0.00382633 0.0077122 0.00820873 0.0148351 0.023746 0.0295284 0.0245077 0.0202121 0.0163722 0.0136745 0.00608036 -0.00747132 -0.0108998 -0.00988695 -0.0164553 0.000954064 0.0145419 0.00790381 -0.0141645 -0.00940921 -0.00466831 -0.000579261 -0.0031829 0.00770686 0.00562886 0.00362923 0.00247423 0.00608247 0.00886598 -0.00159307 -0.000487341 0.00853155 0.005474 0.0245191 0.035278 0.0173677 0.0206048 0.0198889 0.037351 0.0132352 0.00999186 0.00923053 -0.0084986 -0.0121779 -0.00819749 -0.00740238 -0.0115534 -0.000749693 -0.00176999 -0.000789282 0.00757116 0.00862472 0.00743535 0.00378154 0.00164948 0.00350515 0.00948454 0.0050592 0.00160885 -9.19762e-05 -0.0106768 -0.00271438 0.00806733 -0.00341019 0.00584892 0.030091 0.0597557 0.0258113 0.0251185 0.0180824 -0.00247338 -0.00267259 -0.00407879 -0.0106746 -0.00764654 -0.00255886 0.0018816 0.00400059 0.000375973 0.0066808 0.000628553 0.000623387 0.00268041 0.00206186 0.00731959 0.00639656 0.00607408 -0.00133277 0.00465362 0.000858171 -0.00151075 -0.00881659 0.00290828 0.0218469 0.0176656 0.00654985 0.0255898 0.0222213 0.0100928 0.012527 -0.00296961 -0.0119378 -0.00501716 -0.00357999 0.00153386 1.74146e-05 0.00575772 0.00292415 0.0062889 0.00759946 0.00659794 0.00773196 0.00123711 0.0031257 0.00341216 -0.00099106 -0.000854495 0.000371995 0.00418004 -0.00290556 0.000294965 -0.0167624 -0.00812907 0.00464309 -0.00371142 -0.0160026 -0.0157304 -0.00879657 -0.00351748 -0.0026456 -0.00619977 -0.00112832 -0.000293822 -0.00415289 0.0074709 -0.000381738 0.00348189 0.00967744 0.0043299 0.00731959 0.00474227 0.0102904 0.00258181 0.00398491 0.00952441 0.00417341 0.00811593 0.0112231 0.00201928 0.00334735 -0.00516334 0.00718856 -0.00144128 -0.00339042 0.000626935 0.00779111 0.0103808 0.000583609 0.0023447 0.00277743 0.00279203 0.00461988 0.00769522 0.00873808 0.00802177 0.00514053 0.00886598 0.00546392 0.00608247 0.00752577 0.00824893 0.000398297 0.00713387 0.0108015 0.00392804 0.00360292 0.00556666 0.00966527 0.00442975 0.0100733 0.00282947 0.00821489 0.0100882 0.0068646 0.004591 0.00904698 0.00719022 0.00450803 0.00162751 0.00116214 0.00628204 0.00824835 0.00989691 0.0042268 0.00876289 0.00494845 0.00443299 0.00597938 0.01 0.00463918 0.00462791 0.00940257 0.000369958 0.00413839 0.0080026 0.00285677 0.0100564 0.00659801 0.00438026 0.00770927 0.0024938 0.00590735 0.00661846 0.00476036 0.00828184 0.0059376 0.00222704 0.00934562 0.00925426 0.00886598 0.00865979 0.00226804 0.00793814 0.00865979 0.00814433 0.00195876 0.000103093 0.00886598 0.00123711 0.0042268 0.00886598 0.00876289 0.00226804 0.00876289 0.00453608 0.00123711 0.0028866 0.0014433 0.00773196 0.00494845 0.00474227 0.00154639 0.00195876 0.0071134 0.00793814 0.00525773 0.00804124 0.00484536 0.00123711 0.00505155 0.000824742 0.00371134 0.00969072 0.00927835 0.00742268 0.000618557 0.000618557 0.00303023 0.00475916 0.00805218 0.00200986 0.00643038 0.00628315 0.00565559 0.00459844 0.00954718 0.00333301 0.00834156 0.00698635 0.000401927 0.0035015 0.00545456 0.00212913 0.00277324 0.00680393 0.00752577 0.00556701 0.00597938 0.00628866 0.00773196 0.00536082 0.00463918 0.00216605 0.00866017 0.00409786 0.000544697 0.009417 0.00861658 0.0063839 0.00892739 0.00544085 -0.00136492 -0.000275897 0.00182018 0.00115867 0.0037601 0.00887447 0.0029167 0.000270227 0.00795671 0.00715612 0.00174615 0.00956077 0.00245383 0.00535472 0.000515464 0.00350515 0.00340206 0.00195876 0.00484707 0.00845876 0.000616374 0.00284364 -9.58027e-05 0.00353499 0.00715165 0.00174586 0.00468473 -0.00322842 0.00405847 0.00435291 0.00220846 -0.00317934 0.00266772 0.00358955 0.00197837 0.00919057 0.00771394 0.00420558 0.00747778 0.00562273 0.00789251 0.00129209 0.0082532 0.00309278 0.0043299 0.00195876 0.00784091 0.00351073 3.02833e-05 0.00177227 0.00139073 0.00561652 0.00018306 -0.00277935 0.00254145 0.00133133 0.0071607 0.000278702 0.00899934 0.00343117 0.00851526 0.00156838 -0.0174812 -0.0124702 0.0057296 0.00425047 0.00443367 0.00822322 0.009516 0.00548259 0.00318744 0.00152323 0.00494845 0.00824742 0.00319669 0.00607839 0.0094024 0.00451648 7.10564e-05 -0.00419385 -0.00806973 -0.00628185 0.00540815 0.0111765 0.0127676 0.0138318 0.0171784 0.0185898 0.0147421 -0.00162969 -0.0148197 -0.0167281 -0.00290911 0.00134557 0.00507676 -0.000505802 0.00955051 0.0101337 0.00740423 0.00264503 0.00969072 0.00845365 0.00475345 0.000261799 0.00706266 0.0031147 0.00429798 -0.00493658 -0.00913329 0.00687552 0.0181403 0.0317065 0.0187176 0.018869 0.0178565 0.0114793 0.0108599 -0.000875053 -0.00448649 0.000100357 -0.00486247 -0.0070325 0.00548119 0.00502525 0.00373511 0.00167091 0.00928818 0.00251107 0.00164948 0.00167759 0.00192221 0.00308341 0.00306242 -0.0016245 0.00944021 0.00534256 0.0103237 0.0205221 0.0214621 0.0142147 0.00746733 0.00406996 -0.00364054 -0.00702735 -0.00637187 -0.0084319 0.00221109 -0.0032895 -0.0061673 -0.00421994 0.0020228 0.00254739 0.00553461 0.00110886 0.00730007 0.00748186 0.00372072 0.00339084 0.00911139 0.00399798 0.00539409 0.000589409 0.0173873 0.00887189 0.0101977 0.0160525 0.00301698 -0.00421006 -0.00852626 -0.00224864 -0.00561352 -0.00310082 0.00570179 -0.0136801 8.60662e-05 -0.0022405 -0.00905415 -0.00139428 0.00912033 -0.00184365 0.00329442 0.00647658 0.00435723 0.0015222 0.00845361 0.00276721 0.00211469 0.00748186 0.00629372 0.00596687 0.00879276 0.00392202 0.00684196 0.00975326 -0.00405861 -0.0219696 -0.0202901 -0.0151648 -0.016423 -0.00329672 -0.00896859 -0.0133683 -0.00628165 0.00650533 -0.00722049 -0.00566814 0.00789725 0.00806287 0.00804578 0.00476277 0.00194225 0.00926146 0.00907216 0.00698942 0.00662996 0.00341783 0.0136368 0.00986661 0.00603432 -0.00481732 0.0079155 0.0104209 -0.00649227 -0.00947858 -0.0159527 -0.015791 -0.0120813 -0.00969203 -0.0158459 -0.024406 -0.00307439 0.00472675 0.00138908 0.00168346 0.006089 0.00490252 0.004855 0.00388342 0.00309868 0.00178279 0.00175258 0.00111221 0.00385459 0.00609876 0.0154349 0.00265187 -0.000930678 -0.0066407 0.00861343 0.00759932 -0.00968637 -0.0183325 -0.0118537 -0.0070465 -0.00433409 -0.0191066 -0.022119 -0.0179552 0.00106635 0.00716064 -0.00133386 -0.00329334 0.00221168 0.00848594 0.00435149 0.00454103 0.00330219 0.0035461 0.000618557 0.00903656 0.00410651 0.00563747 0.0193207 0.00676182 -0.00325166 -0.00266094 0.00645188 0.0030614 -0.017791 -0.0193373 -0.000339564 -0.00140854 -0.015791 -0.0179767 -0.0187128 -0.0186268 -0.00386882 0.00989814 -0.00618721 -0.00392783 0.000116999 0.00327771 0.00459322 0.00746724 0.000835729 0.00761211 0.00917526 0.00566822 0.00101378 0.0041362 0.0085356 0.0139071 0.00556068 0.00605935 0.00394233 -0.00813206 -0.00639737 -0.00386566 0.00215843 -0.00580573 -0.005345 0.00669064 -0.00593667 -0.0151901 -0.00656368 0.00390986 -0.0110422 -0.00935022 -0.00196629 0.00533311 0.00159983 0.00120696 0.00318576 0.00151457 0.00628866 0.0097006 0.00297523 -0.000702855 0.00182067 0.0112057 0.0129998 -0.00323759 7.43353e-05 -0.00260896 0.00699016 0.00254036 0.0111368 0.000445803 0.00794078 0.00707308 -0.00303793 -0.0155546 -0.0123204 -0.016682 -0.0235889 -0.0252619 -0.00730014 -0.00107247 -0.00250695 0.00120317 0.00989022 0.00999646 0.00762887 0.00743853 0.00137283 -0.00105253 0.00491045 -0.00053251 -0.00639974 -0.004198 -0.00398355 0.00746742 0.000791671 0.00150034 0.0141201 0.0137549 0.018851 0.0211986 0.0141306 -0.00852156 -0.00632447 -0.0121154 -0.0149189 -0.0203061 -0.00997562 -0.000516378 0.00672489 0.00744883 0.00676444 0.0028275 0.0056701 0.00124846 0.00705315 0.00477476 0.000726592 -0.00768973 -0.0173576 -0.00292791 -0.0118432 -0.00177199 0.00524195 0.00332515 -0.000766498 0.00672025 0.0115761 0.0114892 0.0122938 0.0031908 0.00339739 -0.00629915 -0.00892992 -0.0183198 -0.0035988 0.00166866 -0.00339572 0.0037263 0.00583782 0.00732587 0.00783505 0.00938425 0.00975756 0.000139157 0.00540743 -0.0015315 -0.0081403 -0.0140413 0.00684689 0.000721748 -0.00825603 -0.0125258 -0.00113836 0.00712068 0.0175966 0.0169885 0.02096 0.0210988 -0.00119535 -0.00368287 -0.0012408 -0.00497999 0.00589454 0.00260699 -0.00490821 0.00583836 0.00797944 0.00959199 0.00134021 0.00257732 0.00482869 0.00309311 0.0045804 0.00301679 -0.00860093 -0.016156 -0.00563405 0.00749569 -0.00417424 -0.00706204 -0.00657071 0.00375966 0.0137416 0.013745 0.00860662 0.00257536 0.00174689 0.00308825 0.00552308 0.00242218 0.000219251 0.00179551 -0.00353768 0.00611838 0.00479923 0.00323436 0.00443299 0.00400691 0.00414596 0.00749367 0.00487012 -0.00592946 -0.00430777 -0.0167178 -0.0104196 0.00677987 -0.00512564 -0.010276 -0.00607468 -0.00829295 -0.00168084 0.0056905 -0.00535515 -0.00811403 0.000967553 0.0137404 0.0132268 0.00107276 0.00728185 0.00594174 0.00389024 0.00190126 0.00231758 0.00133025 0.0042268 0.00454678 0.00506701 0.00387176 0.00251345 -0.00159223 -0.00927647 -0.0199891 -0.00663737 -0.00592288 -0.0131233 -0.0231456 -0.0196717 -0.022659 -0.011767 -0.0131506 -0.0214787 -0.0244247 0.00288066 0.0156836 0.0161916 0.00719519 0.00856731 0.00473953 0.00412511 0.00437011 0.00489297 0.0043299 0.000309278 0.00989691 0.00907125 0.00184915 0.00790479 0.00502819 0.0023455 -0.00612896 -0.017034 -0.0140055 -0.0118597 -0.020655 -0.0280036 -0.0190453 -0.0158601 -0.0213482 -0.0149608 -0.00888595 0.000554036 0.00801501 0.019565 0.00898733 0.0133023 0.00357498 0.0132382 0.0136174 0.00958347 0.000721649 0.00381443 0.000206186 0.00893943 0.00261088 0.0117562 0.0051659 0.00519376 0.012551 -0.00186645 -0.00348681 -0.0176456 -0.0217533 -0.0108106 -0.0226249 -0.0246241 -0.020911 0.00445253 0.0136534 0.013935 0.00731168 0.0252729 0.00946815 0.00261549 0.0172228 0.0064144 0.0128538 0.00697428 0.0028866 0.00402062 0.000927835 0.00550188 0.00907563 0.0125605 0.00375521 0.0111479 0.0115549 0.00458921 0.00920363 -0.00354475 -0.0183742 -0.0152508 -0.0170074 -0.00808826 0.00824169 0.0227778 0.0269566 0.019027 0.00857589 0.0179184 -0.000244236 0.00218336 0.0127964 0.0119897 0.0110859 0.00476483 0.00206186 0.00649485 0.00556701 0.00636399 0.00519029 0.00535357 0.00126982 0.000372876 0.0039871 0.0106394 0.00256564 0.00782063 -0.000485034 0.00460951 0.00735729 0.0030108 0.0111999 0.0162691 0.0160689 0.0133569 0.00913981 0.00448267 0.00210557 0.00956054 0.00229666 0.00645279 0.0093838 0.00261396 0.00319588 0.0057732 0.00237113 0.00145129 0.00358416 0.00615763 0.000648847 0.00956565 0.00632427 0.00779931 0.0026515 0.00319357 0.00436666 0.00965939 0.0126655 0.0144764 0.005582 0.00868153 0.00492199 0.00351236 0.0189986 0.0141819 0.00621353 0.00420969 0.00705307 0.00855572 0.00602408 0.00116651 0.00886598 0.00298969 0.00278351 0.0102062 0.00732096 0.00235163 0.00462728 0.0066179 0.00125271 0.00724348 0.00814397 0.00334099 0.00681279 0.00924773 0.010485 0.00590441 0.0099091 0.00471038 0.0110854 0.0101296 0.0110243 0.00218606 0.0119777 0.00926199 0.00816389 0.00248363 0.000515464 0.00927835 0.00505155 0.00381443 0.00670103 0.000618557 0.00216495 0 0.0058763 0.00826519 0.00303483 0.00495989 0.00206478 0.0113032 0.0025968 0.00677188 0.0025569 0.0108525 0.00242692 0.00730547 0.000331523 0.00338613 0.00973951 0.00976921 0.00190578 0.0101005 0.00699883 0.00814433 0.00505155 0.00793814 0.00670103 0.00546392 0.00731959 0.000824742 0.0014433 0.00494845 0.00494845 0.000206186 0.00175258 0.00896907 0.0071134 0.00123711 0.00268041 0.00454778 0.00229364 0.000103093 0.0056701 0.00948454 0.00103093 0.00896907 0.00381443 0.00319588 0.00453608 0.00536082 0.00907216 0.00278351 0.00268041 0.00886598 0.0056701 0.00845361 0.00319588 0.00938144 0.00804124 0.00381443 0.0102062 0.00141968 0.00193469 0.00658279 0.00248435 0.00670309 -0.00109935 0.00224406 -0.000799784 0.00306534 0.00127468 0.00311932 0.00631533 0.0100053 0.00274437 0.0071397 0.00582744 0.00553573 0.0037089 0.00113402 0.0057732 0.00278351 0.0057732 0.01 0.00113402 0.00721649 0.00238296 0.00660201 0.00188361 0.00727269 0.000285328 0.00693735 0.00712585 0.00554765 0.00378808 0.00576639 0.0131589 0.00772739 0.0116866 0.0108867 0.00384718 0.00548227 0.00263354 0.00281803 0.000426277 0.00332071 0.0012888 0.000500275 0.00130382 0.00484536 0.00350515 0.00484536 0.00247423 0.00908172 0.00137632 0.00353635 0.000270492 0.00696373 0.00177323 -0.00140537 0.00591513 0.0031139 -0.02613 -0.0301615 -0.0315341 -0.0150164 -0.0163564 0.00451467 0.00751566 0.00756153 0.0203565 0.00529908 0.00675252 0.00859469 0.00700495 0.00473714 0.00448038 0.00316503 0.00721649 0.00226804 0.00237113 0.00508425 0.00122106 0.00946559 0.00915442 0.00432045 0.00576245 -0.00342282 -0.00333775 -0.00924646 -0.0255188 -0.0134709 -0.00529315 0.00193763 -0.0010979 0.0231573 0.0164621 0.0107403 0.0170895 0.0200185 0.00959524 0.00340659 0.00456205 0.00310573 0.00256423 0.00297587 0.00518819 0.00371134 0.0043299 0.00258186 0.00927411 0.0118474 0.0119442 0.00494767 0.00544884 -0.0208188 -0.0185887 -0.0207811 -0.00613679 0.000976468 -0.0258257 -0.0296897 -0.0110537 0.0182255 -0.00972526 -0.0194434 -0.00199093 0.00373978 0.0203158 0.0069319 0.00118332 -0.00166744 0.00673702 0.00238289 0.00278116 0.00886598 0.0038141 0.00262392 0.00851167 0.00687205 0.00473164 -0.00584936 -0.00937064 -0.0164275 -0.0390813 -0.0330224 -0.0263761 -0.000637749 0.0110405 -0.00317285 -0.0291383 -0.00081648 -0.00485797 -0.0362523 -0.0186936 -0.0185712 -0.015579 -0.00448819 0.00144337 -0.00174812 0.00160789 0.00820357 0.00900508 0.00463917 0.00983754 -0.00229657 0.00204906 0.00352719 -0.0112719 -0.0299178 -0.0237779 -0.0217693 -0.0313407 -0.0291969 -0.0216703 0.00488087 0.0265045 0.0256909 0.005648 0.00200104 -0.00988251 -0.0320489 -0.0421518 -0.0186131 -0.00995869 0.00235748 -0.00480179 -0.00591677 0.00375119 0.00850194 0.00225575 0.00571417 0.000896928 0.00112633 0.00660934 0.00704717 -0.00371405 -0.0118675 -0.0143713 -0.0115763 -0.00769925 -0.000722655 -0.0314403 0.0249572 0.0278004 0.0285496 0.00542124 0.000680986 -0.020346 -0.0380583 -0.0217157 -0.013535 -0.0156199 -0.0105736 -0.00459682 0.00145832 -0.00354284 0.00568994 0.00719791 0.000618553 0.00655721 0.00822053 0.00972114 0.0079739 0.00781098 -0.00293398 0.023844 0.0191969 0.0242553 0.0316904 -0.00549885 0.0150051 0.0218878 0.033801 0.0213063 -0.000675909 -0.0295005 -0.0230321 -0.0242407 -0.0197155 -0.0192912 -0.0128636 -0.00805911 -0.000498036 0.00440007 0.00459734 0.00145089 0.00618557 0.0080085 0.00172737 0.00618605 0.00384978 -0.000276677 0.0139393 0.0124933 0.00891159 -0.00440936 0.0106957 -0.00669155 -0.00340323 0.00181931 0.0162328 0.0204199 0.00806182 -0.0230069 -0.0221922 -0.0076198 -0.0211086 -0.0214204 -0.0121244 -0.00101529 -0.00234631 -0.00179701 0.0016629 0.00771135 0.00886598 0.00655781 0.00366074 0.00566538 0.00444895 0.00216966 0.00658714 -0.00729514 -0.0199283 0.00717878 0.015265 0.00306611 -0.0436627 -0.0174657 0.020761 0.00834438 0.0238895 -0.0181891 -0.0263874 -0.00505503 -0.0145981 -0.0163295 -0.00468335 -0.00545028 -0.00426358 0.00464886 0.00645047 0.00621281 0.00969072 0.000373594 0.00865124 0.00263631 0.00417418 0.00757548 -0.00107504 1.25606e-05 0.00989431 0.0310786 -0.00100692 -0.00064996 -0.048413 -0.0417507 -0.0110182 -0.0115314 -0.00943523 -0.0133871 -0.0291643 -0.0139157 -0.0220647 -0.0208663 -0.0166478 -0.00742632 -0.0053224 0.00751312 0.00777022 0.00854743 0.00268041 0.00725103 0.0074493 0.00132368 0.00299054 0.00313946 0.000553977 -0.0107201 0.00207735 0.00551322 -0.0106688 -0.0223283 -0.0756244 -0.0480312 -0.0154631 -0.00202994 -0.00705473 -0.0068872 -0.0128966 -0.0298326 -0.0385732 -0.0226452 -0.00841772 -0.0072725 -0.00901299 0.00859238 0.00197713 0.000227422 0.00680412 0.00439754 0.00818706 0.00869775 0.00343361 -0.0100728 -0.0179784 -0.0180586 -0.0205295 -0.0143256 -0.029388 -0.0333447 -0.0523236 -0.0420005 -0.00118983 -0.00770174 0.0102913 0.0039701 -0.0197769 -0.0452677 -0.0414438 -0.0368838 -0.0184281 -0.0116087 -0.0090984 0.00181136 0.00909585 0.00587865 0.00340206 0.000699268 0.00494246 0.0082459 0.00163012 -0.0194058 -0.0201483 -0.0255216 -0.0150279 -0.0137097 -0.0592698 -0.0495455 -0.0536686 -0.0111064 0.00790288 -0.00850025 0.00218945 -0.012829 -0.0294212 -0.0674962 -0.0548563 -0.0344173 -0.027223 -0.0273175 -0.00117964 0.00885853 0.00516223 0.00892223 0.00979381 0.00878615 0.000780142 0.00280002 0.00590096 -0.0211655 -0.0213629 -0.0291014 -0.0366299 -0.0319815 -0.0515168 -0.0594206 -0.0417019 -0.015904 0.0364825 -0.013591 0.00644339 -0.0394765 -0.0575084 -0.0448689 -0.0426306 -0.0300455 -0.0204291 -0.0177665 -0.00541623 0.0166961 0.00567882 0.00557601 0.00773196 3.49765e-05 7.72824e-05 -0.0024017 0.0020452 -0.0215782 -0.0237084 -0.0366581 -0.0375206 -0.0316829 -0.0396437 -0.0600454 -0.0227105 0.0121428 0.0496391 -0.000239539 -0.00890915 -0.0528282 -0.0515622 -0.0370234 -0.0336461 -0.0225081 -0.0168451 -0.0134045 -0.000602777 0.0135911 0.00866175 0.000691217 0.00113402 0.00525457 0.00420746 0.00269476 0.00575866 -0.0247585 -0.0276549 -0.0329909 -0.0260523 -0.0209405 -0.0563549 -0.0643883 -0.0365807 0.025508 0.0300917 -0.0036975 -0.0215956 -0.0376935 -0.0240545 -0.0198088 -0.0100026 -0.0131415 -0.00376574 0.00240218 0.0168286 0.0117193 0.00497219 0.00896751 0.00329897 0.000676989 0.00614602 -0.000758915 -0.00281978 -0.0289067 -0.0377907 -0.0440737 -0.0345799 -0.0224666 -0.0478421 -0.0178066 -0.0159207 0.0376085 0.0278743 0.00940968 0.00305383 -0.0095111 0.00659765 0.00904976 0.0094865 0.0151806 0.015259 0.0183247 0.0171147 0.0093965 0.00400021 0.0078486 0.00123711 0.00708389 0.00739962 0.00134686 0.00229747 -0.0127773 -0.0317592 -0.0260368 -0.0290203 -0.0228739 -0.0121428 0.0109826 0.0453182 0.0291085 0.0351899 0.0424448 0.0429677 0.0449177 0.0547384 0.0501829 0.0190901 0.0233598 0.0256851 0.0361939 0.019539 0.0114044 0.00284909 0.00814433 0.00865979 0.000309278 -7.18515e-05 0.00424159 0.0176564 0.0335971 0.0278093 0.0258864 0.0210082 0.0167204 0.0284861 0.0255292 0.0274933 0.0542431 0.0490769 0.0616494 0.0524654 0.045416 0.0790163 0.0620897 0.0320133 0.0396967 0.0254193 0.0266409 0.0187739 0.0182485 0.00156993 0.00938144 0.00268041 0.00608247 0.0097864 0.00766795 0.0183191 0.0409788 0.040974 0.0284441 0.0347945 0.0237512 0.00877585 0.0116611 -0.00347316 0.0354848 0.0342513 0.0379456 0.0103607 0.00345437 0.031559 0.0193648 0.0173946 0.0232037 0.0210568 0.0148682 0.0101848 0.00691719 0.00553786 0.000309278 0.00515464 0.0028866 0.00490147 0.000700578 -0.00297676 0.00360952 0.00682619 0.0026964 -0.0160201 -0.00969525 -0.027838 -0.0313348 -0.00251968 0.0206637 -0.00135592 -0.000720131 0.00426401 -0.00255997 -0.00892691 -0.0140032 0.000266899 0.00942391 0.00893272 0.0161321 0.00447613 0.00560793 0.00548892 0.00814433 0.00587629 0.0101031 0.00563004 0.00702874 0.00394915 0.00104516 -0.00958879 -0.0224497 -0.0237114 -0.0242961 -0.0474201 -0.0653171 -0.0699528 -0.0532764 -0.0318053 -0.0226161 -0.0151819 0.00618331 0.0233183 0.0171162 0.0230976 0.0134082 0.00665545 0.0113846 0.00832322 0.00526871 0.00341811 0.0056701 0.00412371 0.00989691 0.00119698 0.0085395 0.00605075 0.00171931 0.000385807 -0.000752672 -0.00577089 -0.0226613 -0.0326108 -0.0415729 -0.0471319 -0.0382583 0.00238947 -0.0181544 -0.00890763 0.0104402 0.0110486 0.0128453 0.00456282 0.00706641 0.00234887 0.00594732 0.000540736 0.00254827 0.00897258 0.00762887 0.00762887 0.00752577 0.00989691 0.0060815 0.00480648 0.00299581 0.00691267 0.00120614 0.00744923 -0.00128466 -0.00449034 0.000248865 -0.0065481 0.00166481 -0.00869144 0.00200925 0.00436105 0.00164874 0.00248602 0.00750446 0.00403746 0.00219159 0.00307993 0.00249683 0.00763412 0.00278351 0.00268041 0.00597938 0.00123711 0.00463918 0.00484536 0.00721649 0.00381443 0.00700994 0.00879934 0.00154646 0.00934286 0.00191667 0.0103544 0.000382153 0.00476847 0.0048994 0.00397089 0.00370476 0.00602665 0.000373851 0.00281835 0.00823557 0.0047394 0.000846687 0.00567582 0.00196656 0.00247423 0.00484536 0.00865979 0.00721649 0.00814433 0.00587629 0.00453608 0.000927835 0.00783505 0.0043299 0.00938144 0.00154639 0.00628866 0.00752577 0.00134021 0.00917526 0.000823074 0.00721284 0.00835052 0.00886598 0.00556701 0.00639175 0.000927835 0.00402062 0.00391753 0.0056701 0.00690722 0.00350515 0.00721649 0.00154639 0.00649485 0.0056701 0.00556701 0.0014433 0.00453608 0.000721649 0.00608247 0.00185567 0.00235818 9.71795e-05 0.00795954 0.00671784 0.0033689 0.00912119 0.000525299 0.00337981 0.000994149 0.00666731 0.00209246 0.00413864 0.00229766 0.00725596 0.00158228 0.00409319 0.00307721 0.00721631 0.01 0.00649485 0.00278351 0.00505155 0.00226804 0.00195876 0.00917526 0.000101218 0.00979317 0.00836436 0.00209136 0.00612928 0.0071015 0.00603988 0.00719192 0.00385192 -0.00353973 0.00561993 0.00238343 -0.00401166 -0.00022999 0.0057508 0.00118261 0.000290435 0.00639756 0.00110824 0.00985738 0.0057665 0.00297401 0.004218 0.00453608 0.01 0.000309278 0.000927835 0.0014428 0.00638818 0.00953768 0.00474311 0.00303654 -0.00100038 0.00601006 0.00332508 -0.00133851 -0.000562591 -0.00134174 -0.00521878 -0.0077597 -0.0052326 -0.00746752 0.00151499 -0.00147871 -0.00084145 0.00239838 0.00500809 0.00492575 0.00669239 0.00654273 0.00206883 0.0054871 0.000309278 0.00298969 0.00515464 0.00236941 2.70184e-06 0.0051974 0.000815137 0.00609535 0.00147414 -0.00405884 0.00155513 -0.00339858 -0.00696981 -0.00246561 -0.010671 -0.00711183 -0.00479621 -0.0112407 -0.00579229 0.00304113 0.00134225 0.00471829 0.00976739 0.00182042 0.00247904 0.00965113 0.000397827 0.00987187 0.0017368 0.00762887 0.00752577 0.00278327 0.000913352 0.00381358 0.00286913 0.000615273 0.000780226 0.00326666 -0.0040595 -0.0120985 -0.0101155 -0.0149653 -0.0141265 -0.00869286 -0.0102439 -0.0170407 -0.0109801 -0.00736122 -0.0119843 -0.0024174 -0.000964058 0.00198636 0.00109958 0.00158736 0.00264361 0.00503601 0.000706978 0.0042268 0.00412331 0.00713183 0.00958686 0.0074709 0.00241045 -0.00243719 -0.0204445 -0.0152235 -0.0173589 -0.0179876 -0.0252879 -0.016975 -0.0177539 -0.0186255 -0.0196989 -0.0294005 -0.0225216 -0.00895133 -0.0102261 -0.0175779 -0.00862698 0.0040449 0.00109594 0.00278839 0.00259073 0.00853948 0.00373201 0.0077328 0.004395 0.0102051 0.00107237 0.00673347 -0.00240171 -0.00934578 0.00188972 -0.00520792 -0.0172463 -0.0328668 -0.0323783 -0.0351867 -0.0414518 -0.0333282 -0.0382097 -0.0250508 -0.0209353 -0.0087482 -0.0251736 -0.0290162 -0.0164142 -0.000942082 0.0100308 0.00229978 0.00257132 0.00777481 0.00546212 5.094e-05 0.0078624 0.00215328 0.010752 0.0100652 -0.000861945 -0.00121032 0.00057155 -0.0265596 -0.0190319 -0.0194699 -0.0243116 -0.0266025 -0.0414768 -0.0476597 -0.039241 -0.0392988 -0.0181955 -0.0134415 -0.0282301 -0.0306313 -0.0213531 0.000487649 0.00955969 -0.00204628 0.00830147 0.00801048 0.00367884 0.000619116 0.00782855 0.00341564 0.0112737 0.0102373 0.00237939 0.0176035 -0.0161989 -0.0262037 -0.0119861 -0.0167219 -0.0153416 -0.0270251 -0.045714 -0.0338063 -0.0381617 -0.0314645 -0.0237226 -0.0011631 -0.0168792 -0.0266365 -0.00895512 -0.00439294 0.00850798 0.013157 0.008008 0.0113573 0.00255996 0.00845361 0.00790552 0.0110696 0.015285 0.00953018 0.019141 0.0242732 -0.0131698 -0.00740043 0.00765249 0.0157927 0.00174843 -0.00115171 -0.0110164 -0.0151546 -0.010052 -0.0123993 -0.0077761 0.00942001 -0.00259575 0.0108896 0.0195797 0.0243733 0.0109689 0.00598155 0.00432105 0.00446249 0.00223764 0.00525773 0.00534618 0.0139826 0.0199256 0.027965 0.0356883 0.0121785 0.00150149 -0.000437307 0.0131408 0.0199375 0.0124804 0.0166002 0.0242936 0.0218363 0.019782 0.0203427 0.0192889 0.0239477 0.0206736 0.0162768 0.0186666 0.0217135 0.0109604 0.00405296 0.00877469 0.00208338 0.00899431 0.00350515 0.00966028 0.0089072 0.0259035 0.0387866 0.0363677 0.000285687 0.00890903 0.0246653 0.0344633 0.0160126 0.0306901 0.0270462 0.0199859 0.0229057 0.0497703 0.0602484 0.044122 0.0394671 0.0214656 0.0179944 0.0104768 0.0164151 -0.00178751 -0.0025446 0.00254868 0.0105555 0.00900341 0.0071134 0.00782416 0.00589215 0.00884115 0.0358065 0.0277539 -0.000412193 -0.0186825 0.00655705 0.0113658 0.0141482 0.0276158 0.0207561 -0.000122571 0.0153985 0.0220512 0.0120774 -0.000176138 0.0181438 0.00986111 0.0269901 0.0133914 0.0128078 -0.00448758 0.00540678 0.00736686 0.00711426 0.00164088 0.000824742 0.00510398 0.0107288 0.00950192 0.0230014 0.00742614 -0.0196208 -0.025982 -0.00755637 -0.00302931 -0.00969613 -0.0074683 -0.0138234 -0.0171795 -0.0151469 -0.013094 -0.0234928 -0.00676782 -0.00410148 0.00800822 0.00893331 0.0127962 0.0141864 0.00670406 -0.00371596 0.00693008 0.00583886 0.00216399 0.00587629 0.00370359 0.0112297 0.0155106 0.00713554 -0.00397856 -0.00657178 -0.00566611 -0.00900652 -0.0192384 -0.0106214 -0.00101805 -0.00196307 -0.0113077 -0.00336695 -0.00533262 -0.0232851 0.00276736 0.00147393 0.00100827 0.00808597 0.0144881 0.0141272 -0.000372522 -0.00366445 -0.0018243 0.00842837 0.00921205 0.00536082 0.00844628 0.0086939 0.0113396 0.0140088 0.00430313 0.00337594 0.00157153 -0.00317787 -0.0140514 -0.0190389 -0.0124057 -0.00421671 0.00867391 0.017756 0.0220885 0.00441493 0.00135215 0.00953905 0.0156138 0.0155719 0.0237028 0.0228647 0.00639377 0.001443 0.000282597 -0.00031515 0.00622357 0.0056701 0.00546288 0.00104993 0.00641789 0.0106032 0.00873701 0.00952573 -0.00161819 -0.0176391 -0.0179708 -0.0213149 -0.0198756 -0.0118711 0.00576833 0.000953526 0.0086691 0.000685296 -0.00260367 -0.00458448 -0.00563285 0.0131611 0.00593506 0.0081502 -0.00323235 0.00518316 0.00633485 0.000633499 0.00273619 0.0071134 0.0029898 0.00944732 0.00171142 -1.78866e-05 0.0050851 -0.00293255 -0.0021297 0.00248927 -0.0107701 -0.0149184 -0.0137276 -0.00366272 -0.00789918 -0.00334424 -0.00487118 -0.0160527 0.00275922 -0.023739 -0.0172186 0.002436 0.00137233 -0.00934758 -0.00667219 0.0010991 0.00199901 0.00374276 0.00419321 0.0071134 0.00795523 0.00077546 0.00745749 0.00498909 -0.000503246 -0.00200002 -0.00875525 -0.00764588 -0.0146708 -0.0124541 -0.0106891 0.000710282 -0.00239576 -0.00664924 -0.0229966 -0.015813 -0.00317426 -0.0197013 -0.00413738 -7.75525e-05 -0.0172729 -0.0142957 -0.0103885 -0.000774032 0.00542729 0.00075761 0.00895802 0.00340206 0.0053319 0.00902871 0.0010514 0.00118925 -0.00533648 -0.00775897 -0.00456489 -0.000779639 -0.00522959 -0.00739193 -0.00671518 0.000114605 -0.00191354 -0.0119836 -0.0189088 -0.0185826 -0.00421926 -0.00171489 -0.000975469 0.00114151 -0.0169309 -0.0147056 -0.00441815 0.00425317 0.00353112 0.00401951 0.00556701 0.00381443 0.000721649 0.00443113 0.00259125 0.00266636 0.00321102 0.00120029 -0.00834387 -0.00503599 -0.00867458 -0.00218027 -0.0113567 -0.00649302 -0.00550171 -0.014217 -0.0177151 -0.00358701 0.0109097 0.000639452 -0.00870386 -0.00947862 -0.0092846 -0.0148162 0.00494088 0.00605701 0.00746113 0.00326069 0.00876289 0.00391753 0.00536082 0.00289332 0.00758252 -0.000562541 -0.00198975 -0.00548536 -0.00456681 -0.00246508 -0.00376307 -0.00270643 -0.0158473 -0.0110971 -0.0194727 -0.0134328 0.00888393 -0.00572568 0.00730556 0.00260335 -0.00516042 -0.00356776 -0.0103279 -0.0101528 0.000858919 0.00377259 0.0092124 0.00303161 0.00546392 0.00103093 0.00752577 0.00673995 0.00591514 0.00253621 0.00948042 0.0043379 -0.00256049 -0.0044064 -0.00869958 -0.0112497 -0.0207131 -0.00254936 -0.00918395 -0.00395539 0.00563964 -0.00678118 0.00112627 -0.00174644 -0.00348708 -0.00735982 -0.0123249 -0.010718 0.00442248 0.00631522 0.00398247 0.00567452 0.00247423 0.00134021 0.00762887 0.00114868 0.00311689 0.009695 0.00734122 0.00162485 7.37263e-05 0.00277953 -0.0170087 -0.00877024 0.00199544 5.38254e-05 0.00546417 -0.00411955 -0.010274 -0.00480013 0.00073798 -0.00901291 0.00321661 -0.00871516 -0.00933571 0.00250809 0.00195018 0.00958251 0.00122381 0.00288171 0.00907216 0.00412371 0.00618557 0.00843288 0.00735389 0.00104928 0.00291936 0.00199304 0.0042542 0.000286283 -0.00693051 0.000677369 0.00628043 0.0104319 0.00587444 0.00680683 0.00601718 0.0119415 -0.00758875 -0.00496172 0.01271 0.0047652 0.000504248 0.00394401 0.000143413 0.00704837 0.00617493 0.00339784 0.00814433 0.00876289 0.00721649 0.00453608 0.00917286 0.0036862 0.00221564 5.83963e-05 0.00253035 0.00800232 0.0072456 0.00638599 0.00251669 0.00628229 0.00426393 0.00569205 0.00206606 0.0034501 -0.00138598 0.00756105 0.0146981 0.00332842 0.00240322 0.00430322 0.0026991 0.0011281 0.00494845 0.0028866 0.00742268 0.00237113 0.00134021 0.00783505 0.000618557 0.00154639 0.00711499 0.00321577 0.00588899 0.00710134 0.00158131 0.00844101 0.00250934 0.00591549 0.0100174 0.00991798 0.00937502 0.0065181 0.00722977 0.00968138 0.00303907 0.00360522 0.00990847 0.011416 0.0079264 0.00463918 0.00216495 0.00659794 0.01 0.00927835 0.00123711 0.000721649 0.00783505 0.00628866 0.0056701 0.00886598 0.00309278 0.00463918 0.01 0.00845361 0.00804124 0.00354925 0.00092126 0.00319588 0.00453608 0.00505155 0.00938144 0.00907216 0.00268041 0.000412371 0.00185567 0.00247423 0.00103093 0.000721649 0.000824742 0 0.00804124 0.00804124 0.00865979 0.00793814 0.0057732 0.00659794 0.00773196 0.00301761 0.000795873 0.000974127 0.00355646 0.0102314 0.00705056 0.00418071 0.0037892 0.0012147 0.00964983 0.00325565 0.0072848 0.00140332 0.00973328 0.00333373 0.00233522 0.000426223 0.00484536 0.00979381 0.00226804 0.00824742 0.00268041 0.00371134 0.00134021 0.00969072 0.000415283 0.0057742 0.00633919 0.00472898 0.00473007 0.00923303 0.00311039 0.00320082 0.00837119 0.00328797 0.00460634 0.0114252 -0.000176097 0.00179098 0.00171027 -0.00179943 -0.00222042 0.00274102 0.0098467 0.00195821 0.00807349 0.00454899 0.00731959 0.000515464 0.00907216 0.00103093 0.00391753 0.00550814 0.00246716 0.000959706 0.0025646 0.00591762 0.0021207 0.0038671 0.0131809 0.00473673 0.00864595 0.00730331 0.00694839 0.00525289 0.00284365 0.000508946 0.00422518 -0.00471299 -0.00410146 0.00500043 0.00408038 0.00114698 0.00715515 0.00453232 0.0100387 0.00937333 0.00340206 0.00659794 0.00628866 0.00835511 0.00963927 0.000205252 0.00510565 0.00615247 0.00390281 0.00320052 0.00225825 0.00790361 0.0106655 -0.000796367 -0.00338393 -0.0113368 -0.00619032 -0.00766705 -0.00499647 -0.0161312 -0.00899081 -0.00269371 -0.000737443 0.00389472 0.00454183 0.00098731 0.000642227 0.00778009 0.00909304 0.00556701 0.000206186 0.00646687 0.0100538 0.00848488 -0.00363723 -0.00191834 0.00694579 0.00143171 0.00162735 3.43162e-05 0.0068653 0.00663531 0.00699588 0.0139042 0.00229758 -0.00392487 -0.0107221 -0.0117537 -0.0124439 -0.00318856 0.001077 -0.00055433 0.00442824 -9.13319e-05 0.000526728 0.000503234 0.00548879 0.00659794 0.000412371 0.00664657 0.00486328 0.00797126 -0.0114595 -0.00630535 -0.00691935 -0.00692778 -0.0024701 0.00401929 0.0105713 0.0105682 0.0116236 0.00942531 0.0101546 -0.00567813 -0.0108649 -0.00608985 -0.00449356 -0.00678032 -0.00719915 -0.00697457 -0.00757446 -0.000814977 0.00908187 0.00829677 0.00823011 0.00319537 0.00342932 0.00428036 0.00656941 0.00386896 -0.00247724 0.00224699 -0.00479963 0.00348462 0.00655644 0.0122105 0.0236883 0.0103453 0.0144477 0.00453023 -0.00129562 0.00182111 -0.010831 -0.0113807 -0.0145782 -0.0200448 -0.0147378 -0.00504081 -0.0093829 -0.000610331 0.00640497 0.00309643 0.00115823 0.000511942 0.0071402 0.00480002 0.00875602 0.007436 -0.000632812 0.00451567 8.43489e-05 0.00756167 0.00214996 0.0102337 0.0113274 0.00210324 -0.0017211 -0.0121867 -0.00507124 0.00489059 -0.00123873 0.00651666 -0.0047286 -0.0233785 -0.0166968 -0.011787 -0.00693345 -0.00511322 -0.000159713 0.00468349 0.00864515 0.000721312 0.00457096 0.0043516 0.00146614 0.00897155 0.015366 0.000564706 0.0121491 0.00909016 0.0068755 -0.000322828 -0.00641683 0.000609097 -0.0163134 -0.0245533 -0.00719377 0.00872281 0.015404 0.00467165 -0.00289468 -0.0182824 -0.0204621 -0.0115925 -0.00692461 -6.99671e-06 0.0057727 0.0031119 0.00541134 0.000618557 0.00127709 0.00862767 0.00174684 0.0136751 0.0163817 0.0144944 0.00550014 0.00457071 0.00374303 -0.0112958 -0.0195521 -0.0222331 -0.018163 -0.0206165 -0.018372 0.00844496 0.0109977 0.0180103 0.0066671 -0.00976536 -0.0112661 -0.0108189 -0.00207535 -1.51333e-05 -0.00300848 0.0044779 0.00304408 0.00494845 0.00909398 0.00778256 0.00889658 0.00816172 0.0106913 0.00429623 -0.00899648 -0.00856994 -0.0116311 -0.0160696 -0.0170836 -0.0197786 -0.00795142 -0.00942952 -0.00680468 -0.000869378 0.0138666 0.00887987 0.00884602 0.000454477 -0.00734137 -0.00289499 0.00364366 -0.000218766 0.00730039 0.00367399 0.00891652 0.00257732 0.00302874 0.00787638 0.00611179 0.00213078 -0.00409775 -0.00958446 -0.0133286 -0.0133341 -0.01791 -0.00737754 -0.0118012 -0.0126018 -0.00783054 0.00105211 -0.00909791 0.0112742 0.0154381 0.00553206 0.0157574 0.00759735 -0.0039943 0.00634043 0.00668445 0.0044786 0.000309457 0.00835312 0.00183549 0.0042268 0.00876116 0.00743355 0.00751058 -0.0021778 -0.00868631 -0.00650239 -0.0196123 -0.0114728 -0.0113019 -0.00245735 -0.00860195 0.000501861 0.0035224 0.00290002 0.00489191 0.0212713 0.0131115 0.0153908 0.0220191 0.0142226 0.0067855 0.00424436 0.0108936 0.00831903 0.00139811 0.00780456 0.00330139 0.0085567 0.0052733 0.0094258 0.00875958 -0.00306774 -0.0112697 -0.00674969 -0.00472783 -0.00369227 0.00100723 0.00478484 0.00199534 0.00644529 0.00831972 0.00430745 0.00524871 0.0094479 -0.00343739 0.00592504 0.0155961 0.00752366 0.00359983 5.07175e-05 0.0132027 0.00279051 0.00632036 0.00646144 0.00731986 0.00628866 0.00952008 0.00664637 0.00917117 0.00074385 0.00441426 -0.000115505 0.00157091 0.00392476 0.00584263 0.00774713 0.00987114 0.00411767 0.00943471 0.00943483 0.00512142 0.00244102 -0.00942316 -0.00192153 0.0135011 0.0100868 -0.0041434 0.00394616 0.00172547 0.00295502 0.00131136 0.00827118 0.00193772 0.0014433 0.00960572 0.00944399 0.00132252 0.00769343 0.000501188 0.00101574 0.00185044 0.000165918 0.00959942 0.00729706 -0.00225203 -0.00381799 0.00355052 -0.0015431 -0.00675423 -0.0110919 -0.00410627 0.00484673 -0.000756165 -0.000693101 0.000251797 0.00642649 0.00177199 0.00803047 0.0118031 0.00770399 0.0021499 0.0101031 0.0094914 0.00798884 0.000985437 0.00782404 -0.00180624 -0.000722533 0.00932938 0.00911171 0.00219033 -0.00427035 -0.0089219 0.00152841 0.00228405 6.3906e-05 -0.00685521 -0.0168898 4.52624e-06 -0.00102212 -0.00823936 -0.00741953 -0.00795914 0.00508952 -0.00231372 0.00472044 0.0133821 0.0053914 0.00766031 0.00247423 0.000928083 0.00615507 0.0011089 0.00702686 -0.00438044 -0.00564385 -0.00249333 0.000802241 -0.00133186 0.00346973 0.00891185 0.0144081 0.00849158 -0.000881881 -0.00967645 -0.0094176 -0.00325941 -0.00191662 -0.00108051 0.00107345 0.00485357 0.00575164 -0.00307611 -0.00145646 0.00234854 0.000845 0.00380936 0.0042268 0.0100952 0.00726471 0.00421103 0.00536788 -0.00569638 -0.0127165 -0.00704701 -0.00992381 -0.00759481 0.00422614 0.012067 0.0124169 0.0120877 0.00605876 -0.0041247 -0.000284458 0.00708393 0.0011814 0.0142398 0.0133644 0.00534148 0.00427243 -0.00313772 -0.00308534 0.00384198 0.00758723 0.0033682 0.00154639 0.00593687 0.00222457 0.00771541 0.000503057 -0.00235434 -0.0114784 -0.00116496 -0.00779334 -0.00727267 0.00351916 0.00733967 -0.00565854 -0.00226703 -0.00441707 -0.000989178 0.00816452 0.00232588 0.00469317 0.00251043 0.00170722 0.00778147 0.00107766 -0.00144985 0.00533868 0.0103974 0.00640885 0.00113402 0.00670103 0.00587629 0.0011499 0.0036524 0.00201817 0.00586997 0.00368522 0.00208581 -0.000709468 0.000778431 0.00319181 0.00559209 0.00363916 -0.0101017 -0.00999357 -0.00541792 -0.00165855 -0.00205213 -0.00721256 -0.0116395 -0.00753208 0.00132452 0.00388452 0.00560358 0.000558885 -0.000165874 0.00972456 0.00226804 0.00835052 0.00597938 0.00708246 0.00230365 0.0010037 0.000852347 0.00633289 0.00593617 0.000645508 -0.00531401 0.00260285 -0.000543495 0.00126716 -0.00344943 -0.001412 -0.00589059 0.00443399 -0.0062185 -0.0131279 -0.00662972 -0.0032665 0.00246133 0.0113875 0.00954195 0.00741751 0.00349304 0.00416863 0.00814433 0.00402062 0.00309278 0.000278982 0.000661747 0.00362131 -0.000724214 -0.000805855 0.0114914 0.00636639 0.000580707 -0.001021 -0.00166653 -0.0122952 0.00455185 0.00247082 0.00361852 -0.00337257 -0.00631554 -0.00723159 -0.00144634 0.00537502 0.00516003 0.00869619 0.00309168 0.00912078 0.00393024 0.007177 0.000618557 0.00247423 0.000103093 0.0082997 0.00768218 0.00843266 0.00391761 0.00421396 0.00523034 -0.000869932 0.000307087 0.00047625 -0.00237682 -0.00194899 0.00418053 0.0104016 0.0100882 0.00326577 0.00301666 0.00351479 0.00858245 0.00255575 0.00436291 0.0120784 0.00271457 0.00463789 0.00393669 0.00923081 0.00752577 0.0042268 0.00886598 0.0078423 0.0016885 0.00744506 0.00716118 0.00706304 0.00145928 0.0017591 0.00257636 0.00817602 0.00353878 0.00495853 -0.000313841 0.0027687 -0.00125787 0.00296967 0.00245293 -0.00306366 0.0026763 0.00971402 0.00773681 0.00668039 0.000542354 0.00647361 0.00927885 0.00686363 0.00350515 0.0101031 0.00360825 0.0071134 0.00103244 0.00432139 0.000724579 0.000588932 0.00709327 0.00744685 0.0007696 0.00342808 -3.75256e-05 0.00325002 0.00915334 0.00608158 0.00430144 0.00432279 0.00817708 0.00836146 0.00864955 0.00366285 0.0100429 0.00587424 0.00143541 0.000554739 0.00989691 0.00443299 0.00752577 0.00216495 0.00340206 0.00670103 0.00597938 0.00958763 0.00855493 0.00206398 0.00775903 0.0041119 0.00832462 0.00219651 0.00436388 0.0062332 0.00496804 0.00191144 0.00598645 0.0027183 0.000559246 0.00596122 0.00646965 0.00492452 0.00568326 0.00145485 0.00463263 0.00463918 0.00474227 0.00134021 0.00371134 0.00989691 0.00824742 0.000103093 0.0085567 0.0028866 0.000103093 0.00309278 0.00690722 0.00659794 0.00536082 0.00721649 0.00597938 0.00196025 0.0050548 0.00278351 0.000206186 0.00329897 0.00690722 0.00195876 0.0101031 0.01 0.00443299 0.00154639 0.00134021 0.00659794 0.00391753 0.00721649 0.00927835 0.00793814 0.000721649 0.00824742 0.00649485 0.00546392 0.00453608 0.000858026 0.00317537 0.00206802 0.00395668 0.00842382 0.0066413 0.000105867 0.00796294 0.000522822 0.00968705 0.00895915 0.00393585 0.000716058 0.00423303 0.00906195 0.00945445 0.000817969 0.00618546 0.00226804 0.000412371 0.00587629 0.00701031 0.000824742 0.00969072 0.00226804 0.00422751 0.00154664 0.0069689 0.00640793 0.0040384 0.003228 0.0089037 0.00338173 0.00123576 0.00126577 -0.00259821 0.00575918 0.000479866 0.00891967 0.00526054 0.00203476 0.00330563 0.00694292 0.00792758 0.000318734 0.00492909 0.00524126 0.00659183 0.00484536 0.00474227 0.00783505 0.00247423 0.00133925 0.00835461 0.00881817 0.00612291 0.00212527 0.00478628 0.000537867 -0.000736899 0.00509497 -0.00463728 0.000131212 0.000301795 -0.00367445 0.00327379 0.00355493 0.00123252 0.00434529 0.00765433 0.00197609 0.00222275 0.00558107 0.0092218 0.00257826 0.00245195 0.00341921 0.00340206 0.00453608 0.000824742 0.00144003 0.00649004 0.00800438 0.00876298 0.0102512 0.00785011 -0.00863796 -0.00264279 -0.000396373 0.00184044 0.0025277 0.00351132 0.00432855 0.00235463 0.00938632 0.00889987 0.00417233 0.00378073 0.00494753 8.87608e-05 0.00372844 0.0101487 0.0109191 0.00307718 0.00858638 0.00308335 0.00134021 0.000618557 0.00226759 0.000857276 0.00827885 0.000877939 0.00401835 -0.00915815 -0.00468953 -0.00652828 0.00628794 0.015 0.0117378 0.00441978 0.000638362 0.00548575 0.0156619 0.0108875 0.00294544 -0.00533793 -0.00282459 -0.000458567 0.00460015 7.20247e-05 0.000875474 0.00114903 0.00614498 0.0077223 0.00814433 0.00268035 0.000542189 0.000548251 0.00474926 -0.000792966 0.00202592 0.00142078 0.0139971 0.0164667 0.0139273 0.0142307 0.00722212 0.00667546 0.0102323 0.00985538 0.0092724 0.00619136 0.00611796 0.00844958 -0.00025772 -0.0124062 -0.003672 0.00294291 0.000200443 0.00943295 0.00621672 0.00243821 0.00783505 0.00494861 0.00917858 0.00744735 0.000661329 -0.00168663 0.00246716 0.0209433 0.0252644 0.0183926 0.00630739 0.000354656 -0.00853686 -0.00548567 0.00583243 0.00386411 0.00119208 0.000105206 0.0115484 0.00290041 0.0110283 -0.00935161 -0.00299337 0.00229431 0.00408782 0.00255128 0.00214009 0.000492327 0.0092739 0.00225031 0.00891814 0.00921534 0.00369221 0.00562756 0.0110769 0.0252614 0.0211171 0.00141493 -0.00320314 -0.0017493 -0.00769904 -0.00754009 -0.00238832 -0.00366536 -0.0101571 -0.00716958 0.00444752 -1.63886e-05 0.00393387 0.00357313 -0.00625007 0.000662054 -0.00013434 0.00726748 0.00948919 0.00898368 0.0014433 0.010215 0.00364514 0.00725683 0.00300833 0.0086015 0.0190436 0.0191125 0.00862576 -0.000188574 -0.0053096 0.00283177 -0.00475813 -0.00363944 -0.00246275 -0.00194983 -0.00252836 -0.000900353 0.00449214 -0.00273304 -0.00497571 -0.00723258 -0.00985081 -0.00637517 0.00508436 0.00440984 0.00966612 0.00150981 0.00804124 0.00206601 0.0081314 0.00923791 0.013074 0.0130316 0.0133817 0.00871446 0.00961467 0.00507608 0.00823394 0.0066778 -0.00256281 -0.00218182 -0.00159457 -0.000278537 -0.00545846 -0.0099969 -0.00432617 0.00948456 -0.0014401 -0.00422503 -0.00394895 0.00107978 -0.00194461 0.000966536 0.0074729 0.00665755 0.00319588 0.00627146 0.00529753 0.00181752 0.0211549 0.0182974 0.013052 0.0120455 0.0101805 0.00574618 0.00584702 0.000452672 0.00802928 0.00114838 0.00968083 0.0101209 0.00318426 -0.00682885 0.00606696 0.00832819 0.00841789 -0.00482502 -0.00609323 0.000320467 0.00262702 0.00110806 0.00999276 0.00200798 0.0056701 0.00874511 0.00237548 0.00917916 0.0217171 0.0201442 0.00741789 0.00830313 0.0108928 0.0111725 0.00351299 0.00674998 0.00669128 0.000831875 -0.00570066 -0.00347853 -0.00964296 -0.00262262 0.00650522 0.00888146 0.00594128 -2.62315e-05 0.00356026 0.00101081 0.00539011 0.00673333 0.00792625 0.00123922 0.00463918 0.00691557 0.00771142 0.00610308 0.00754204 0.0160863 0.00498408 0.00380722 0.00440769 0.00400042 0.00201696 0.0109205 0.00335236 -0.00529583 -0.0106753 -0.0065112 -0.0102815 -0.0188946 -0.0154004 -0.00803499 -0.00255882 0.00412289 0.00668166 0.00656722 0.00841985 -0.00141127 0.000472604 0.00419183 0.00494845 0.00390742 0.00748493 0.00447855 0.00576586 -0.00282796 0.00218077 -0.00140509 -0.000583124 0.0124773 0.0183301 0.0129594 0.00261593 0.00170642 -0.0122706 -0.00891615 -0.00233822 -0.0121893 -0.011628 -0.0135118 -0.0124214 0.00172944 0.00721867 0.00794008 0.0037166 0.00111273 0.00701569 0.00277962 0.00804124 0.00638976 0.00906246 0.00284414 0.000258205 -0.00834096 -0.00991647 -0.000804081 0.000762849 0.00472184 0.00794235 0.00172037 0.00948852 -0.000996728 -0.00244167 0.00304074 0.00766213 0.0098844 0.000447909 0.00139056 -0.0158454 -0.00458349 0.00663175 0.014517 0.009467 0.00484302 0.00532015 0.00778252 0.00680412 0.00669937 0.000261981 -0.0027528 -0.00487062 -0.00990218 -0.00543922 -0.00857362 -0.000351402 -0.000637483 0.00819127 -0.00209162 0.00452186 -0.00153653 0.000138348 -0.00548049 0.00231474 0.00729486 0.00581612 0.00151793 -0.00842555 -0.0100717 0.00137 0.018846 0.00420923 0.00624019 0.00963494 0.00188813 0.00381443 0.0102048 0.00504952 0.00336968 -0.00239988 -0.00652196 -0.00823546 -0.00556361 -0.00246693 0.00547424 -0.00218309 -0.000635164 -0.00331589 -0.00213364 -0.0103206 -0.00908773 -0.00915936 -0.000839805 -0.00953614 -0.00371059 0.00356908 -0.00490257 0.00301566 0.0119827 0.0118214 0.00677136 0.00232028 0.00666752 0.00783505 0.00206159 0.0067941 0.00530177 -7.05184e-05 -0.00220987 -0.00185939 0.00106992 -0.0027666 -0.00238872 -0.00493326 -0.00458185 -0.00452806 -0.00980732 -0.00817504 -0.0100692 -0.00665606 -0.0126074 -0.017497 -0.00661246 -0.0129542 0.00522604 0.010285 0.0119585 0.0133964 -0.00219443 0.00539408 0.00783537 0.00257732 0.0068982 0.00196852 0.00143715 -0.000813781 0.0031782 -0.000226208 -0.00262093 0.000469528 0.00193992 -0.00247033 -0.0112831 -0.00825329 -0.00987656 -0.0126256 -0.0152884 -0.00858681 -0.0117321 -0.0171167 -0.0146957 -0.00849712 0.012244 0.0175063 0.0126019 0.0121317 -0.00110014 0.00454043 0.00842872 0.000206186 0.00627861 0.00658198 0.00883783 0.00254755 0.000465092 0.000441251 0.000672358 0.00576015 0.000469249 0.000913397 -0.0121184 -0.00965029 -0.0158463 -0.0181245 -0.0133239 -0.00543442 -0.00812566 -0.0240533 -0.0186043 -0.00474152 0.00633852 0.0166496 0.00629884 0.000968414 0.00390322 0.00180321 0.00969072 0.00237113 0.00969072 0.000649677 0.00609568 0.000499535 -0.000487366 0.00740334 0.00238794 0.00801863 0.00538095 0.000317619 -0.00655495 -0.0031483 -0.0151542 -0.00930566 -0.0125587 -0.000187143 -0.00144222 -0.00924023 -0.00930072 0.00608218 0.00809209 0.00558883 0.00104512 0.00304079 0.00223846 0.00953207 0.000206186 0.00298969 0.00515464 0.00155108 0.00740891 0.000325748 -0.0010137 0.0035381 -0.00302358 0.00728399 0.0124319 -0.00229652 7.94799e-05 0.000239345 0.00151613 -0.00109841 -0.00325704 0.0100378 0.00218847 -0.00117802 0.000766334 0.0128849 0.0106152 0.00480201 0.00724118 0.00485652 0.00777059 0.00519572 0.0028866 0.00886598 0.00742268 0.00568291 0.0092283 0.00549497 0.000474356 0.00337467 -0.000326393 -0.000768031 0.00351923 0.00195094 -0.00195645 0.00108749 -0.0020615 -0.0107116 -0.00518161 0.00591836 0.00089918 0.00516269 0.00846571 0.0139439 0.00881663 0.010272 0.013359 0.00906133 0.00765163 0.00388487 0.00886598 0.0057732 0.0085567 0.00505411 0.00415224 0.00395841 -0.00104915 0.000499783 -0.0013537 0.00473221 0.000397292 0.00208083 -0.000303307 0.00278193 -0.00186168 -0.00384829 -0.00965125 -0.00181775 -0.00478176 -0.00139697 0.0142647 0.00593737 0.00298762 0.00574884 0.0145484 0.00483447 0.00275497 0.00617565 0.00216495 0.00536082 0.00927835 0.00320027 0.0054479 0.00840657 0.00195083 0.00925585 0.00827914 -0.000909628 -0.00244366 0.00512711 0.00393111 0.00612548 0.00497195 0.00593978 0.00758322 0.0143478 0.00791231 0.0133946 0.00862548 0.0102783 0.0103789 0.0118457 0.00976787 0.0107761 0.00566236 0.004733 0.00979381 0.00969072 0.000103093 0.00350515 0.0019596 0.000358556 0.00845375 0.000476152 0.00531025 0.0025676 0.00714967 0.00330594 0.00535061 0.00800435 0.00164314 0.00647111 0.00429233 0.0141272 0.0142153 0.00763519 0.0126845 0.0122215 0.00217758 0.00918365 0.00813358 0.000327668 0.00257732 0.00175258 0.0042268 0.00927835 0.00412371 0.0056701 0.0101031 0.0057732 0.00824679 0.00455391 0.00279703 0.00508582 0.000363685 0.00865436 0.0100593 0.00896954 0.0094483 0.00922714 0.00112567 0.00796812 0.00604189 0.00127353 0.00410342 0.00767844 0.00493959 0.00883456 0.00912836 0 0.0043299 0.00958763 0.00443299 0.00412371 0.00195876 0.0028866 0.00247423 0.0056701 0.00628866 0.000206186 0.000206186 0.000309278 0.01 0.00206186 0.00597938 0.00371134 0.00680412 0.00103093 0.00134021 0.00278351 0.0085567 0.00587629 0.00587629 0.00391753 0.00525773 0.00278351 0.00896907 0.00474227 0.00175258 0.00360825 0.00350515 0.00835052 0.00515464 0.000103093 0.00206186 0.00536082 0.000103093 0.00328744 0.00358511 0.000941522 0.00945236 0.00851544 0.00967245 0.000661458 0.00695924 0.0058913 0.00605269 0.00205498 0.00695002 0.0018183 0.00291451 0.00469575 0.00593767 0.00915094 0.00340511 0.00371134 0.0014433 0.00917526 0 0.00804124 0.00690722 0.00237113 0.00577091 0.00659715 0.0061326 0.00209709 -0.000591081 0.00925362 0.00320393 0.00777778 0.00183847 0.00109156 0.00282725 0.0010447 0.00415153 0.00221228 0.000374633 0.00735332 0.00171454 0.00283886 0.00620911 -3.98416e-05 0.00647391 0.00388446 0.00948454 0.00226804 0.00298969 0.0014433 0.00845361 0.00825862 0.00876119 0.00389253 0.00278006 0.00755437 0.0047397 0.000661569 -0.000423817 0.00258871 -0.00755005 -5.66329e-05 -0.00943829 -0.00425493 0.000924709 0.000294754 4.7305e-05 0.000780745 0.00514093 0.0032532 0.00531843 0.0144054 0.00912212 0.00385403 0.00696609 0.00390811 0.000103093 0.00649485 0.000824742 0.00673936 0.00599754 0.00646502 0.00722486 0.0054338 -0.000590028 0.00446291 0.00218609 -0.000605895 -0.00829223 -0.00498448 -0.00117311 0.00333833 0.00526442 -0.0138827 -0.0159841 -0.0105338 0.00629503 0.00537917 0.00828173 0.0130748 0.0131732 0.00520064 0.00228201 0.00335262 0.00375703 0.00237113 0.00886598 0.00619089 0.0102936 0.00641338 0.00970405 0.0113959 0.00295848 -0.000504771 0.000933829 -0.0120841 -0.0243779 -0.021963 -0.0246768 -0.0238011 -0.0267174 -0.0334047 -0.0293862 -0.0161317 -0.00794827 0.0106031 0.0115124 0.0309951 0.0189477 0.0123424 -0.000997835 0.00181705 0.000627046 0.00206186 0.00319657 0.00236386 0.0122448 0.00697808 0.00335876 0.0140893 0.00729067 0.00595962 -0.00589591 -0.0193714 -0.0281704 -0.0279832 -0.0272443 -0.0456676 -0.0535037 -0.0480562 -0.0426387 -0.0153887 0.00312252 0.0349956 -0.000559203 -0.000448722 0.00773332 0.00598308 0.00142663 0.00282022 0.00138829 0.00886514 0.00230199 0.00404394 0.00789841 0.0187937 0.0154177 0.00697769 0.0121485 0.0010969 -0.00340929 -0.0165687 -0.0277826 -0.0280914 -0.0421573 -0.0515989 -0.0522781 -0.0411046 -0.0392697 -0.00293523 0.00446554 0.0202296 0.0272531 -0.00343072 0.00684325 0.00314253 0.00442973 0.00549069 0.00089506 0.00949792 0.00368072 0.00205458 0.00668838 0.0118947 0.0215888 0.0066026 0.00169629 -0.00229313 -0.00453586 -0.0269628 -0.028306 -0.0220783 -0.0303331 -0.0434645 -0.0415483 -0.0300898 0.00146237 0.0161584 0.0103173 0.024298 0.0244098 0.00158236 0.0090959 0.00750744 0.00253266 0.000662636 0.00733501 0.00783449 0.00416255 0.00505029 0.00557783 0.0177249 0.0158599 0.00541407 0.00158561 -0.00349428 -0.0118203 -0.0219348 -0.0254321 -0.0303567 -0.0382519 -0.057774 -0.0385077 0.00548357 0.0336598 0.0326133 0.00911508 0.00204014 0.0106994 0.0136716 0.00999093 0.00922006 0.00800664 0.000829015 0.000642059 0.0056701 0.00496866 0.00671609 0.00135858 0.0123847 0.00603868 0.000336444 -0.00387478 -0.0164503 -0.0180881 -0.0168755 -0.0220882 -0.0320653 -0.0453684 -0.0417849 -0.00122768 0.0490161 0.0580515 0.0388806 0.0123076 0.0218845 0.0186011 0.0133946 0.00478283 0.0079315 0.00979955 0.000632983 0.000959247 0.00618557 0.000326223 0.00140445 0.00813113 0.0196786 0.00475202 -0.0113982 -0.0156567 -0.0156906 0.00399238 -0.0174041 -0.016771 -0.0254085 -0.0228411 -0.0106689 0.0499044 0.0535138 0.058343 0.0480364 0.0183494 0.00785383 0.00334364 -0.00659774 -0.00478517 0.000256479 0.000570971 0.00486537 0.00233608 0.00298969 0.00928395 0.00705868 0.00654181 0.0221913 0.00830665 -0.00722848 -0.00911932 -0.00561142 0.00676772 -0.00309843 -0.00301603 -0.0148505 -0.0103295 0.0257952 0.0515538 0.0483984 0.0610035 0.0221283 -0.0201431 -0.0189229 -0.0128204 -0.00703179 -0.00720345 0.00162339 0.00316302 0.0070199 0.00752367 0.00701031 0.00819287 0.00420831 0.0116681 0.0197613 0.00580971 -0.000132309 -8.69181e-05 -0.00571938 -0.00197568 -0.00152021 -0.000223285 -0.0153655 -0.00128576 0.00947621 0.0252788 0.037248 0.0398499 -0.0164069 -0.0355672 -0.0281872 -0.00898009 -0.00792433 -0.00593471 -0.00300603 0.00899778 0.00351824 0.00133381 0.00886598 0.00687174 0.00777909 0.00966428 0.00782952 0.0018901 -0.00272487 -0.0133357 -0.0166254 -0.00813275 -0.000837063 -0.0105774 -0.0163696 0.0027876 0.0105328 0.0250168 0.0409157 0.000415702 -0.0235673 -0.0281462 -0.0100758 -5.59857e-06 -0.00971858 -0.00793364 -0.00338716 0.0083691 0.00170113 0.00649413 0.00536082 0.00961525 0.0115176 0.00359137 0.00275386 0.00221107 -0.00883452 -0.00812406 -0.0175633 -0.0101986 0.00155968 0.00126832 -0.0119126 0.00880882 0.0109664 0.0366905 0.0162781 -0.0132461 -0.0120966 -0.0187103 -0.00710847 -0.008241 -0.00669101 0.00282333 0.00371696 0.00794593 0.00773611 0.00926239 0.00835052 0.00134998 0.0121531 0.000569419 0.00803876 -0.000146176 -0.0137324 -0.0209878 -0.0255019 -0.0284986 -0.0243019 -0.0141519 -0.00873006 -0.00153221 0.0102709 0.0210096 -0.00898761 0.00124347 -0.00301552 -0.00915801 -0.00223745 -0.0128566 -0.013533 -0.00512358 0.00228265 0.00524486 0.00448029 0.00935391 0.00536082 0.00456464 0.00995254 0.0030446 0.000258483 -0.00530133 -0.0267965 -0.0364857 -0.0349534 -0.0397905 -0.0450259 -0.016238 -0.018543 -0.0278693 0.00832762 0.00751812 -0.00509059 -0.0104728 -0.00631592 -0.00896072 -0.00558781 -0.00582724 -0.00591807 -0.00695981 0.00183294 0.00434407 0.00679418 0.00558683 0.0057732 0.00474339 0.00712428 0.00453504 -0.00225142 -0.010436 -0.0277266 -0.0274033 -0.029889 -0.0350928 -0.0473968 -0.0216719 -0.0192048 -0.0266156 -0.0153736 -0.00324988 -0.013343 -0.0163619 -0.0164389 -0.0198576 -0.00454686 -0.0106627 -0.00787233 -0.00826863 -0.00057268 -0.00111794 0.00379937 0.00987853 0.00793814 0.00209166 0.00169956 0.00952226 0.00013861 -0.00679818 -0.00235829 -0.00459535 -0.0142002 -0.0256837 -0.0373467 -0.0184005 -0.0213639 -0.00939826 -0.0108076 0.00350785 0.00292497 -0.00438459 -0.00771847 -0.0130398 -0.0148701 -0.0156884 -0.00546225 -0.00123099 0.000552202 0.00746651 0.0064637 0.00517728 0.00989691 0.00134703 0.00828485 0.0055996 0.0110395 0.0097667 0.0107257 -0.0054975 -0.00902714 -0.0287758 -0.00283471 -0.00704615 -0.00124155 -0.0192692 0.00205203 0.0182774 0.0123881 0.00204066 -0.00727434 -0.00914962 -0.0159901 -0.00999985 0.00147818 -0.00301792 0.00436142 0.0058424 0.00575653 0.00680412 0.00917526 0.000309278 0.00760808 0.00157341 0.00957101 0.0310766 0.0308751 0.00856766 0.00648918 -0.00106467 0.0173685 -0.01016 -0.00748777 -0.0108015 0.0137595 -0.00593357 -0.0170923 -0.0130301 -0.0148037 -0.00992192 -0.00598551 0.000118895 0.00145329 -0.00278032 0.00386727 0.0100005 0.00558117 0.000721649 0.00896907 0.00546392 0.00278841 0.00656666 0.0092033 0.0227942 0.0241011 -0.00582052 0.00597676 0.0159374 0.0148658 0.00396048 -0.00870386 0.000234026 -0.00669247 -0.0182406 -0.0240393 -0.0161606 -0.011043 -0.00275341 0.00317711 -0.00315911 0.00102605 0.00293645 0.00397113 -7.61705e-05 0.00856133 0.00824742 0.00876289 0.000824742 0.00675263 0.00843346 0.00241255 0.015457 0.000997358 -0.00729525 -0.0141958 -0.00243068 0.0117247 -0.0175192 -0.00980237 0.00115643 -0.0097412 -0.0207415 -0.0144584 -0.00981299 -0.00130968 -0.00128695 0.000150731 -0.0045671 -0.00111262 -0.00115211 0.00783194 0.00471697 0.00579239 0.00814433 0.00701031 0.00391753 0.00865537 0.0127248 0.0027954 -0.00179718 0.00796074 0.00345417 0.00468593 0.0281074 0.00401266 -0.00132467 0.00042358 0.00891509 -0.00969366 -0.00789638 -0.00744753 -0.00271083 -5.07242e-05 -0.00614014 -0.00529667 -0.00407617 0.00822403 0.00704884 -0.000362791 0.00582689 0.00039728 0.000309278 0.00752577 0.00134021 0.0039113 0.00861019 -0.002447 0.00551282 0.00489274 0.000248817 0.0259061 0.0263367 0.00631406 -0.000669878 0.00981923 0.004144 -0.00559371 -0.00191067 0.00171928 6.66068e-05 -0.00497969 -0.00108776 -0.0018975 0.00686671 0.00917086 0.00377442 0.00530905 0.00615867 0.00152326 0.00546392 0.00494845 0.00381443 0.0043299 0.00422335 0.00316528 0.00948241 0.00419951 0.00594974 0.00286757 0.00216102 -0.00347603 -0.00632464 -0.00126562 -0.00686858 -0.00782098 0.000395609 0.00391327 0.0030726 0.00611605 0.000286268 -0.000261468 0.00529987 0.00474896 0.00499387 0.00329482 0.00556701 0.00278351 0.000618557 0.00381443 0.0057732 0.00278351 0.01 0.0056701 0.0091511 0.00941729 0.00444368 0.000790072 0.0100475 0.00591542 0.00807286 0.00727276 0.00649151 0.00655275 0.00855781 0.00706764 0.00559837 0.00659587 0.00715649 0.00699328 0.00532413 0.00145161 0.00391791 0.00938144 0.00185567 0.0028866 0.00484536 0.00793814 0.000927835 0.000515464 0.0102062 0.00391753 0.00989691 0.00381443 0.0101031 0.00927835 0.0102062 0.00958763 0.0056701 0.00556701 0.01 0.0085567 0.00525773 0.00896907 0.000618557 0.000103093 0.00237113 0.00958763 0.00237113 0.000412371 0.00113402 0.00381443 0.00247423 0.00680412 0.00494845 0.00113402 0.00659794 0.00113402 0.00247423 0.00865979 0.00814433 0.0013274 0.00419263 0.00502112 0.00149653 0.00897165 0.00335141 0.00562968 -0.000228065 0.00783095 0.00203115 0.0061218 0.00222938 0.00845579 0.00570619 0.0028937 0.00288204 0.00633407 0.00659635 0.000206186 0.0014433 0.0085567 0.0101031 0.00958763 0.00628866 0.00175258 0.00123849 0.00886645 0.00189607 0.0070059 0.000110387 0.00924532 0.0057271 0.0101009 0.00690109 0.00812799 0.000302816 -0.00521967 -0.00486875 -0.000219849 -0.00685032 -0.00268429 0.000488495 0.00819669 0.00712921 0.0092707 0.00623568 0.00719718 0.0049808 0.00206186 0.00701031 0.000206186 0.00319588 0.00464879 0.00320431 0.00314031 0.000963523 0.00369667 0.0161753 0.0119851 0.008123 0.00257421 0.0106698 0.0197088 0.0105228 0.0060152 0.00826773 -0.00110392 -0.00830297 -0.00541446 -0.00563706 0.00165254 -0.00309515 0.00762727 0.00482969 0.00112507 0.0096029 0.00724949 0.00628866 0.00546392 0.00268041 0.0074556 0.00510677 0.00903486 0.00674851 0.020808 0.0261156 0.0360832 0.0161438 0.0260249 0.0408422 0.0390086 0.0184373 0.00377534 -0.0134602 -0.024516 -0.0301251 -0.0196382 -0.0105861 -0.00893375 -0.00747012 0.00166563 0.00135569 0.00325779 0.00313955 0.000593339 0.00231649 0.00896907 0.00783505 0.00938601 0.00334372 0.0160826 0.0294832 0.0368791 0.0372986 0.0349096 0.0325116 0.0330616 0.0319473 0.0281027 0.0123342 0.0217687 -0.0163894 -0.0239433 -0.0387741 -0.045314 -0.0274343 -0.0139725 -0.0188894 -0.00750109 0.000916854 0.00533787 0.000763776 0.00850537 0.00682647 0 0.00536082 0.00200721 0.00887204 0.0168921 0.0195991 0.0210564 0.0190012 0.0327612 0.0396924 0.0184997 0.0101809 0.00535816 -0.032463 0.0122097 0.0188231 -0.0192474 -0.0399555 -0.0363926 -0.0284366 -0.0243934 -0.017385 -0.0119723 -0.00405256 -0.00141777 0.00251305 0.0078922 0.00640987 0.0102062 0.00507499 0.0101237 0.0164637 0.0195591 0.00833549 -0.00567852 -0.0127561 -0.007837 -0.00317602 -0.0356455 -0.0341865 -0.0268555 0.0160367 0.0241052 -2.72979e-05 -0.00990288 -0.033424 -0.0347634 -0.0367675 -0.0303422 -0.028138 -0.0203608 -0.00855547 -0.00426188 0.00864717 -7.93077e-05 0.00150169 0.00574954 0.00422412 0.00430738 0.00785549 -0.00157899 -0.0129787 -0.0362345 -0.0436847 -0.0479979 -0.0396876 -0.0482781 -0.0267524 0.0353402 0.0691092 0.0290598 -0.00470051 -0.0180361 -0.0398826 -0.0333824 -0.0403365 -0.0258386 -0.0246534 -0.0151144 -0.00759435 -0.00125984 0.00510021 -0.0005877 0.00989901 0.00762888 0.00457159 0.00596844 0.00534043 0.00584902 -0.0127034 -0.0355655 -0.0322873 -0.0439632 -0.0218324 -0.0264704 0.0230262 0.0792369 0.0626149 0.00886882 -0.0343392 -0.029857 -0.0401613 -0.0304765 -0.0378344 -0.015565 -0.0168483 -0.00586485 -0.00703106 0.00118896 0.00773763 0.00933463 0.00520276 0.0043299 0.00557606 -0.000163362 0.0069929 0.00828737 -0.00211814 -0.00770468 -0.0157398 -0.0136708 0.00391019 0.0312137 0.0672141 0.0575885 0.0372158 -0.0018808 -0.0132973 -0.0262344 -0.0243982 -0.0268214 -0.0313695 -0.00486303 -0.0150992 -0.0105736 -0.00273647 -4.10374e-05 0.0103207 0.00551445 0.00991534 0.0071134 0.0108974 0.0112715 0.0108903 0.027499 0.0155911 0.00314697 -0.00365243 0.0106557 0.0090698 0.0367709 0.0483804 0.0314775 0.00214322 0.00195272 -0.00650927 -0.0288939 -0.0122062 -0.0173045 -0.0170083 -0.0148001 -0.0195592 -0.00474879 -0.00405669 -0.00335621 0.0025257 0.00427229 0.00870813 0.00371134 0.00539535 0.00958167 0.0107011 0.0184343 0.0295222 0.013237 0.02218 0.0293837 0.0299516 0.0155051 -0.00215991 0.00221203 -0.00384606 0.00789571 0.0236847 0.00439619 -0.00676408 -0.000178108 -0.0192089 -0.0163334 -0.0153121 -0.00610214 0.00347522 0.000268967 0.00541152 0.00923694 0.00921165 0.01 0.00663654 0.0100093 0.00717679 0.0079096 0.0183322 0.0108902 -0.00532125 0.00602538 0.0080962 -0.00989299 -0.0231157 -0.00683631 -0.00450739 0.0057193 -0.00264386 0.00497294 -0.00319822 0.0172186 -0.00173087 -0.00227446 -0.0197541 0.00614604 0.00312993 -0.00448284 0.00361171 0.00182724 0.00990283 0.00206186 0.00159418 0.00126142 0.0103533 0.0013383 0.00119605 -0.0100663 -0.0219591 -0.0222718 -0.010546 -0.0239225 -0.0405227 -0.019032 -0.0202925 -0.0179879 -0.019505 -0.0118539 -0.0272897 -0.0134434 0.0262334 0.00915776 -0.0035136 -0.00403271 0.0152613 0.00967605 0.00777666 0.00223557 0.00814499 0.00752577 0.00328061 0.00255344 0.00865347 -0.00424606 -0.00669389 -0.00425117 -0.0141729 -0.0262609 -0.0177124 -0.027972 -0.0363475 -0.017777 -0.0256782 -0.0205871 -0.0133947 -0.0155619 0.0134364 -0.0096444 0.0276107 0.0383023 0.0273659 0.00976351 0.00470461 0.00765974 0.00292919 0.00846966 0.00124002 0.00164948 0.00563332 0.00998366 0.00448372 0.000383818 -0.0120694 -0.0149864 -0.0159023 -0.0240291 -0.0378065 -0.0421172 -0.0332014 -0.0311762 -0.0252422 -0.0308774 -0.0227537 -0.0231066 -0.0130864 0.0130963 0.0269194 0.0368889 0.0439997 0.0298173 0.0133354 0.00776788 0.00844483 0.0102521 0.000458907 0.0043299 0.00609969 0.00711654 0.00045803 -0.00738502 -0.0177919 -0.0197707 -0.0288264 -0.0296443 -0.0333882 -0.0341389 -0.0129669 -0.0196845 -0.0359324 -0.0363634 -0.0245864 -0.0315889 -0.017652 -0.0206127 0.0188695 0.00507914 0.0322739 0.0331134 0.0260351 0.00581569 0.0106909 0.00310757 0.00661662 0.00773196 0.00144379 0.00237794 0.0063762 -0.00975947 -0.008785 -0.0194506 -0.028928 -0.0120195 -0.0275053 -0.0412013 -0.00822775 -0.00101024 -0.019291 -0.0338796 -0.024798 -0.0195467 -0.00305342 -0.0134518 0.0155061 -0.0122544 0.00912186 0.0144046 0.023816 0.0138251 0.0056384 0.00799097 0.00472385 0.000618557 0.00863741 0.00581294 0.00390131 -0.0103501 -0.00376802 -0.0209002 -0.0182768 0.000731092 -0.00720159 -0.0155953 -0.0246177 0.00488743 0.00364215 0.00286751 7.40614e-05 0.0263884 0.0328099 0.0176609 0.0235084 -0.0102172 0.00246404 0.00963807 0.0276434 0.00101953 0.00324903 0.00191959 0.0063943 0.00907216 0.00729344 0.000981842 0.00303185 -0.00269594 -0.00738463 -0.0119818 -0.00867198 0.00544148 -0.00989272 0.00272491 -0.0041858 -0.0099076 0.00463777 0.0156067 0.0198328 0.0429758 0.0431576 0.0077992 -0.0123467 -0.00332747 0.0023511 0.0172897 0.019774 0.00174005 0.0072468 0.00641331 0.0014433 0.00257732 0.00556701 0.00476021 0.00567035 -0.00411164 -0.0156631 -0.0263836 -0.0197537 -0.00636485 -0.0130451 -0.0266618 -0.023109 -0.0230018 -0.015313 -0.00166161 0.00380861 0.00870838 -0.0055784 -0.0239207 -0.0110914 -0.00438733 -0.00550491 0.00408799 0.00243049 0.00475154 0.000851855 0.00859984 0.00103093 0.00164948 0.000824742 0.00664243 0.00474958 0.00572236 -0.00845433 -0.00705094 -0.0122799 -0.0044755 -0.00969597 -0.0218319 -0.0269912 -0.0111587 0.00700249 -0.000937853 -0.0124114 -0.0284303 -0.0115812 -0.00936555 -0.021069 -0.00645707 -0.0107433 -0.00597472 0.00322402 0.000425701 0.0097868 0.00769922 0.00474227 0.00958763 0.00927835 0.0101142 0.00205243 0.00358339 0.00571724 -0.000185231 -0.000531856 0.00666427 0.00116456 -0.00634633 0.00977824 0.00795004 0.00761702 0.00273357 -0.00214365 -0.00242084 0.00251017 -0.00336788 -0.00178794 -0.00836538 -0.0131636 -0.0115991 0.00106492 0.00618367 0.00103677 0.00811529 0.000412371 0.00525773 0.00969072 0.00750026 0.00877827 0.00842817 0.00977071 0.00773612 0.00625052 0.00413329 -7.86332e-05 0.00120011 0.0302148 0.019438 0.00836822 0.00545426 0.00105328 -0.00134733 0.00756923 0.00531443 -0.00317074 -0.00874636 -0.005424 -0.00281832 0.00615863 0.000711312 0.00317114 0.00216034 0.0014433 0.00649485 0.000824742 0.00649565 0.0034405 0.0100294 0.0107342 0.0095157 0.00610623 0.00615908 0.00508623 0.00626698 0.00876441 0.0135334 0.00505946 0.00886057 0.000444105 0.000620419 0.0021599 0.00856144 0.0141637 0.00262208 -0.00280369 0.00544093 0.00313912 0.0027505 0.00214852 0.00494066 0.000721649 0.00690722 0.00896907 0.00556701 0.00422608 0.00930962 0.000171579 0.0013895 0.00473865 0.00747203 0.00592918 0.0027021 0.00814502 0.00995775 0.00857067 0.0103603 0.00468302 -0.000960756 -0.000172029 0.00741273 0.0114336 0.00854018 0.00351336 0.00364082 0.00686938 0.0094868 0.00195876 0.0042268 0.00907216 0.00608247 0.000927835 0.00639175 0.00226804 0.00876289 0.00729845 0.00431318 0.00362382 0.00343557 0.00710513 0.00586581 0.000571716 0.00579962 0.0102002 -0.000439473 4.29238e-05 -0.00054508 0.00582594 0.00592114 0.00763031 0.00879033 0.00600573 0.0076135 0.00297716 0.00649485 0.00525773 0.000412371 0.000618557 0.00525773 0.00783505 0.000103093 0.00268041 0.0056701 0.00597938 0.00680412 0.000618557 0.00402062 0.00907216 0.00670103 0.00474227 0.00390614 0.00997508 0.0028866 0.00618557 0.0101031 0.0056701 0.00659794 0.00463918 0.000721649 0.00814433 0.00443299 0.00329897 0.00319588 0.00762887 0.00525773 0.00721649 0.00835052 0.00628866 0.00649485 0.00216495 0.00659794 0.00742268 0.00720657 0.00791733 0.00796995 0.0101091 0.00894031 0.0102302 0.00302365 0.0031724 0.00559994 0.00735578 0.00358894 0.00171336 0.00889446 0.00451292 0.00720327 0.00184797 0.00541359 0.00422325 0.00484536 0.00257732 0.0101031 0.00742268 0.0102062 0.00701031 0.00639175 0.00628667 0.0045354 0.000414965 0.00492562 0.00811575 0.00459585 0.00558546 0.00577791 0.000138686 0.00650816 -0.00833282 -0.00118532 -0.00370425 0.00546851 0.00706632 0.00274237 0.000792732 0.00361651 0.00640618 0.00198114 0.00291735 0.00461234 0.00752371 0.00608247 0.00742268 0.000824742 0.00453608 0.00732029 0.00762395 0.00525511 0.00496895 0.00121144 0.00767894 0.0059489 -0.000943608 -0.00251784 0.00668374 0.00525221 -0.00926259 -0.0102991 -0.00362705 -0.00637364 -0.00972934 -0.00509587 -0.013892 -0.000502788 0.00203149 0.00523258 -0.00281168 0.00730929 0.0076874 0.0086623 0.00515464 0.0085567 0.0057732 0.00309519 0.0052616 0.00846861 0.00445575 0.00870987 0.00962505 -0.00605149 0.00292463 -0.00271741 0.00198915 0.00915676 -0.00034382 -0.00587445 -0.00850917 0.000758919 0.00481354 0.00790205 -0.00948889 -0.0121503 -0.010285 -0.0125104 -0.00869009 0.000311008 0.0074084 0.000352403 0.00443032 0.00412371 0.00608247 0.00855703 0.00369392 0.00744603 0.00591147 0.00190673 -0.00754452 -0.00892428 -0.0025891 -0.012224 0.00617147 -0.00294418 -0.00443437 0.00083826 0.0040399 0.0216119 0.00586164 0.0174565 0.0136387 -0.0112522 -0.0137976 -0.0127234 -0.00614459 -0.00204645 0.00237075 0.0039829 0.00712149 0.00701031 0.00752638 0.00457417 0.00409687 0.00698732 0.00134471 -0.00906486 -0.0183908 -0.0174779 -0.00536593 -0.000797253 0.00168724 0.00568545 -0.0176653 -0.0118838 -0.00440901 0.00431829 0.0028114 0.0158278 0.019514 0.0136487 0.0141193 0.00678368 0.000931531 0.00338897 0.00442736 0.00767933 0.00669545 0.00886598 0.00312996 0.0109759 0.00645717 0.00822368 0.00410226 -0.00849652 -0.0156321 -0.0135496 -0.0141135 -0.0104108 0.00313033 -0.00216774 -0.0193121 -0.0204226 -0.0238418 0.000340072 0.0131371 0.0173754 0.0138708 0.0138349 0.0156209 0.022878 -0.00279306 -0.00154655 0.00312687 0.00703736 0.00910983 0.00679484 0.00808567 0.00705822 0.00628802 0.00408116 0.0142832 0.0100206 0.00775976 -0.00439447 -0.00318475 0.0155795 0.0224854 0.00609039 -0.0217927 0.00737969 -7.89714e-05 0.00683243 0.0135078 0.00926705 -0.00944535 0.0171895 0.00419881 0.0188291 0.0206181 -5.78099e-05 0.00335499 0.0106447 0.00363938 0.00587629 0.000860348 0.0107962 0.0102155 0.00586005 0.00495088 0.0163519 0.00506331 -0.00187723 0.00927669 0.022205 0.0297942 0.0203781 0.017185 0.0170154 0.00436198 -0.00683049 -0.0180865 0.000482925 -0.0120046 -0.00465181 0.0136245 -0.00108426 0.0158602 0.00824917 0.00768764 0.00243003 0.00485116 0.00195876 0.00609491 0.012117 0.0109117 0.006565 0.0205806 0.0173136 0.012586 0.0168186 0.0244968 0.0316787 0.0280259 0.0220933 0.0400174 0.0112924 -0.0181373 -0.033328 -0.0109325 0.0126763 -0.0101708 -0.0144753 0.00758143 -0.0114462 -0.000858333 0.0107698 0.00659235 0.00846173 0.00154647 0.00927835 0.00231269 0.0109324 0.00339325 0.00622427 0.014391 0.00477731 0.00533669 0.00730045 0.0111096 0.00283927 0.0172966 0.0177603 0.0113065 -0.0264599 -0.0439966 -0.0212292 -0.000337544 0.00822246 -0.00563638 -0.0138826 -0.00494611 0.00350427 -0.00419231 0.0115995 0.00575139 0.0073831 0.00115842 0.000927835 0.0100936 0.00837845 -0.00141979 -0.00657139 -0.0128141 -0.00565185 -0.0201508 -0.021143 -0.0133995 -0.0240876 -0.0227614 -0.0335221 -0.04538 -0.0555791 -0.0441661 -0.00452072 -0.000400673 -0.0142509 -0.0206253 -0.0103403 0.0123214 -0.0140257 -0.0187301 0.012845 0.01101 0.00268801 0.00170101 0.00979381 0.00911731 0.0075661 -0.00493983 -0.0213471 -0.0234536 -0.0337393 -0.0460196 -0.0442418 -0.0447793 -0.0599545 -0.0610145 -0.0572084 -0.0604443 -0.0459783 -0.0293633 -0.00727098 -0.0125475 -0.0343156 -0.0308128 -0.000975077 0.00450043 -0.00843206 -0.0130525 0.0198614 0.0184199 0.00246674 0.00389466 0.00618557 0.00263556 0.00558645 -0.00431487 -0.0251191 -0.0342273 -0.0395706 -0.0494428 -0.0708457 -0.0739731 -0.05991 -0.0565591 -0.0276113 -0.0356082 -0.0225077 -0.000283389 -0.0241059 -0.0161825 -0.0221938 -0.00455144 -0.00729875 -0.00831945 -0.017404 0.00299114 0.0152531 0.0107915 0.00299457 0.00217387 0.0071134 0.00420279 0.00819487 -0.00331386 -0.0177033 -0.0375793 -0.0359054 -0.0525629 -0.0539153 -0.0413698 -0.0306873 -0.00442328 0.0112331 0.0131948 0.0205406 -0.00679186 -0.0248514 -0.00333986 -0.00829592 -0.0100462 0.00157618 0.0112946 0.00481729 0.00212919 0.0128276 0.00299726 0.00685617 0.00666372 0.00175258 0.00341011 -5.39757e-05 0.00436652 -0.0162898 -0.0273723 -0.0218533 -0.0211124 -0.0158987 0.0175106 0.0290311 0.0512546 0.0493548 0.0317552 0.00520492 -0.000348972 0.0197379 0.024586 0.0139107 0.0162774 -0.000164655 0.0210856 0.00607623 0.00596109 -0.00451908 0.00116907 0.00386432 0.000894639 0.00402062 0.00195645 0.003918 0.0043908 -0.00258801 -0.00772049 -0.00179387 -0.00395519 0.0253436 0.0437949 0.0434254 0.0436007 0.0302151 0.00883833 -0.00618136 -0.00511083 0.0130156 0.00808791 -0.00645411 -0.0121079 -0.00263905 0.00567509 -0.0044125 0.00226763 0.00684873 0.00407715 0.00856664 0.00662265 0.00639175 0.0098968 0.00118657 0.0151343 0.00735954 0.00225175 0.0181705 0.019895 0.0262152 0.0298725 0.0214586 0.0128823 -0.00117607 -0.0138706 -0.0141377 -0.0124675 0.00357492 -0.0216731 -0.00260182 -0.0039474 0.00109675 0.0123382 0.00247914 -0.00126515 0.00785035 0.00419436 0.00453287 0.00809862 0.00639175 0.00625713 0.0018199 0.0101823 0.0110068 0.00188692 0.0153692 0.034772 0.0531283 0.0404398 0.0192741 -0.00412084 -0.0146099 -0.00443225 0.00221003 -0.000939059 -0.00617037 -0.014413 -0.000172471 0.000973745 -0.00459516 -0.000273696 0.00631584 0.0163393 0.00413359 0.00140767 0.00934274 0.00442688 0.00958763 0.00995342 0.00297266 0.0119675 -0.00114236 0.00769891 0.0186688 0.0627186 0.0539016 0.0179852 -0.00547151 -0.015026 -0.00975017 -0.00731442 -0.00723055 -0.00448954 -0.0273335 -0.0368764 -0.0168971 -0.0115931 -0.0153491 -0.0167559 -0.003438 0.00779779 0.0139454 0.00932607 0.0080247 0.000515464 0.00350515 0.00804124 0.011908 0.00493687 0.00627398 0.00691424 0.0297834 0.0403821 0.0231941 0.00936007 -0.00177296 0.00562778 0.00535444 -0.00770124 -0.00919291 -0.0145286 -0.0247187 -0.0118821 -0.007702 -0.0086203 -0.0234287 -0.0150317 0.00227125 0.00736359 0.0110862 0.0077686 0.00829131 0.00865979 0.00329897 0.0102062 0.006691 -0.000918637 0.00691878 -0.000192292 0.0158417 0.0187137 0.0175529 0.0107619 0.0187632 0.0101714 0.00750312 -0.00948169 -0.0114699 -0.0196441 -0.0102626 -0.0100108 0.00758164 -0.0010221 -0.0147714 -0.00483731 -0.00166862 0.00344351 0.00213866 -0.000720458 0.008517 0.00237113 0.00762887 0.00329897 0.00939556 0.00275134 0.0105332 -0.000376092 0.00916503 6.79778e-05 -0.00387006 0.00940209 0.012057 0.0194204 0.00493141 -0.000315125 -0.00954707 -0.0153074 -0.0068154 -0.00293044 0.0117706 0.00205591 -0.00616759 -0.00255003 0.00449335 0.00631669 0.00779896 0.00389249 0.0094972 0.00298969 0.00175258 0.00494845 0.00169492 0.000440614 0.00914273 0.00478323 0.00212722 -0.0224296 -0.0156195 0.00392779 0.0166214 0.0201223 0.0166954 0.0144856 0.0114507 0.000509996 -0.00535381 -0.000507795 -0.00182963 0.00222959 -0.0140221 -0.0127003 -0.0014734 0.0046369 0.00311735 0.0036981 0.00135745 0.0071134 0.00268041 0.000927835 0.00225839 0.00220057 0.012418 -0.00277867 0.00304435 0.00251512 -0.00942645 -0.0152103 -0.000755599 0.0003443 0.000631859 0.0113906 0.00551184 0.0036141 0.00479129 -0.00321077 0.00174428 -0.00327299 -0.00751137 -0.00527689 -0.00218848 -0.000533707 0.00762279 0.00723512 0.00321816 0.00896907 0.00505155 0.00268041 0.00969072 0.00410358 0.00305851 -0.0095393 -0.0123115 0.00740645 0.00284172 0.00732988 -0.000311275 -0.00482486 -0.00219611 0.00893685 0.00343918 0.00231706 -0.00804325 -0.00189311 0.0064124 0.00914591 -0.0031221 -0.00473539 0.00512249 0.00562552 0.00164903 0.00103093 0.00474227 0.00175258 0.00391753 0.000103093 0.00670103 0.00979381 0 0.00772406 0.00916856 0.00964196 0.00327687 0.00594255 0.00641977 0.00214922 0.00939746 0.00180332 0.00203255 0.00168262 0.00167087 0.00736686 0.00292289 0.00258243 0.002185 -0.00106894 0.000621222 0.00580594 0.00907216 0.00721649 0.00597938 0.000721649 0.00731959 0.00608247 0.00329897 0.00185567 0.00927835 0.00381443 0.0071134 0.00948454 0.000309278 0.0042268 0.00876289 0 0.000928121 0.0017532 0.00587629 0.01 0.00278351 0.00154639 0.00381443 0.00556701 0.0028866 0.00536082 0.00597938 0.0056701 0.00618557 0.00752577 0.00783505 0.00195876 0.00226804 0.00226804 0.0028866 0.00804124 0.0057732 0.00164948 0.00960329 0.00622377 0.00359028 0.00750266 0.00885361 0.00794243 0.00516661 -0.000432322 0.00165504 0.0037117 0.0079627 0.00517158 0.00577226 0.00637891 0.00328263 0.00990028 0.00518391 0.00875877 0.00731959 0.00453608 0.00597938 0.00814433 0.000412371 0.00979381 0.00804124 2.04309e-05 0.00134723 0.00342615 0.00933237 0.00864397 0.00356769 0.00517205 0.00719271 0.00198466 0.00566047 -0.000554592 -0.00234315 0.00516181 -0.000545949 -0.00966565 0.000622605 0.00101739 -0.000773143 0.00359615 0.000647835 0.00224322 0.0100731 0.0081138 0.0043299 0.0042268 0.00917526 0.00659794 0.00536019 0.00418363 0.00211094 -0.000624368 -0.00083444 -0.00151872 -0.000104948 0.00918344 0.0139007 0.00594003 -0.00318784 -0.00238812 -0.00614395 -0.0100042 -0.0172867 -0.00807315 -0.00137514 -0.00171971 -0.0041136 0.00411033 -0.000378317 0.00690385 0.000101886 0.00378214 0.00969498 0.00628866 0.00556701 0.00649485 0.00144111 0.00629092 0.00847642 0.00215863 0.000913162 0.00283945 -0.0100197 -0.00988315 -0.014393 -0.0202712 -0.00981332 0.00605075 -0.0109341 -0.0167905 -0.0169568 0.00742165 0.0153152 0.00489169 -0.00122945 -0.00535304 -0.000896666 0.00361889 0.00358125 0.0106255 0.00859177 0.00829715 0.000515464 0.0014433 0.00226774 0.0018989 0.00104257 -0.01184 -0.0112516 -0.00846412 -0.00985633 0.00667333 0.0242123 0.0338221 0.00687367 -0.00801788 -0.0166113 -0.0186624 -0.00613245 -0.0232385 -0.00913536 -0.00901894 0.00771142 0.0258931 0.0231152 0.0114119 0.005161 0.00265532 0.00274988 0.00085182 0.000412371 0.00505181 -0.000507765 0.000690538 -0.013337 -0.0136038 -0.0259789 -0.00786859 0.0139692 0.0304484 0.0331794 0.0293559 0.0341016 0.0188542 0.0253219 0.00768405 -0.0131062 -0.0351604 -0.0157266 -0.0111369 -0.00127674 0.0232817 0.0243783 0.0174701 0.00466327 0.00728237 0.00502846 0.000265185 0.00453668 0.00642463 -0.00225211 0.00566508 0.000250896 -0.00482318 -0.0104097 0.0115747 0.0133136 0.0292576 0.0177623 0.0166804 0.0260804 0.0341727 0.0248067 0.00597122 -0.00934291 -0.00752612 0.00947799 -0.012684 -0.0226691 0.0131301 0.0169178 0.00622433 0.00221213 0.00664471 0.00373802 0.00256285 0.00151019 0.0079593 0.00165928 0.0046934 0.0259227 0.00578937 2.28765e-05 0.0067091 -0.0076203 -0.0137166 0.00249313 0.0375708 0.0121537 0.0031222 0.0313398 -0.0231786 -0.00757849 -0.0102767 0.0264896 0.0330029 -0.00873259 -0.0157527 0.0111272 0.00632448 0.00730081 0.00817069 0.00726828 0.0047766 0.000206582 0.00180511 0.00889291 0.00506925 0.0256939 0.024453 -0.00267465 0.000469942 -0.0191339 -0.0229379 0.0160044 0.01074 0.00502434 -0.00371105 -0.0173766 -0.0033101 -0.00186213 -0.0344126 0.0285181 0.0335055 -0.0131623 -0.0259767 0.00994955 0.00982132 0.00609069 0.00863487 0.00578591 0.00849177 0.00742268 0.000831797 0.00747896 0.00152128 0.00431452 0.00767595 0.0175135 0.0169096 -0.00401661 -0.00645537 0.00417026 -0.00296296 0.00276241 -0.00353823 -0.0226574 -0.00834223 0.00787478 -0.0154454 0.031731 0.00860423 -0.0243914 -0.0131272 0.00572436 -0.000875307 0.00479557 0.0029475 0.000737349 0.00844534 0.0057732 0.0104378 0.00142612 0.00635528 0.0055941 0.000304839 0.021026 0.0231738 0.0211013 -0.00709303 -0.00838017 0.00313408 -0.0147986 -0.0490623 -0.065052 -0.0462333 -0.0167163 -0.00408298 0.0309186 -0.011528 -0.0489591 -0.0120979 0.00810316 -0.00248496 0.0021205 0.00485217 -1.49599e-05 0.00362964 0.00886598 0.00578992 0.00972944 0.00110625 0.000874008 0.00602879 0.0121063 0.0171662 0.00585331 -0.0113168 -0.0179097 -0.0377322 -0.0421762 -0.0608076 -0.0515908 -0.0342253 -0.0194175 0.0174585 0.00808325 -0.0234888 -0.0583644 -0.0102073 -0.000310581 -0.00286484 -0.000435114 0.0125956 0.00297488 0.00930947 0.00546392 0.0021912 0.0102281 0.00359001 0.000645734 -0.000732465 -0.00503384 -0.00418977 -0.0138736 0.00225289 -0.0385078 -0.0598239 -0.0573899 -0.0298736 -0.0202321 -0.0492041 -0.0518663 -0.0120524 0.0115681 -0.0261922 -0.0283359 -0.00107627 -0.0152512 -0.0098165 -0.00309603 0.0148197 0.0076489 0.00239892 0.00237113 0.00892153 0.00781257 0.000670192 -0.000450458 -0.00547332 -0.00437108 -0.00685131 -0.0333425 -0.0450866 -0.05773 -0.0617259 -0.0364427 -0.0146224 -0.0280728 -0.0632244 -0.0402943 -0.018619 -0.00192668 -0.030021 -0.0112162 -0.00673646 -0.0164263 -0.0235825 0.00858758 0.013009 0.00659929 0.00917835 0.00340206 0.00311665 0.00447827 0.00284132 0.00527999 -0.00393129 -0.017056 -0.0167445 -0.0332723 -0.0478382 -0.0517075 -0.0369805 -0.0257545 -0.01419 -0.0325238 -0.0349377 -0.0378577 -0.0284453 -0.0120253 -0.0114001 -0.010381 -0.0108254 -0.0108091 -0.0201319 0.0165126 0.0122094 0.00757732 0.00579475 0.00659794 0.00682847 0.000520769 0.00645451 -0.000184794 -0.012711 -0.00858838 -0.0103406 -0.0366341 -0.0345136 -0.0236118 -0.00378605 0.00566131 0.00431882 -0.0427179 -0.0446038 -0.0203425 -0.0130821 -0.016188 0.000981768 -0.000587392 -0.00462978 -0.00937701 -0.0026425 0.0145829 0.00771954 0.0107491 0.00282687 0.00824742 0.0100399 -0.000886945 -0.000489497 0.00792152 -0.0153146 -0.0188392 -0.0188279 -0.0299756 -0.00568819 0.0229022 0.0120176 0.0220463 -0.00014274 -0.0385508 -0.0292976 -0.0291332 -0.0147409 -0.0029664 -0.00807186 -0.0146502 -0.0153822 -0.0231084 -0.000115378 0.0105259 0.0177341 0.00731335 0.00304916 0.00319588 0.0094846 0.00699246 0.00911432 0.00358179 -0.0210551 -0.0260517 -0.0156521 0.00193777 0.0217872 0.0315514 0.033825 0.0348116 -0.0182444 -0.0226622 -0.0115426 -0.0104451 -0.0331021 0.00442016 -0.00666541 -0.0156237 -0.0131199 -0.00961907 0.0114172 0.010726 0.0149267 0.0096961 0.00238675 0.00350515 0.0101639 0.00620464 -0.0020446 -0.00142971 -0.0174712 -0.012577 0.000231172 0.0150003 0.00643039 0.0102345 0.017855 -0.000707388 -0.00732375 -0.0353564 -0.0334217 -0.0180423 -0.0102401 0.0023847 -0.0253069 -0.0256824 -0.000886771 0.00287693 0.011626 -0.0027133 0.00651801 0.00235052 0.00901085 0.000309278 0.00115786 0.00686577 0.00266113 0.00651626 6.57154e-05 0.0145663 0.0132356 0.0224623 0.00861142 -0.000127374 0.000203461 0.000249044 -0.0112713 -0.0109573 -0.0202928 0.00174388 -0.00996928 -0.036911 -0.044025 -0.0154591 9.06597e-05 -0.00282957 0.00340974 0.00266291 0.00852146 0.00524719 0.00525773 0.00309278 0.00226804 0.00859993 0.00799033 -0.000322558 -0.0182859 -0.000690979 0.00937492 -0.00255386 -0.00736427 0.0094119 0.0174754 0.00900758 -0.00184619 0.0253944 0.0304661 0.0323465 0.00380808 -0.0164941 -0.0204497 -0.0221652 0.00148663 0.00383958 0.00904354 0.0103215 0.00602062 0.00410879 0.00587629 0.0071134 0.00958763 0.00371839 0.00517484 0.000714632 -0.00871887 0.00720364 0.0152536 0.0411138 0.0272492 0.0180795 0.0455212 0.0544029 0.0497321 0.0209016 0.00836157 0.0168754 0.0198239 0.0222113 8.9534e-05 0.00500229 0.0176339 0.0232806 0.0124925 0.00863052 0.0109862 0.00249888 0.0042268 0.0042268 0.00515464 0.00768433 0.00948316 -0.000558098 -0.00202995 0.00916654 0.0115097 0.0280559 0.0327491 0.0289151 0.0532316 0.0602988 0.0350819 -0.00271218 0.0207197 0.0391638 0.0513707 0.0419258 0.0138512 0.0171325 0.0302723 0.0344153 0.0333801 0.00815267 0.00743105 0.00452575 0.00123711 0.00649485 0.00762887 0.00520625 0.0019632 0.00206655 -0.0103277 -0.00848765 -0.0158101 -0.00496243 0.0153825 -0.00734203 0.00833801 0.0376775 0.0057449 0.00927563 0.0187018 0.0213434 0.053981 0.0626464 0.0423051 0.0332498 0.0346293 0.0238429 0.0196594 0.012028 0.00588264 0.00124901 0.00319588 0.00762887 0.00525773 0.00283789 0.00933745 -0.00118561 -0.00810828 -0.00665051 0.00333477 0.00502368 -0.0109495 -0.0074958 -0.00197172 0.00461436 -0.0113699 -0.00476474 -0.00110508 -0.00443909 0.0268291 0.022139 0.0226639 0.0151738 0.00794145 0.00330405 0.00298393 0.00883978 0.000931225 0.00475565 0.00216495 0.00484536 0.00257732 0.00443299 0.00896737 0.00394883 0.00529868 0.00323863 0.00675496 0.00806543 0.00829987 0.00469692 0.000952239 0.00133914 0.0101962 0.0126663 0.00829685 0.00742121 -0.00137702 0.00498291 0.0110824 0.00860475 0.00742702 0.0102777 0.00705082 0.00762808 0.00309278 0.00835052 0.00340206 0.00350515 0.00298969 0.00340206 0.00989691 0.00989691 0.00103093 0.00135525 0.00490829 0.0018118 0.005229 0.0090549 0.000283255 0.00277722 0.00637524 0.00697735 0.00624972 0.00230907 0.00734635 0.00952474 0.00198116 0.00634028 0.00423096 0.00371029 0.0019613 0.000103093 0.00618557 0.00845361 0.00917526 0.00721649 0.00309278 0.00546392 0.0102062 0.0071134 0.000927835 0.00443299 0.00412371 0.000618557 0.00484536 0.0014433 0.000206186 0.00453789 0.00454003 0.00876289 0.00123711 0.0071134 0.00103093 0.00783505 0.00948454 0.000515464 0.00463918 0.00701031 0.00896907 0.00938144 0.00597938 0.00371134 0.00463918 0.00164948 0.00536082 0.00123711 0.0043299 0.000515464 0.00752577 0.00765723 0.000901518 0.00908989 0.00723598 0.00640573 0.00796611 0.0063434 0.00438958 0.00302553 0.0049132 0.0100606 0.00132921 0.00186066 0.00529849 0.0070452 0.00744185 0.000831906 0.00360934 0.00247423 0.0056701 0.00989691 0.00701031 0.00113402 0.0071134 0.00804124 0.00105997 0.0041337 0.00813675 0.00857956 0.00168605 0.00175612 0.00825973 0.00219942 0.0059607 0.00634109 0.000348846 0.0058034 0.00623786 0.00198782 0.00543499 0.0035299 0.0073307 0.00198116 0.00371917 0.00514704 0.00728609 0.00314589 0.00295608 0.00680412 0.00835052 0.00247423 0.0014433 0.00102893 0.00358957 0.0071495 0.00118558 0.000235446 -0.00111054 0.00393803 0.00765612 -0.00185814 -0.000506826 -0.00326218 0.00486887 -0.000626991 0.00134224 0.000533863 0.00147479 0.00219808 0.00265252 0.00839872 0.00637671 0.00318038 0.00838726 0.000684013 0.00989265 0.00059023 0.0057732 0.00618557 0.00639175 0.00803441 0.0073176 0.00706664 0.00724231 0.00507891 0.000182096 0.00481201 0.00570461 -0.00162248 -0.00556525 0.00317656 -0.00299897 0.00253837 -0.0043289 -0.00302493 0.000763019 0.00402087 0.00636809 0.00402486 0.00583921 0.0107833 0.00115394 0.00719986 0.00171053 0.00165647 0.00759289 0.00257732 0.00257732 0.0079372 0.00588743 0.00278316 -0.00123595 0.00394467 0.00257305 -0.000608714 -0.0020262 -0.00207216 -0.000421346 -0.00332683 -0.00411593 0.00237855 -0.00513221 -0.006923 0.00323036 -0.0037752 -0.00111851 0.00528116 0.0118929 0.00609205 0.00579896 0.00424988 0.00553906 0.000290824 0.00059238 0.00226804 0.000721346 0.00472996 0.00275019 0.00705528 0.00693114 -0.00146001 0.00158815 -0.00137295 -0.00898523 -0.000916557 -0.00486759 -0.00916177 -0.00058064 -0.00583683 0.000715967 0.00345809 -0.0021831 0.0023539 0.00498419 0.000963351 0.00479287 0.0143305 0.00341561 0.0057765 0.00906047 0.00282169 0.00427673 0.00257732 0.00355859 0.0011324 0.00269782 0.00458644 0.00387764 0.000454259 0.000342168 -0.0042928 0.000787525 0.00251866 -0.00569108 -0.0125914 -0.00674649 -0.0146974 -0.00363963 -0.00470681 0.00543757 0.00161322 0.0035492 0.00270988 0.00274865 0.00727379 0.00638672 0.00546506 0.00713431 0.00834363 0.00796581 0.00529615 0.00521691 0.00223526 0.00638181 -0.00171504 0.00227943 -0.00133381 -0.00605691 -0.00665182 -0.0022674 0.00125405 0.00157045 -0.00264123 -0.00696409 8.92455e-05 -0.000911669 0.00331753 0.0102843 0.0020831 -0.00310403 -0.00207082 0.00157651 0.00255071 0.0180214 0.0122026 0.00398308 0.00206814 0.00304005 0.00804124 0.00159157 0.0012439 -0.000902715 0.00334565 0.00688819 0.00704373 0.00145268 -0.00218084 -0.00540315 -0.00137406 0.00657549 0.00395735 -0.00496675 -0.00397798 -0.000462411 -0.000955511 0.00579131 -0.00098013 -0.00184678 -0.00480615 0.00070996 0.00719624 0.0106267 0.012815 0.00553758 0.00904403 0.0079613 0.00876289 0.00480292 0.0056025 0.00466415 0.00146653 0.0076463 0.00563223 -0.00071183 0.000492163 0.0112193 0.00248646 0.00186615 0.00166302 -0.000757995 -0.000442308 0.00701669 0.000219839 -0.000359059 -0.00115248 -0.00076661 -0.00339388 0.000173318 0.00659755 0.0150468 0.0145227 0.0039345 0.00745651 0.00048186 0.00257732 0.00750863 0.00794683 0.00932126 0.00556352 0.0058356 0.00302582 0.00428898 0.00358842 0.00835653 0.00312546 0.00632481 0.00541364 -0.00480911 0.00169863 -0.00247729 -0.000119389 -0.0052072 -0.00657746 -0.00457146 -0.00549418 -0.00400447 0.0108328 0.0186115 0.022103 0.00873818 0.00564703 0.00727624 0.000721649 0.0091714 0.00633731 0.0093802 -0.000414631 0.00555853 0.0015764 -0.000227488 0.00211697 0.000230823 0.00355987 0.00331276 0.000321887 0.0025254 -0.00359743 0.000113463 -0.00515535 -0.00761805 -0.00319417 -0.00655766 0.00224734 0.00602723 0.0049512 0.0198511 0.0166467 0.00934278 0.0103298 0.00659469 0.00628866 0.00835058 0.00751005 0.00657474 0.00920343 0.000210011 0.00486886 -0.00675202 -0.00192403 0.00271113 0.00373921 0.00869564 0.00792998 0.00713155 0.000524649 -0.0012308 0.00145496 -0.00566954 -0.00335752 -0.0018057 -0.00281076 0.00910509 0.00211715 0.0190525 0.0149051 0.0116529 0.00256383 0.00989691 0.00628866 0.00678437 0.00173218 0.00924947 0.00501498 0.00385815 0.00162953 0.000362293 -0.00411441 0.00857759 0.0125694 0.0136396 0.00470567 -0.00790238 -0.00865409 -0.00724104 -0.00128995 -0.00508474 -0.00119071 -0.00561906 -0.000490782 0.00331747 0.00215287 0.0103717 0.00746698 0.000939253 0.0099492 0.00505155 0.00608247 0.0033693 0.00911827 0.00464743 0.00454687 0.00842692 -0.00130966 0.00436333 0.00741367 0.01068 0.00837498 0.00815391 0.00477824 -0.0114311 -0.01194 -0.00705726 -0.00222997 -0.00857227 -0.0014988 0.000403901 0.00590176 -0.000815431 0.00282938 0.0019668 0.00355552 0.00676272 0.00501497 0.0090399 0.00845361 0.00430866 0.00855785 -0.00165017 -0.00285841 0.00119744 0.00865865 0.00763884 -0.00224306 -0.00039685 0.0121918 0.00788732 -0.00137091 -0.00819142 -0.00652464 -0.000936924 -0.000618245 0.00129322 -0.00614608 -0.000624114 